tree
version=v4
num_class=1
num_tree_per_iteration=1
label_index=0
max_feature_idx=44
objective=binary sigmoid:1
feature_names=loanAmnt term interestRate installment employmentTitle homeOwnership annualIncome verificationStatus purpose postCode regionCode dti delinquency_2years ficoRangeLow ficoRangeHigh openAcc pubRec pubRecBankruptcies revolBal revolUtil totalAcc initialListStatus applicationType title policyCode n0 n1 n2 n3 n4 n5 n6 n7 n8 n9 n10 n11 n12 n13 n14 grade_freq subGrade_freq employmentLength_freq issueDate_freq earliesCreditLine_freq
feature_infos=[700:40000] [3:5] [5.3099999999999996:30.989999999999998] [21.25:1715.4200000000001] [0:378350] [0:5] [0:10999200] [0:2] [0:13] [0:938] [0:50] [0:831.97000000000003] [0:29] [660:845] [664:850] [0:82] [0:86] [0:7] [0:2568995] [0:180.30000000000001] [2:144] [0:1] [0:1] [0:61674] none [0:51] [0:33] [0:60] [0:60] [0:46] [0:64] [0:113] [0:79] [1:128] [0:45] [0:82] [0:4] [0:3] [0:29] [0:25] [5364:233690] [645:50763] [30272:262753] [7:29066] [1:5567]
tree_sizes=3407 3517 3513 3521 3535 3520 3519 3535 3518 3537 3553 3540 3543 3545 3551 3523 3549 3546 3548 3532 3536 3545 3533 3563 3552 3543 3557 3554 3548 3561 3559 3554 3563 3566 3557 3554 3558 3559 3565 3573 3560 3577 3573 3561 3556 3549 3563 3566 3572 3583 3562 3571 3567 3548 3575 3557 3578 3574 3572 3562 3573 3577 3570 3589 3575 3559 3582 3571 3573 3607 3572 3576 3567 3594 3562 3569 3559 3580 3577 3584 3565 3574 3580 3589 3562 3578 3582 3572 3588 3579 3577 3576 3560 3560 3565 3583 3559 3576 3578 3555 3599 3579 3569 3571 3596 3587 3576 3584 3582 3572 3581 3586 3558 3569 3573 3585 3584 3590 3545 3583 3589 3568 3543 3571 3561 3555 3589 3596 3576 3582 3581 3568 3572 3553 3564 3582 3583 3578 3565 3566 3559 3527 3559 3587 3554 3564 3588 3567 3570 3560 3558 3580 3582 3551 3581 3563 3544 3520 3533 3571 3552 3569 3555 3611 3579 3525 3546 3561 3573 3605 3553 3548 3553 3574 3563 3495 3555 3537 3561 3551 3534 3546 3501 3558 3562 3509 3515 3547 3545 3493 3522 3556 3524 3545 3515 3540 3530 3509 3550 3508

Tree=0
num_leaves=31
num_cat=0
split_feature=2 41 41 1 1 43 5 40 5 41 41 2 5 23 41 23 3 1 23 3 2 11 1 11 13 43 2 5 41 11
split_gain=29707.9 7146.59 4055.46 1651.54 1639.93 903 865.062 769.823 737.916 703.091 701.202 447.857 347.659 332.789 299.725 275.072 252.65 242.005 233.704 230.419 224.209 222.103 212.016 198.663 195.345 192.804 191.006 177.853 172.898 160
threshold=13.115 23032.500000000004 44249.500000000007 4.0000000000000009 4.0000000000000009 9446.5000000000018 1.0000000180025095e-35 230404.00000000003 1.0000000180025095e-35 44511.500000000007 34486.500000000007 23.730000000000004 1.0000000180025095e-35 14.000000000000002 44511.500000000007 14.000000000000002 167.56500000000003 4.0000000000000009 11.500000000000002 167.56500000000003 22.720000000000002 25.325000000000003 4.0000000000000009 24.315000000000001 697.50000000000011 12552.500000000002 14.085000000000003 1.0000000180025095e-35 48782.500000000007 21.885000000000002
decision_type=2 2 2 2 2 2 2 2 2 2 2 2 2 2 2 2 2 2 2 2 2 2 2 2 2 2 2 2 2 2
left_child=2 3 10 11 9 20 14 22 21 12 -1 16 -3 24 25 19 -2 27 -18 -14 -5 -7 -4 -10 29 -6 28 -9 -11 -8
right_child=1 4 7 5 6 8 13 17 23 26 -12 -13 15 -15 -16 -17 18 -19 -20 -21 -22 -23 -24 -25 -26 -27 -28 -29 -30 -31
leaf_value=-1.4358183027577294 -1.3819453984412136 -1.3839396290954142 -1.3911413631500242 -1.3530074322695949 -1.3708536518132564 -1.3333547769219971 -1.3345983142823732 -1.4137982872368438 -1.2997135488874587 -1.3841993518025695 -1.4201778438741726 -1.3220072199536914 -1.3834714636532608 -1.3754376994257667 -1.3863577996578234 -1.3906227905351602 -1.3482085534581461 -1.39107024634642 -1.3824353020209903 -1.3600654698606978 -1.3252945240141767 -1.3051812006904777 -1.3708558650321578 -1.2729516303749291 -1.349374079872304 -1.3489716193373158 -1.4044912002975232 -1.4030984468297438 -1.4084343190656494 -1.3069984247419628
leaf_weight=13038.181545943022 923.26768805086613 5655.2341867983341 6256.5320324152708 1699.9241085648537 2389.0609488934278 2151.0971268564463 1444.8716093748808 7135.401101320982 1805.8100240081549 4907.8041954338551 15911.47491659224 1021.9667766541243 1279.7342993170023 539.4911347925663 1743.3644841313362 1145.7399055659771 3551.7298243492842 2448.3123435080051 580.21648688614368 5895.4339105188847 1278.935763001442 1036.6598448604345 1621.9869641661644 1125.7764976769686 1220.3231974393129 1739.6912170797586 2451.6661960333586 8522.298974186182 865.77307333052158 824.88801397383213
leaf_count=81638 5781 35410 39175 10644 14959 13469 9047 44678 11307 30730 99629 6399 8013 3378 10916 7174 22239 15330 3633 36914 8008 6491 10156 7049 7641 10893 15351 53362 5421 5165
internal_value=-1.38934 -1.36029 -1.41435 -1.33201 -1.37365 -1.31853 -1.35673 -1.40001 -1.30754 -1.3812 -1.42722 -1.3522 -1.37437 -1.33889 -1.36897 -1.36787 -1.3583 -1.40569 -1.35301 -1.36424 -1.34111 -1.32419 -1.38697 -1.28944 -1.33324 -1.36163 -1.3928 -1.40797 -1.38783 -1.32457
internal_weight=102213 47278.5 54934.2 15175.4 32103.1 9098.2 9901.69 25984.5 6119.34 22201.4 28949.7 6077.18 13976.1 4029.57 5872.12 8320.91 5055.21 18106 4131.95 7175.17 2978.86 3187.76 7878.52 2931.59 3490.08 4128.75 8225.24 15657.7 5773.58 2269.76
internal_count=640000 296032 343968 95020 201012 56968 61999 162701 38316 139013 181267 38052 87511 25231 36768 52101 31653 113370 25872 44927 18652 19960 49331 18356 21853 25852 51502 98040 36151 14212
is_linear=0
shrinkage=1


Tree=1
num_leaves=31
num_cat=0
split_feature=2 41 41 1 1 5 43 40 41 41 5 2 11 23 41 1 23 3 2 1 2 5 11 11 5 13 41 5 11 5
split_gain=26739.6 6054.34 3832.21 1428.56 1346.63 732.289 723.198 705.471 680.266 626.844 546.296 371.878 312.141 278.948 262.08 223.457 219.102 204.882 202.186 189.075 174.221 173.752 171.677 169.952 166.317 161.887 157.291 154.835 150.07 148.917
threshold=13.115 23032.500000000004 44249.500000000007 4.0000000000000009 4.0000000000000009 1.0000000180025095e-35 9655.0000000000018 230404.00000000003 34486.500000000007 44511.500000000007 1.0000000180025095e-35 23.730000000000004 21.685000000000006 14.000000000000002 44511.500000000007 4.0000000000000009 11.500000000000002 244.25500000000002 26.100000000000005 4.0000000000000009 14.085000000000003 1.0000000180025095e-35 25.065000000000001 21.985000000000003 1.0000000180025095e-35 682.50000000000011 48782.500000000007 1.0000000180025095e-35 14.245000000000003 1.0000000180025095e-35
decision_type=2 2 2 2 2 2 2 2 2 2 2 2 2 2 2 2 2 2 2 2 2 2 2 2 2 2 2 2 2 2
left_child=2 4 8 9 11 14 18 19 -1 12 23 16 27 25 22 24 17 -2 -6 29 26 -14 -5 -8 -9 -7 -11 -3 -12 -4
right_child=1 3 7 5 6 13 10 15 -10 20 28 -13 21 -15 -16 -17 -18 -19 -20 -21 -22 -23 -24 -25 -26 -27 -28 -29 -30 -31
leaf_value=-0.045449926320014829 0.017394637224916836 -0.00048530013260122279 -0.010724516181440862 0.019970686423661097 0.040166925511315482 0.063338134631037823 0.049234081246603216 -0.023586847426278292 -0.029859029175311171 0.0048719766490993187 0.068955441188970248 0.061412473162401851 0.012856649349780761 0.013098583893519242 0.0028316948865343343 -0.0016416590818355262 0.0039603563627735169 0.0405629352535328 0.074826971704242878 0.017365550860906732 -0.014525415478378809 0.03057713452510126 0.043182089141541417 0.072352212719838091 -0.013178422217518169 0.0420256989456122 -0.018351645152724909 0.013409715394790378 0.095694070165999734 0.0048982610969631416
leaf_weight=12674.73240891099 1399.3210220336914 3291.2038443982601 2643.3315588980913 3128.8626841455698 2777.1156318932772 1605.0785089731216 1700.4162013530731 7030.6347105503082 15616.987629085779 4922.9807955026627 676.16520430147648 1063.3909671753645 2382.4015365540981 544.0019057393074 1746.4935952425003 2445.7726053893566 750.26242344081402 3000.0523662567139 495.8907760232687 1640.0194282531738 2429.3610053211451 3298.5879447162151 1068.7113065719604 1493.0146153271198 8451.8887264728546 2002.8519243896008 855.84741054475307 5129.782860070467 2343.4314238578081 3606.4429489076138
leaf_count=81638 8644 20541 16569 19276 16907 9676 10300 44678 99629 30730 4017 6399 14869 3378 10916 15330 4678 18331 2987 10156 15351 20375 6576 8940 53362 12177 5421 31726 13817 22606
internal_value=-1.96642e-05 0.027103 -0.0241325 0.0147569 0.052588 0.0303625 0.0644393 -0.0102034 -0.0368438 0.00769487 0.0744595 0.0344934 0.014089 0.0464746 0.0191082 -0.0156863 0.0289347 0.0331937 0.0454182 0.00225566 -0.0032905 0.0231458 0.0258804 0.0600424 -0.0179049 0.0515071 0.00143255 0.00797908 0.0897066 -0.00170937
internal_weight=102215 48105.2 54109.8 32406.2 15699.1 10096 9486.03 25818.1 28291.7 22310.2 6213.03 6213.03 14102 4151.93 5944.07 17928.3 5149.64 4399.37 3273.01 7889.79 8208.19 5680.99 4197.57 3193.43 15482.5 3607.93 5778.83 8420.99 3019.6 6249.77
internal_count=640000 296032 343968 201012 95020 61999 56968 162701 181267 139013 37074 38052 87511 25231 36768 113370 31653 26975 19894 49331 51502 35244 25852 19240 98040 21853 36151 52267 17834 39175
is_linear=0
shrinkage=0.05


Tree=2
num_leaves=31
num_cat=0
split_feature=2 41 41 1 1 41 40 5 5 41 23 2 43 23 43 43 23 5 5 1 3 23 1 41 3 11 40 21 6 5
split_gain=24097 5166.48 3619.31 1248.45 1113.28 660.18 646.136 624.22 603.625 567.383 384.583 311.906 254.093 250.97 249.488 235.818 225.333 232.029 215.857 206.191 197.583 171.914 168.773 161.367 160.231 157.855 145.118 138.38 137.994 135.036
threshold=13.115 23032.500000000004 44249.500000000007 4.0000000000000009 4.0000000000000009 34486.500000000007 230404.00000000003 1.0000000180025095e-35 1.0000000180025095e-35 44249.500000000007 14.000000000000002 23.730000000000004 9912.5000000000018 14.000000000000002 11916.000000000002 11403.500000000002 11.500000000000002 1.0000000180025095e-35 1.0000000180025095e-35 4.0000000000000009 167.56500000000003 11.500000000000002 4.0000000000000009 13405.000000000002 171.10000000000005 17.165000000000003 37357.000000000007 1.0000000180025095e-35 69997.500000000015 1.0000000180025095e-35
decision_type=2 2 2 2 2 2 2 2 2 2 2 2 2 2 2 2 2 2 2 2 2 2 2 2 2 2 2 2 2 2
left_child=2 4 5 9 11 -1 22 14 12 13 26 20 -6 18 -5 27 17 -11 -3 25 -2 -22 29 -14 -20 -8 -10 -9 -17 -4
right_child=1 3 6 7 8 -7 19 15 10 16 -12 -13 23 -15 -16 28 -18 -19 24 -21 21 -23 -24 -25 -26 -27 -28 -29 -30 -31
leaf_value=-0.044449325496985527 0.0061892127802684917 0.0094072278673300661 -0.010256161818474359 0.0096741846879662974 0.03255596766258094 -0.028905964082457172 -0.022262640854158307 0.041752697221052099 0.092745721450773241 -0.005810447380989031 0.037117647167609617 0.056286697896487249 0.064527547558281828 -0.0039914766595817259 0.030491719441694373 0.066979594832849348 -0.013613190995539384 0.010000194296897517 0.0070806255851517483 -0.0015611581750842572 0.03550309455461919 0.006322179548988437 0.016324040318432341 0.041308358202448124 0.029264501209381302 -0.01210991341706707 0.071714375427959665 0.01649809742386334 0.040215691480506133 0.004639314269509801
leaf_weight=12321.099218428135 935.68614329397678 3627.4841138422489 2626.2852727621794 3624.0518564879894 1907.5376040786505 15332.648983702064 7680.6119399517775 1411.4368720054626 1138.05818746984 4007.8499746471643 685.81823578476906 1101.1866125017405 1957.7385140955448 1388.0012765526772 2387.3149041384459 1135.7144301682711 2466.8340745419264 5511.7598811835051 998.12796220183372 2443.3575926721096 3717.7152837514877 584.00784181058407 1656.9728652834892 1211.2167233228683 4411.8022587001324 7633.6959761828184 2936.8243492543697 880.97159186005592 836.23564431071281 3617.0710815191269
leaf_count=81638 5781 22566 16569 22281 11294 99629 49164 8338 6451 25039 4086 6399 11395 8619 14487 6661 15651 34169 6151 15330 22239 3633 10156 7055 26818 48876 16687 5314 4918 22606
internal_value=-3.58007e-05 0.0253271 -0.0232824 0.01389 0.0484389 -0.0358313 -0.00975739 0.0283209 0.0589682 0.00727341 0.071758 0.0320979 0.046974 0.0158038 0.0179415 0.0429526 -0.000146016 0.00334376 0.018844 -0.0150498 0.0270122 0.0315415 0.00213834 0.0556529 0.0251716 -0.0172018 0.0775881 0.0320474 0.05563 -0.00162651
internal_weight=102175 48863.4 53311.7 32687.6 16175.8 27653.7 25658 10275.7 9837.19 22411.9 4760.7 6338.6 5076.49 10425.4 6011.37 4264.36 11986.4 9519.61 9037.41 17757.7 5237.41 4301.72 7900.33 3168.96 5409.93 15314.3 4074.88 2292.41 1971.95 6243.36
internal_count=640000 296032 343968 201012 95020 181267 162701 61999 56968 139013 27224 38052 29744 64154 36768 25231 74859 59208 55535 113370 31653 25872 49331 18450 32969 98040 23138 13652 11579 39175
is_linear=0
shrinkage=0.05


Tree=3
num_leaves=31
num_cat=0
split_feature=2 41 41 1 1 41 5 40 5 2 4 23 5 11 23 3 11 1 0 43 11 5 5 1 41 11 13 23 41 34
split_gain=21736.7 4530.92 3416.26 1600.83 733.072 640.764 626.189 591.497 391.386 378.614 371.841 357.691 323.172 301.847 242.528 194.957 194.762 190.124 187.576 162.82 157.791 157.361 152.086 161.749 148.341 141.407 138.547 134.323 122.217 119.529
threshold=13.115 28533.000000000004 44249.500000000007 4.0000000000000009 4.0000000000000009 34486.500000000007 1.0000000180025095e-35 230404.00000000003 1.0000000180025095e-35 21.070000000000004 188200.50000000003 14.000000000000002 1.0000000180025095e-35 25.325000000000003 14.000000000000002 180.71500000000003 22.085000000000004 4.0000000000000009 3512.5000000000005 9655.0000000000018 26.665000000000003 1.0000000180025095e-35 1.0000000180025095e-35 4.0000000000000009 45909.500000000007 15.525 687.50000000000011 14.000000000000002 5132.5000000000009 5.5000000000000009
decision_type=2 2 2 2 2 2 2 2 2 2 2 2 2 2 2 2 2 2 2 2 2 2 2 2 2 2 2 2 2 2
left_child=2 3 5 9 11 -1 13 22 24 14 20 12 -3 19 15 -2 -14 21 -11 -5 -8 -9 -4 -24 -6 -17 -15 -10 -21 -23
right_child=1 4 7 6 8 -7 10 17 27 18 -12 -13 16 26 -16 25 -18 -19 -20 28 -22 29 23 -25 -26 -27 -28 -29 -30 -31
leaf_value=-0.043469887513218522 0.0073232658401479883 -0.0015997898670479145 -0.0054540774420598903 0.022073797355874503 0.016558852014319659 -0.027973997213590673 0.063762320319127749 -0.022125111911609634 0.039107390322032601 0.0071141825403531842 0.037444389087106615 -0.011254503268034439 0.0076374899242310475 0.069092613452871862 -3.8283782637827321e-05 0.016633250018105158 0.023055618254386529 -0.0014845322834236899 0.048799967356207619 0.067139067956550127 0.083467964350737153 -0.016489632570850357 0.0043947921245453261 0.031871422582690802 -0.007964008645305545 0.033458620033578614 0.041897001115594218 0.0095967527207250908 0.037348514326575231 -0.0040603091763535193
leaf_weight=11977.569068729877 1384.9459088891745 6184.2298700660467 3654.5012356042862 1721.9631718099117 4081.5536739528179 15058.381781876087 3441.4448076635599 6856.9106237441301 2882.4438328295946 310.58109956979752 1103.6943416148424 3199.8191305845976 5564.1350889950991 1127.6777804195881 1207.0045878142118 1816.6735986620188 3241.4722961187363 2441.0611376166344 2058.2974678874016 401.24840572476387 1441.3492301106453 5224.9535260945559 3627.141044318676 628.41537959873676 726.4348601847887 3994.6692946404219 800.94215643405914 445.14552994072437 2424.9994068145752 3071.2610454559326
leaf_count=81638 8485 38590 22910 10123 24672 99629 19026 44678 16536 1845 6341 20340 34073 6385 7497 10856 19684 15330 11897 2275 7843 33620 22606 3815 4501 23798 4565 2709 13991 19742
internal_value=-4.92305e-05 0.0237043 -0.0224558 0.0397961 0.00950121 -0.034839 0.0519973 -0.00932882 0.0219772 0.0256795 0.0636547 0.00392115 0.00716063 0.0412225 0.0207025 0.0241813 0.0133131 -0.0144344 0.0433346 0.0341936 0.0695792 -0.0165205 0.00202743 0.00845225 0.0128537 0.0281989 0.0577985 0.0351596 0.0415779 -0.0118883
internal_weight=102101 49560.7 52540.2 23235.5 26325.2 27036 12463.3 25504.2 8135.58 10772.2 5986.49 18189.7 14989.8 6476.83 8403.29 7196.29 8805.61 17594.2 2368.88 4548.21 4882.79 15153.1 7910.06 4255.56 4807.99 5811.34 1928.62 3327.59 2826.25 8296.21
internal_count=640000 296032 343968 134927 161105 181267 70549 162701 48418 64378 33210 112687 92347 37339 50636 43139 53757 113370 13742 26389 26869 98040 49331 26421 29173 34654 10950 19245 16266 53362
is_linear=0
shrinkage=0.05


Tree=4
num_leaves=31
num_cat=0
split_feature=2 41 41 1 1 41 43 40 5 23 11 5 2 6 11 5 3 23 1 13 13 0 41 2 5 5 43 5 43 5
split_gain=19623.7 3926.24 3222.73 1358.19 648.106 623.067 559.188 545.398 339.704 336.767 326.273 310.472 279.525 236.879 185.651 178.067 171.249 144.964 143.622 142.285 140.395 133.531 132.521 131.14 130.234 120.473 118.098 114.846 114.616 114.59
threshold=13.115 28533.000000000004 45909.500000000007 4.0000000000000009 4.0000000000000009 34486.500000000007 11403.500000000002 230404.00000000003 1.0000000180025095e-35 14.000000000000002 17.075000000000003 1.0000000180025095e-35 21.070000000000004 60842.500000000007 19.305000000000003 1.0000000180025095e-35 174.06500000000003 14.000000000000002 4.0000000000000009 692.50000000000011 682.50000000000011 3012.5000000000005 48782.500000000007 22.720000000000002 1.0000000180025095e-35 1.0000000180025095e-35 9912.5000000000018 1.0000000180025095e-35 2662.0000000000005 1.0000000180025095e-35
decision_type=2 2 2 2 2 2 2 2 2 2 2 2 2 2 2 2 2 2 2 2 2 2 2 2 2 2 2 2 2 2
left_child=2 3 5 9 10 -1 13 18 19 12 17 20 16 28 -9 -12 -2 27 29 -6 -8 -14 -17 -15 -18 -7 -10 -3 -5 -4
right_child=1 4 7 6 8 25 11 14 26 -11 15 -13 21 23 -16 22 24 -19 -20 -21 -22 -23 -24 -25 -26 -27 -28 -29 -30 -31
leaf_value=-0.042509316299798837 0.0056439226646008405 -0.0088718120120650119 -0.0095250240390985369 0.020393712479826954 0.020860050562381917 -0.031286023650228374 0.056529721010688309 -0.01808091704478245 0.022118953905195079 0.0010824170908607105 0.0018496694978519688 0.068915351684475587 0.0059030127297921052 0.022289323812215135 -0.0075635887210281352 0.017263271160932514 0.017188247864743798 -0.017417916570480547 0.014989028408426391 0.0037176421064858758 0.036027380510529346 0.046883981396527996 -0.01106869755856636 0.042084702640416013 0.032123130699044773 -0.02225188255784397 0.040937512823029279 0.0049206291485846855 0.053343063907704019 0.0042413321807044995
leaf_weight=11644.342682480812 1230.8984734266996 2495.7631216496229 2593.6487025022507 301.36262355744839 2373.40465259552 7877.0377445071936 1867.828695833683 10406.632769092917 1475.8229296207428 1394.4419432282448 4335.3491196930408 3307.6150586903095 220.49400886893272 2416.4215663820505 7030.6350081413984 5543.8296632617712 2446.5954781025648 1591.0897927433252 1676.3332453966141 2470.4343078285456 1510.0574028939009 2017.7207918763161 445.93534851074219 1279.7640469521284 3618.6611448824406 6942.8738120794296 1916.1440690904856 3818.5136909931898 2124.8827555924654 3623.4909401535988
leaf_count=81638 7529 15629 16520 1739 14245 53042 10342 67783 8527 8621 27145 17384 1298 13798 45587 33570 14514 10192 10126 14928 8410 11320 2862 7059 21096 46748 10718 23289 11817 22524
internal_value=-6.05057e-05 0.0222158 -0.0216522 0.0369807 0.00897372 -0.0338542 0.0480288 -0.00890411 0.0206148 0.024033 0.00371475 0.0580266 0.0273896 0.0371115 -0.0138404 0.00956771 0.0226479 -0.00392973 0.00200045 0.0121172 0.0473643 0.0428468 0.015154 0.0291433 0.0260987 -0.0270537 0.0327497 -0.000530932 0.0492504 -0.00150168
internal_weight=101998 50203 51795 23736.7 26466.3 26464.3 12807.9 25330.7 8235.81 10928.8 18230.5 6685.5 9534.37 6122.43 17437.3 10325.1 7296.16 7905.37 7893.47 4843.84 3377.89 2238.21 5989.77 3696.19 6065.26 14819.9 3391.97 6314.28 2426.25 6217.14
internal_count=640000 296032 343968 134927 161105 181428 70549 162540 48418 64378 112687 36136 55757 34413 113370 63577 43139 49110 49170 29173 18752 12618 36432 20857 35610 99790 19245 38918 13556 39044
is_linear=0
shrinkage=0.05


Tree=5
num_leaves=31
num_cat=0
split_feature=2 40 41 41 1 41 40 43 5 11 2 41 2 41 3 1 3 11 6 11 4 5 23 5 5 1 11 5 6 5
split_gain=17728.5 3419.05 3037.91 1223.41 789.094 604.511 498.73 445.546 394.13 298.53 234.01 229.128 216.172 196.595 187.553 176.987 173.793 163.738 151.081 150.6 149.244 148.27 146.538 137.275 130.912 128.421 121.73 119.091 117.572 114.688
threshold=13.115 87557.000000000015 45909.500000000007 44511.500000000007 4.0000000000000009 34486.500000000007 230404.00000000003 11029.000000000002 1.0000000180025095e-35 21.885000000000002 27.325000000000003 5132.5000000000009 14.085000000000003 48782.500000000007 212.02000000000001 4.0000000000000009 171.10000000000005 25.195000000000004 85002.000000000015 13.385000000000003 196484.00000000003 1.0000000180025095e-35 14.000000000000002 1.0000000180025095e-35 1.0000000180025095e-35 4.0000000000000009 21.985000000000003 1.0000000180025095e-35 61021.725000000006 1.0000000180025095e-35
decision_type=2 2 2 2 2 2 2 2 2 2 2 2 2 2 2 2 2 2 2 2 2 2 2 2 2 2 2 2 2 2
left_child=2 7 5 4 9 -1 25 10 17 16 14 -9 13 23 -2 21 -3 28 -16 -13 26 -8 27 -5 -11 -4 -10 -18 -6 -7
right_child=1 3 6 12 8 29 15 11 20 24 -12 19 -14 -15 18 -17 22 -19 -20 -21 -22 -23 -24 -25 -26 -27 -28 -29 -30 -31
leaf_value=-0.041565632888114497 0.0033583517761838835 -0.0068750627441823732 -0.0014286798962348315 -0.00052371863498556017 0.029493445758364902 -0.030340397251706248 -0.020815650091318735 0.071093184494226122 0.037435751182062597 0.012544591423672945 0.062590911990548656 0.030985342272772755 -0.011185791596454423 -0.016134364801517042 0.039983072037083518 -0.00072071619371655076 0.005345688809000858 0.035553977906920498 0.019171675924623276 0.052634211508460954 0.019745565047686459 -0.010781398894642098 -0.0048467264855770161 0.013649436889829595 0.026436084657199078 0.014113373428349155 0.055281965671665691 0.018395717236969391 0.011238331218375711 -0.021450669908576536
leaf_weight=11321.541709780693 580.21107420325279 1767.136848911643 6211.2564576268196 3127.349535882473 1240.0928149968386 7720.4557563066483 6704.5120248049498 1413.7818168401718 2306.8702109158039 2867.9958550632 622.74017085134983 1004.0058427155018 3226.2505744695663 1036.7433789819479 2893.8921853601933 2418.2918578237295 2926.561012968421 1530.9614450633526 1248.1980473250151 4019.1814660727978 698.21497319638729 8164.8668738007545 1341.1115011125803 3765.4407335668802 4150.185711607337 1690.9355244338512 1631.1854343265295 4341.8935881108046 3054.5898342430592 6844.638253107667
leaf_count=81638 3363 10873 39044 19398 7187 53042 44678 7345 12526 17410 3302 5481 20427 6624 15905 15330 17914 8670 6939 21505 3971 53362 8420 22512 24251 10126 8681 25547 17781 46748
internal_value=-6.97143e-05 0.0208465 -0.0208705 0.0137176 0.0193208 -0.0328992 -0.00850896 0.0444516 0.0301719 0.0127946 0.0337814 0.0533118 -0.000274034 0.00416558 0.0299823 -0.0132655 0.0074077 0.0215143 0.0337117 0.0483072 0.0410505 -0.0153058 0.0103393 0.00721889 0.0207593 0.00189706 0.0448278 0.0131413 0.0165095 -0.0261628
internal_weight=101871 50794.6 51076.5 39012.6 27856.8 25886.6 25189.9 11782 10461.9 17394.9 5345.04 6436.97 11155.8 7929.53 4722.3 17287.7 10376.7 5825.64 4142.09 5023.19 4636.27 14869.4 8609.57 6892.79 7018.18 7902.19 3938.06 7268.45 4294.68 14565.1
internal_count=640000 296032 343968 232192 163231 181428 162540 63840 58816 104415 29509 34331 68961 48534 26207 113370 62754 33638 22844 26986 25178 98040 51881 41910 41661 49170 21207 43461 24968 99790
is_linear=0
shrinkage=0.05


Tree=6
num_leaves=31
num_cat=0
split_feature=2 41 40 1 41 41 6 1 23 43 40 3 6 2 2 1 41 5 4 13 5 5 11 27 5 5 34 34 2 23
split_gain=16036.7 3892.97 2125.94 1021.07 699.11 614.376 453.519 426.964 267.208 262.296 235.07 232.476 229.595 214.03 190.331 189.627 184.483 181.781 162.427 151.772 149.914 138.278 137.888 126.641 120.387 115.341 115.188 111.031 110.241 107.296
threshold=12.510000000000002 28533.000000000004 183389.50000000003 4.0000000000000009 45909.500000000007 48782.500000000007 75002.000000000015 4.0000000000000009 14.000000000000002 9655.0000000000018 230404.00000000003 260.9500000000001 60842.500000000007 19.98 13.600000000000001 4.0000000000000009 26218.500000000004 1.0000000180025095e-35 179908.00000000003 682.50000000000011 1.0000000180025095e-35 1.0000000180025095e-35 14.885000000000003 5.5000000000000009 1.0000000180025095e-35 1.0000000180025095e-35 5.5000000000000009 5.5000000000000009 21.195000000000004 11.500000000000002
decision_type=2 2 2 2 2 2 2 2 2 2 2 2 2 2 2 2 2 2 2 2 2 2 2 2 2 2 2 2 2 2
left_child=2 3 16 8 7 22 9 17 11 28 14 25 -9 -13 20 21 -1 -3 24 -11 -6 -7 -4 -19 -8 -2 -22 -23 -5 -14
right_child=1 4 5 6 10 15 18 12 -10 19 -12 13 29 -15 -16 -17 -18 23 -20 -21 26 27 -24 -25 -26 -27 -28 -29 -30 -31
leaf_value=-0.043358730380470778 -0.00047988531746795448 -0.00053499242489732563 -0.02677986861172877 0.025956865157718945 -0.0042601254106697344 -0.015761130328490094 0.02767529641940572 0.032905638344083818 0.00076231813356955657 0.0622664143690735 -0.019188568261570518 0.022849688947767337 0.017234025551461876 0.04178030156642841 -0.012949732766029882 0.007587841628504558 -0.032401653567156762 0.0059454172815817203 0.01282705186275508 0.045515780554953041 0.0034321035042829012 -0.0096336093195160573 -0.017344179607970533 0.018356924739644957 0.045241761119618855 0.019651335820172557 0.020989774844274736 0.0042405824713375607 0.046242784306985175 -0.0068148958874877062
leaf_weight=7654.59057533741 1047.8633900284767 5689.7570896148682 6733.5619384348392 1341.4922177344561 3419.0899870544672 4604.9192459583282 2477.7189785540104 2681.6709281951189 1403.6884690225124 3180.5900192260742 2034.5118118524551 4233.2491043061018 4066.1751061975956 2306.6555296927691 2334.9308987259865 1989.3674892932177 7711.8202882558107 5036.9286112636328 1084.9940004199743 2352.4928435087204 2493.7963139414787 3734.6982064843178 9110.4991284608841 3471.9222376942635 1608.4878432452679 2216.6816155016422 1493.639148324728 2348.9781251847744 1337.3997146934271 523.51306217908859
leaf_count=56762 6171 35506 46160 7433 21451 30782 13427 15141 8637 16219 13390 24272 23276 12498 14951 12389 55244 30206 6012 12147 15220 24350 62181 20650 8193 12816 9097 15178 7118 3123
internal_value=-7.74469e-05 0.0172161 -0.0228673 0.032299 0.00605956 -0.01479 0.0416228 0.0114293 0.0211658 0.0489268 -0.00373063 0.0240869 0.0212823 0.0295266 -0.000502221 -0.00658634 -0.0378598 0.00638348 0.0300239 0.0551446 0.0034219 -0.00922444 -0.0213542 0.0110098 0.0345901 0.0131896 0.010009 -0.00427662 0.0360843 0.0144909
internal_weight=101726 57837.2 43888.4 24591.3 33245.9 28522 13383.2 21470 11208.1 8211.97 11776 9804.45 7271.36 6539.9 9741.46 12678 15366.4 14198.6 5171.2 5533.08 7406.53 10688.6 15844.1 8508.85 4086.21 3264.55 3987.44 6083.68 2678.89 4589.69
internal_count=640000 336954 303046 134943 202011 191040 70549 127902 64394 42917 74109 55757 41540 36770 60719 82699 112006 86362 27632 28366 45768 70310 108341 50856 21620 18987 24317 39528 14551 26399
is_linear=0
shrinkage=0.05


Tree=7
num_leaves=31
num_cat=0
split_feature=2 41 40 1 41 41 5 1 11 11 23 11 41 1 3 6 3 43 40 5 23 40 5 41 2 1 43 5 6 5
split_gain=14549.3 3416.25 2023.93 882.64 633.795 570.488 395.477 293.522 292.25 257.181 236.348 207.99 180.915 172.066 163.687 159.554 148.801 142.386 138.773 137.838 133.05 129.216 127.211 125.488 124.807 123.626 117.412 115.235 112.578 106.024
threshold=12.510000000000002 28533.000000000004 183389.50000000003 4.0000000000000009 44511.500000000007 48782.500000000007 1.0000000180025095e-35 4.0000000000000009 18.185000000000006 25.195000000000004 14.000000000000002 25.325000000000003 26218.500000000004 4.0000000000000009 260.9500000000001 65910.500000000015 165.82500000000002 2826.0000000000005 230404.00000000003 1.0000000180025095e-35 70.500000000000014 230404.00000000003 1.0000000180025095e-35 11835.500000000002 23.465000000000003 4.0000000000000009 7090.5000000000009 1.0000000180025095e-35 90012.000000000015 1.0000000180025095e-35
decision_type=2 2 2 2 2 2 2 2 2 2 2 2 2 2 2 2 2 2 2 2 2 2 2 2 2 2 2 2 2 2
left_child=2 3 12 9 7 19 11 16 21 14 17 28 -1 22 -2 -9 -3 -8 27 -4 -18 29 -7 -19 -11 -21 -16 -10 -5 -6
right_child=1 4 5 6 8 13 10 15 18 24 -12 -13 -14 -15 26 -17 20 23 -20 25 -22 -23 -24 -25 -26 -27 -28 -29 -30 -31
leaf_value=-0.042464250392173372 0.00476072380866744 -0.0062572529308726936 -0.025138790115564955 0.030425778176140846 -0.011049541133821179 -0.015127838244751385 -0.019674154242662556 0.031729907952206496 0.0015107028345006351 0.027469193497299774 0.02326786979047964 0.043569055338280996 -0.031473353732185856 0.007175061296067993 0.0046101440023213957 0.014651070986491 0.012601667353355323 0.060170829099432013 -0.012833501224164138 -0.017574026637617691 -0.0083833046662127129 -0.022932048904462828 -0.0040746277201634141 0.045253172795929199 0.055674342348861539 0.0065026646445282554 0.023746193953663699 0.013774644052364296 0.014573340026697785 0.00053783916283887869
leaf_weight=7430.762996673584 2670.4067707806826 1550.4922332465649 8038.9238432496786 3171.8855081498623 3652.1250200271606 4559.0055555999279 70.010116413235664 2480.99940495193 3613.2587408870459 3093.0579575002193 872.46068112552166 2120.963877722621 7546.5736914873123 1998.3865404129028 994.79668198525906 3047.0128075182438 7789.7281727492809 2595.8732364922762 890.90701678395271 7010.706439435482 836.43532522022724 1119.2046534121037 6067.485451951623 3085.2877364009619 449.16933982074261 577.04044705629349 4127.1476356685162 4076.3006435632706 1731.2387797832489 4296.5854375064373
leaf_count=56762 15641 9448 56151 16969 22990 30782 365 13694 22674 17486 4755 10950 55244 12389 5886 17265 46530 12667 5904 48292 5237 7486 39528 15423 2324 3898 23057 24589 9420 26194
internal_value=-8.38491e-05 0.0162069 -0.0220675 0.0301877 0.00573498 -0.0141902 0.0387525 0.0130416 -0.000766892 0.019875 0.0475174 0.0304873 -0.0369263 -0.00628538 0.014797 0.0223161 0.00800358 0.0511961 0.00584755 -0.0205765 0.0105669 -0.00702577 -0.00881671 0.0520694 0.0310457 -0.015743 0.0200295 0.00801192 0.0248285 -0.00478611
internal_weight=101564 58335.3 43228.9 24982.3 33353 28251.5 13647.7 15704.7 17648.4 11334.6 6623.63 7024.09 14977.3 12624.9 7792.35 5528.01 10176.7 5751.17 8580.47 15626.7 8626.16 9067.92 10626.5 5681.16 3542.23 7587.75 5121.94 7689.56 4903.12 7948.71
internal_count=640000 336954 303046 134943 202011 191040 70549 92174 109837 64394 33210 37339 112006 82699 44584 30959 61215 28455 53167 108341 51767 56670 70310 28090 19810 52190 28943 47263 26389 49184
is_linear=0
shrinkage=0.05


Tree=8
num_leaves=31
num_cat=0
split_feature=2 40 40 1 41 11 6 11 1 41 43 41 2 43 1 2 43 3 27 13 2 27 5 1 5 43 34 5 1 23
split_gain=13203.8 3015 1925.24 960.797 529.366 459.089 416.064 268.318 259.977 219.962 218.955 180.5 179.561 173.93 156.098 152.694 143.627 141.75 138.735 137.833 123.197 119.592 116.969 107.461 102.483 101.532 101.086 93.4069 88.2887 87.2155
threshold=12.510000000000002 183389.50000000003 183389.50000000003 4.0000000000000009 48782.500000000007 18.275000000000002 60842.500000000007 21.685000000000006 4.0000000000000009 45909.500000000007 9655.0000000000018 11835.500000000002 6.9000000000000012 9912.5000000000018 4.0000000000000009 18.930000000000003 11916.000000000002 167.56500000000003 7.5000000000000009 682.50000000000011 19.98 6.5000000000000009 1.0000000180025095e-35 4.0000000000000009 1.0000000180025095e-35 3891.0000000000005 5.5000000000000009 1.0000000180025095e-35 4.0000000000000009 14.000000000000002
decision_type=2 2 2 2 2 2 2 2 2 2 2 2 2 2 2 2 2 2 2 2 2 2 2 2 2 2 2 2 2 2
left_child=2 3 12 7 18 9 13 17 19 23 -8 -12 -1 -5 22 -9 -10 -2 24 -7 -19 -15 -6 -3 -4 -17 -24 -16 -20 -11
right_child=1 5 4 6 14 8 10 15 16 29 11 -13 -14 21 27 25 -18 20 28 -21 -22 -23 26 -25 -26 -27 -28 -29 -30 -31
leaf_value=-0.043403267833247279 -0.0034196941964127129 -0.00130431765478544 -0.026683310476866076 0.033696777704113487 -0.01451502402891928 0.011270711477133807 0.017487663969863745 0.018348388129532042 0.012424339610064759 -0.0060264527931265625 0.045063746221608358 0.026928740590373319 -0.031850198641831098 0.044892047460130938 -0.0013087162141931172 -0.010394053528739443 0.031119898025660522 0.010242224691425546 -0.013125464374405694 -0.00019674398650572816 0.025834966231521223 0.062750145215838313 -0.0090279267507235288 0.010539211358027056 -0.017606202248991853 0.036501333735987955 0.0042318514640886894 0.021159891809524115 0.014596463888983884 -0.019556856541265988
leaf_weight=5252.9558888375759 1377.1256989836693 5419.4173813462257 6214.7405896782875 2246.3650376647711 4515.0551211535931 5646.0310348421335 3095.9280671179295 3570.5439736098051 2318.9086543917656 4573.509527027607 2242.223132148385 3535.6992310136557 9348.9206082969904 2766.1162887811661 1283.839684098959 121.0931670665741 1844.3962492346764 4997.5005498528481 2657.5793726742268 4889.6847735494375 1696.8930211663246 1418.1480431258678 3702.9225867241621 2962.082660600543 6223.5041640251875 2463.739939853549 2349.2184917926788 723.0786207318306 322.00929003953934 1610.3604070097208
leaf_count=41326 8302 33209 44152 11741 30782 34485 16692 20419 13424 28637 11016 18332 70680 13632 7948 680 10273 29119 18706 30150 9114 6938 24350 16774 43278 13328 15178 4441 2205 10689
internal_value=-8.89355e-05 0.0152686 -0.0212883 0.0265398 -0.0136106 0.00389466 0.0352352 0.0171858 0.0101286 -0.00239652 0.0282172 0.0339663 -0.0360064 0.0449195 -0.00599678 0.0250488 0.0207067 0.0111894 -0.0198202 0.0059486 0.0141947 0.0509446 -0.00842459 0.00288127 -0.0221416 0.0343044 -0.00388097 0.00678657 -0.0101295 -0.00954995
internal_weight=101390 58795.8 42593.8 29531.4 27991.9 29264.4 15304.5 14226.9 14699 14565.4 8873.85 5777.92 14601.9 6430.63 12574.1 6155.38 4163.3 8071.52 15417.8 10535.7 6694.39 4184.26 10567.2 8381.5 12438.2 2584.83 6052.14 2006.92 2979.59 6183.87
internal_count=640000 336954 303046 159313 191040 177641 78351 80962 88332 89309 46040 29348 112006 32311 82699 34427 23697 46535 108341 64635 38233 20570 70310 49983 87430 14008 39528 12389 20911 39326
is_linear=0
shrinkage=0.05


Tree=9
num_leaves=31
num_cat=0
split_feature=2 41 40 41 23 41 1 0 5 5 5 11 43 11 2 27 6 11 43 6 27 0 3 11 11 6 1 11 27 6
split_gain=11985.4 2662.33 1829.65 677.862 524.591 490.753 431.806 368.618 292.996 271.267 266.562 191.47 183.115 180.798 176.212 146.396 139.082 134.074 132.651 132.613 130.851 113.562 113.457 106.44 99.3412 93.2793 91.5742 88.1217 85.4543 82.1017
threshold=12.510000000000002 28533.000000000004 183389.50000000003 10099.000000000002 14.000000000000002 48782.500000000007 4.0000000000000009 9612.5000000000018 1.0000000180025095e-35 1.0000000180025095e-35 1.0000000180025095e-35 25.845000000000002 3891.0000000000005 21.265000000000004 6.9000000000000012 5.5000000000000009 36998.000000000007 17.165000000000003 9655.0000000000018 50000.200000000004 9.5000000000000018 7487.5000000000009 154.14500000000001 19.305000000000003 16.175000000000004 81998.000000000015 4.0000000000000009 24.195000000000004 6.5000000000000009 90012.000000000015
decision_type=2 2 2 2 2 2 2 2 2 2 2 2 2 2 2 2 2 2 2 2 2 2 2 2 2 2 2 2 2 2
left_child=2 3 14 11 6 17 10 16 18 20 23 21 -10 22 -1 -7 -5 -4 -9 -6 -8 -2 -12 -3 -14 -23 -17 -11 -19 -20
right_child=1 4 5 7 19 15 9 8 12 27 13 -13 24 -15 -16 26 -18 28 29 -21 -22 25 -24 -25 -26 -27 -28 -29 -30 -31
leaf_value=-0.042551093950319176 0.011879606628241684 -0.0089744807457772056 -0.023502501179266676 0.020525508619503738 0.00080730924329515906 -0.010304497699378135 0.0065467131928521388 0.0085540318437591061 0.0045093000135203619 0.022942051656194812 -0.01115473320634959 0.052565351389259413 0.026297127622365774 0.016288547260366919 -0.030947536900710074 -0.0022080760783903773 0.003158937781243638 -0.018106970802543351 0.027649224029851829 -0.015338679942531994 0.030982231155639001 0.04281687616107225 0.0063080548102993975 0.0025363780434163609 0.039446831051343445 0.027362251000181442 0.015922681481885193 0.040560557096417801 -0.0066439125873294369 0.013111561309665627
leaf_weight=5094.3053596317768 499.10459959506989 4017.2826171815395 8067.7493506222963 1867.6285991370678 2057.4675569683313 7286.7360904216766 4300.0910362303257 2276.2814237326384 525.43660205602646 2602.1401806026697 1104.3933828771114 2108.5131836235523 2124.7306340187788 4629.8922133147717 9145.7609633356333 4411.5986413955688 3012.4339594691992 4649.9338222742081 3243.1928490996361 3330.1147373467684 627.86169391870499 2643.9010809808969 5894.5740344375372 4015.9240403175354 4432.6666600108147 1548.0167303234339 826.98788356781006 975.88112506270409 2499.8954622298479 1386.3279845714569
leaf_count=41326 2718 25537 57726 10571 13158 48321 24990 12580 2960 13977 6778 10218 11012 27088 70680 29300 17253 32980 16947 21304 3615 13038 35475 24978 22372 7850 5078 5111 17635 7424
internal_value=-9.30124e-05 0.014394 -0.0205294 0.026515 0.00512216 -0.0130512 0.00785628 0.0216373 0.0257651 0.0172684 0.0037845 0.0400505 0.0329103 0.00862323 -0.0350986 -0.00572116 0.00980523 -0.0190843 0.0184367 -0.00917268 0.00966 0.0344253 0.00355254 -0.00322002 0.0351861 0.0371097 0.000654131 0.0277474 -0.014099 0.0232959
internal_weight=101207 59223.9 41983 25668.2 33555.6 27742.9 28168 18868.7 13988.6 8505.97 19662.1 6799.54 7082.83 11628.9 14240.1 12525.3 4880.06 15217.6 6905.8 5387.58 4927.95 4691.02 6998.97 8033.21 6557.4 4191.92 5238.59 3578.02 7149.83 4629.52
internal_count=640000 336954 303046 134943 202011 191040 167549 101119 73295 47693 119856 33824 36344 69341 112006 82699 27824 108341 36951 34462 28605 23606 42253 50515 33384 20888 34378 19088 50615 24371
is_linear=0
shrinkage=0.05


Tree=10
num_leaves=31
num_cat=0
split_feature=2 40 40 1 41 23 5 11 23 5 23 1 11 41 2 13 0 27 43 5 1 5 5 13 34 5 5 6 0 11
split_gain=10880.9 2384.85 1737.43 760.292 454.647 392.689 344.611 304.29 227.438 214.354 197.622 188.307 175.927 174.448 160.909 152.93 150.698 135.919 133.403 132.703 131.657 128.803 124.19 117.968 117.358 117.334 106.41 106.014 104.59 104.094
threshold=12.510000000000002 183389.50000000003 183389.50000000003 4.0000000000000009 48782.500000000007 14.000000000000002 1.0000000180025095e-35 18.275000000000002 14.000000000000002 1.0000000180025095e-35 14.000000000000002 4.0000000000000009 17.795000000000005 26218.500000000004 21.195000000000004 687.50000000000011 9012.5000000000018 8.5000000000000018 2826.0000000000005 1.0000000180025095e-35 4.0000000000000009 1.5000000000000002 1.0000000180025095e-35 692.50000000000011 7.5000000000000009 1.0000000180025095e-35 1.0000000180025095e-35 75002.000000000015 5987.5000000000009 15.065000000000003
decision_type=2 2 2 2 2 2 2 2 2 2 2 2 2 2 2 2 2 2 2 2 2 2 2 2 2 2 2 2 2 2
left_child=2 3 13 8 20 7 12 16 9 28 18 22 -5 -1 29 -14 -3 26 -8 -18 25 24 -9 -13 -20 -4 -6 -7 -2 -11
right_child=1 5 4 6 17 27 10 11 -10 14 -12 23 15 -15 -16 -17 19 -19 21 -21 -22 -23 -24 -25 -26 -27 -28 -29 -30 -31
leaf_value=-0.039910389797006562 -0.0052768018371274856 -0.0078800869451112806 -0.024877150597995626 0.014693736448584172 -0.013221435736301287 -0.0047982461419102682 -0.022894381580725681 0.00062697563597797308 -0.0012903614759509358 0.0096383263059466318 0.017481733325539442 0.030491888343032427 0.036999656395248826 -0.028702281766350975 0.037223879215285714 0.019117657201725844 -0.0021684132086610252 0.0069279364481392332 0.041857582483581061 0.010699848318647922 -0.0055373204081918008 0.029262626310607165 0.012494157040324605 0.012478966010499019 0.059291037420228003 -0.015468839562127202 -0.0031456414746568497 -0.021035422603978726 0.012994374679396598 0.02348784613622611
leaf_weight=6817.6420477777719 983.9060380756855 3854.9646148979664 6493.1645699441433 3171.0290360152721 4742.9546209126711 3395.9533628225327 78.838155806064606 3799.180780813098 1832.5137120783329 1978.3764138668776 959.18987107276917 1719.3623901307583 2957.3057040125132 7073.8878574669361 1527.9534194469452 2007.1253141313791 4080.2146891951561 1881.5517245233059 3849.7334567457438 3936.2286076694727 1764.4847454577684 1429.9138663709164 5252.6052598804235 1928.3694139122963 1288.440797701478 6768.153263926506 5855.2934577912092 1427.9757682234049 3840.5116561353207 4317.894135504961
leaf_count=56762 5777 23927 47654 16651 32062 21895 407 23723 11117 11188 5056 9349 14844 55244 7814 10337 25063 12342 18236 22786 12395 6765 30801 10798 6055 48292 38295 9299 21420 23646
internal_value=-9.62822e-05 0.0135781 -0.0197893 0.0234405 -0.0125098 0.00343798 0.0310468 0.00599862 0.0151722 0.0175573 0.0386978 0.0113783 0.0238936 -0.034203 0.0226684 0.0297699 0.000243611 -0.00545618 0.0417594 0.00415015 -0.0183682 0.0425354 0.00751331 0.0209694 0.0462292 -0.0200754 -0.00765479 -0.00960476 0.0092681 0.0191361
internal_weight=101015 59617.6 41397.1 30222.7 27505.6 29394.9 15741.6 24570.9 14481.2 12648.6 7606.12 12699.5 8135.46 13891.5 7824.22 4964.43 11871.4 12479.8 6646.93 8016.44 15025.8 6568.09 9051.79 3647.73 5138.17 13261.3 10598.2 4823.93 4824.42 6296.27
internal_count=640000 336954 303046 159313 191040 177641 78351 146447 80962 69845 36519 74671 41832 112006 42648 25181 71776 82699 31463 47849 108341 31056 54524 20147 24291 95946 70357 31194 27197 34834
is_linear=0
shrinkage=0.05


Tree=11
num_leaves=31
num_cat=0
split_feature=2 40 40 41 41 41 3 43 43 5 1 40 2 2 1 2 11 5 1 11 34 4 11 11 4 27 3 6 6 11
split_gain=9879.75 2113.17 1648.28 684.012 420.889 366.2 290.527 249.339 240.332 225.583 192.818 174.761 171.441 149.069 137.117 133.149 128.28 120.853 113.156 112.031 110.799 108.162 105.96 101.197 100.432 91.0652 89.7703 92.5815 83.7856 83.4439
threshold=12.510000000000002 183389.50000000003 183389.50000000003 13405.000000000002 48782.500000000007 45909.500000000007 212.02000000000001 11029.000000000002 3891.0000000000005 1.0000000180025095e-35 4.0000000000000009 230404.00000000003 6.9000000000000012 13.600000000000001 4.0000000000000009 27.325000000000003 14.885000000000003 1.0000000180025095e-35 4.0000000000000009 23.735000000000003 5.5000000000000009 54.500000000000007 20.245000000000001 13.585000000000003 39.500000000000007 6.5000000000000009 212.02000000000001 89001.040000000023 50602.000000000007 15.065000000000003
decision_type=2 2 2 2 2 2 2 2 2 2 2 2 2 2 2 2 2 2 2 2 2 2 2 2 2 2 2 2 2 2
left_child=2 3 12 7 16 10 -5 15 -8 23 22 13 -1 20 21 26 -4 -12 -11 -9 -7 24 -3 -10 -6 -18 -2 -28 -20 -23
right_child=1 5 4 6 14 11 8 19 9 18 17 -13 -14 -15 -16 -17 25 -19 28 -21 -22 29 -24 -25 -26 -27 27 -29 -30 -31
leaf_value=-0.040913398449233494 0.00041437129067451974 -0.00035704118993047841 -0.023112919794543121 0.0018672876554064006 -0.0098623733311334599 -0.0024930714362245416 -0.0025190890783841589 0.033171562321033098 0.0034667323796044175 0.021279915633535536 0.0089593457400223824 -0.01718236179603953 -0.029155795851144636 -0.011978855607767531 0.0067648840979429824 0.044234874149276154 -0.017392849345614223 0.023176239035410731 0.043835849662213627 0.047205389782124033 0.0098877549231846055 -0.015477015283859939 0.0092504008976671669 0.017468102154350826 0.017555901331531704 -0.0065126264503370668 0.028119987244552582 0.010670382488952015 0.027591753917139267 -0.0056437141911426653
leaf_weight=4800.0576505661011 486.29344686865807 6320.9261582940817 6263.23598960042 2890.7496740370989 590.45431417226791 4414.2473519295454 1202.7413736879826 3300.0081320255995 1669.6547618210316 4780.7973524332047 3532.4225486069918 1967.7910649627447 8755.8653846979141 2300.9933442622423 2007.1611339449883 695.11620150506496 5667.4534276127815 2591.4490824043751 1196.5207249224186 2498.9673070162535 3059.6133533716202 3535.819801568985 5256.4779588282108 5683.4542797058821 768.93701113760471 2910.9558584541082 2717.7574927806854 1055.2993337959051 2358.5658453553915 5534.1795095205307
leaf_count=41326 2683 38753 46160 16895 3983 27145 6894 15955 9251 26023 20192 13390 70680 14951 12389 3302 41244 13546 5632 11724 18623 24024 31041 30633 5178 20937 13512 5464 11345 37125
internal_value=-9.87455e-05 0.0128162 -0.019069 0.0220318 -0.0119874 0.0032587 0.0165145 0.0321818 0.0190211 0.0206724 0.00780034 -0.00358751 -0.0333191 -0.000850713 -0.00520264 0.0239448 -0.0176728 0.0149755 0.0263034 0.0392192 0.00257533 -0.00750582 0.00400502 0.0142888 0.00564672 -0.0137008 0.0206335 0.0232394 0.033059 -0.0094771
internal_weight=100814 59979.8 40834.1 30535.9 27278.2 29443.9 19782.5 10753.4 16891.7 15689 17701.3 11742.6 13555.9 9774.85 12436.6 4954.47 14841.6 6123.87 8335.88 5798.98 7473.86 10429.4 11577.4 7353.11 1359.39 8578.41 4259.35 3773.06 3555.09 9070
internal_count=640000 336954 303046 159313 191040 177641 106673 52640 89778 82884 103532 74109 112006 60719 82699 24961 108341 33738 43000 27679 45768 70310 69794 39884 9161 62181 21659 18976 16977 61149
is_linear=0
shrinkage=0.05


Tree=12
num_leaves=31
num_cat=0
split_feature=2 40 40 1 41 23 6 11 43 11 41 1 13 27 1 5 5 1 5 2 3 4 6 5 2 13 2 1 0 4
split_gain=8971.74 1875.21 1562.04 612.419 389.221 332.332 304.508 264.999 210.974 195.113 168.923 161.156 127.534 127.18 124.176 119.487 114.644 112.869 112.582 105.568 105.457 102.065 99.5267 97.7884 96.2691 91.194 86.2536 76.056 75.0163 73.5815
threshold=12.510000000000002 183389.50000000003 183389.50000000003 4.0000000000000009 48782.500000000007 14.000000000000002 81998.000000000015 22.085000000000004 11916.000000000002 21.685000000000006 26218.500000000004 4.0000000000000009 682.50000000000011 5.5000000000000009 4.0000000000000009 1.0000000180025095e-35 1.0000000180025095e-35 4.0000000000000009 1.0000000180025095e-35 24.870000000000005 167.56500000000003 179908.00000000003 50000.200000000004 1.0000000180025095e-35 21.195000000000004 682.50000000000011 21.195000000000004 4.0000000000000009 3512.5000000000005 200.50000000000003
decision_type=2 2 2 2 2 2 2 2 2 2 2 2 2 2 2 2 2 2 2 2 2 2 2 2 2 2 2 2 2 2
left_child=2 3 10 9 14 7 8 11 24 20 -1 15 -10 -6 18 -3 -11 25 -4 -18 -2 -8 -7 -13 -5 -9 -22 -15 -17 -20
right_child=1 5 4 6 13 22 21 17 12 16 -12 23 -14 27 -16 28 19 -19 29 -21 26 -23 -24 -25 -26 -27 -28 -29 -30 -31
leaf_value=-0.038245776499408746 -0.0042759269073030263 -0.0082483829198086445 -0.023462182017339132 0.018683965152495079 -0.0092784091969550647 0.00017210682094824303 0.021068394998444314 0.014451559510954799 0.045272517801278146 0.011542121400939269 -0.026943611147892524 0.0030863286014616471 0.030177336877097345 -0.001657580448028639 -0.0044466538122281789 -0.013345198658329838 0.02319215082608847 0.021368652700549252 -0.003800686952029965 0.058149389209461826 0.0083653613337177826 0.0036870795896322447 -0.014666879815574508 0.017449460269442066 0.032412781627881339 0.0025347533262347617 0.023562640496778753 0.014797824049719627 0.0042454069421625669 -0.016818967863125592
leaf_weight=6442.4023378789425 1390.7027000635862 4368.0852960050106 6309.4033147841692 2823.2779336720705 7178.4890850186348 1832.4384225308895 4178.4834146350622 3397.1347122490406 3283.4265186339617 2504.4945753514767 6790.8648761212826 2833.1412649154663 2438.3359337896109 4379.9369322806597 1737.5193903744221 675.8595027923584 3684.9387168735266 2482.5618243515491 1368.3012925088406 229.41883823275566 5789.7829696238041 1058.5679965764284 2947.6828114837408 2037.0908820331097 2331.3199577480555 3043.8879556059837 1113.1600472480059 836.26229518651962 5870.8084245324135 5250.3995018154383
leaf_count=56762 8302 27964 47654 14373 48321 11851 20652 20055 15144 13784 55244 16515 11500 29300 12395 4177 19559 13419 9987 1084 32639 5559 19343 10745 11123 18271 5594 5078 35301 38305
internal_value=-0.000100455 0.0121034 -0.0183682 0.0207263 -0.0114838 0.00308951 0.0274605 0.00542417 0.0322301 0.0133509 -0.0324459 0.00153088 0.0388397 -0.00496101 -0.0169966 -0.00184385 0.019896 0.012311 -0.0186833 0.025241 0.00828539 0.0175551 -0.00897842 0.00909405 0.0248932 0.00881993 0.0108161 0.000980554 0.0024294 -0.0141277
internal_weight=100608 60314.6 40293.6 30825.9 27060.3 29488.7 16113.4 24708.6 10876.4 14712.5 13233.3 15785 5721.76 12394.7 14665.6 10914.8 6418.85 8923.58 12928.1 3914.36 8293.65 5237.05 4780.12 4870.23 5154.6 6441.02 6902.94 5216.2 6546.67 6618.7
internal_count=640000 336954 303046 159313 191040 177641 78351 146447 52140 80962 112006 94702 26644 82699 108341 67442 34427 51745 95946 20643 46535 26211 31194 27260 25496 38326 38233 34378 39478 48292
is_linear=0
shrinkage=0.05


Tree=13
num_leaves=31
num_cat=0
split_feature=2 41 40 41 41 11 40 11 43 2 0 18 43 1 11 5 1 2 5 6 43 41 1 13 1 13 1 34 11 5
split_gain=8147.56 1690.56 1478.84 680.235 359.738 290.297 255.772 205.814 204.701 166.303 164.162 169.744 138.52 133.875 125.366 121.297 129.116 111.085 104.802 99.6317 98.3777 96.3208 96.0137 95.1785 96.1652 91.2466 87.6378 79.2344 78.9933 75.6838
threshold=12.510000000000002 44249.500000000007 183389.50000000003 13405.000000000002 48782.500000000007 21.885000000000002 230404.00000000003 18.375000000000004 11029.000000000002 6.9000000000000012 9137.5000000000018 25409.500000000004 2662.0000000000005 4.0000000000000009 22.735000000000003 1.0000000180025095e-35 4.0000000000000009 27.325000000000003 1.0000000180025095e-35 56000.020000000011 3891.0000000000005 5132.5000000000009 4.0000000000000009 682.50000000000011 4.0000000000000009 677.50000000000011 4.0000000000000009 5.5000000000000009 17.165000000000003 1.0000000180025095e-35
decision_type=2 2 2 2 2 2 2 2 2 2 2 2 2 2 2 2 2 2 2 2 2 2 2 2 2 2 2 2 2 2
left_child=2 3 9 8 14 10 7 18 17 -1 19 20 -7 -14 26 -6 27 -2 -3 -5 -12 -10 -20 24 -9 -15 -4 -17 -11 -22
right_child=1 6 4 5 15 12 -8 23 21 28 11 -13 13 25 -16 16 -18 -19 22 -21 29 -23 -24 -25 -26 -27 -28 -29 -30 -31
leaf_value=-0.039308407184141317 0.018166097793452084 -0.0075627060619964702 -0.020655213510680753 0.0067718028039588027 -0.010108479667523068 -0.017931981187578022 -0.016321865318010182 0.0092021127551796533 0.045227465751528584 -0.031521665764190937 -0.0025419562081809514 -0.0023878570743848318 0.01614150690557558 0.037341188110774422 -0.0081304862424427214 -0.0072501362716591205 0.019626310631900644 0.039443694599282479 -0.0011725119345035943 -0.0091712707127150957 0.01162696917538154 0.030956164796840047 0.013984710301692911 0.0030738645052593196 0.02694974550592584 0.022165262943629447 -0.0071012005385374319 0.0045608287566943542 -0.021686004777470892 0.021120536990758665
leaf_weight=4526.8740986436605 4337.4256441891193 4999.3121462017298 9614.8307152837515 2621.8107145130634 5670.0265725255013 235.66877640783787 1939.9025225639343 4227.2197483330965 1627.9593734145164 4893.8586853444576 725.37367084622383 1629.7296783179045 6229.7760045975447 1544.0447705686092 3520.4199652969837 3611.3359900414944 733.5452383607626 714.44589626789093 4632.5704280436039 1564.7767987251282 3969.4689243882895 4319.0498242974281 1349.0602124929428 5807.0982797443867 931.45119686424732 2762.7289719432592 1361.4765427112579 2340.1200692206621 3502.2891355156898 4456.0116981863976
leaf_count=41326 21659 31546 72588 15313 38730 1316 13390 25355 7345 41244 4185 8870 34176 7385 25966 24350 4441 3302 28546 9243 21830 20334 7251 34279 4980 13662 9787 15178 29436 22987
internal_value=-0.000101537 0.0114355 -0.0176864 0.0181681 -0.010998 0.0137206 0.00108074 0.00261898 0.028576 -0.0315837 0.00921578 0.012479 0.0199796 0.0208276 -0.0163407 -0.00472912 -0.000166493 0.0211752 -0.00221965 0.000812928 0.0151267 0.0348629 0.00224595 0.00746432 0.0124066 0.0276061 -0.018974 -0.00260605 -0.0274189 0.0166479
internal_weight=100400 60624.9 39774.8 36738.3 26851.8 25739.4 23886.6 21946.7 10998.9 12923 14967.2 10780.6 10772.2 10536.5 14496.7 12355 6685 5051.87 10980.9 4186.59 9150.85 5947.01 5981.63 10965.8 5158.67 4306.77 10976.3 5951.46 8396.15 8425.48
internal_count=640000 336954 303046 191607 191040 138967 145347 131957 52640 112006 82428 57872 56539 55223 108341 82699 43969 24961 67343 24556 49002 27679 35797 64614 30335 21047 82375 39528 70680 44817
is_linear=0
shrinkage=0.05


Tree=14
num_leaves=31
num_cat=0
split_feature=2 2 40 41 43 41 1 11 40 41 6 5 41 43 27 4 34 5 3 4 23 0 5 5 6 34 23 1 43 18
split_gain=7399.23 1512.22 1398.56 497.147 420.738 332.144 256.814 238.479 180.111 162.81 153.523 149.115 143.687 129.319 123.594 122.788 114.814 111.409 109.801 107.216 99.3425 97.0238 93.524 90.0049 89.8135 89.0109 88.0052 84.3022 82.5173 80.979
threshold=12.510000000000002 17.785000000000004 183389.50000000003 44511.500000000007 7739.5000000000009 48782.500000000007 4.0000000000000009 17.615000000000006 230404.00000000003 26218.500000000004 73004.000000000015 1.0000000180025095e-35 5132.5000000000009 1255.0000000000002 7.5000000000000009 54.500000000000007 8.5000000000000018 1.0000000180025095e-35 171.10000000000005 54.500000000000007 28.500000000000004 8312.5000000000018 1.0000000180025095e-35 1.0000000180025095e-35 100001.00000000001 5.5000000000000009 14.000000000000002 4.0000000000000009 10664.000000000002 26088.500000000004
decision_type=2 2 2 2 2 2 2 2 2 2 2 2 2 2 2 2 2 2 2 2 2 2 2 2 2 2 2 2 2 2
left_child=2 3 9 6 13 14 15 21 11 -1 28 -5 -9 20 22 -2 23 -14 -17 -13 -3 -6 -4 -7 -23 -21 29 -25 -8 -20
right_child=1 4 5 8 7 16 10 12 -10 -11 -12 19 17 -15 -16 18 -18 -19 26 25 -22 24 -24 27 -26 -27 -28 -29 -30 -31
leaf_value=-0.036609728324455748 0.018041851114030422 -0.058451689495929209 -0.02254134836921853 -0.004727359684288941 0.0042327846542728172 -0.011681078038192086 0.014634632051598562 0.04332834943036093 -0.015675468981844066 -0.025247030506684861 0.0092996105389064106 0.020310798001014662 0.021252777729264163 0.010692584905152585 -0.0063071396168847037 -0.007272176892937173 0.0070754617422765969 0.032542934502925801 0.0096394749167570543 -0.0013642939014120907 0.00060856073562493007 0.024504952031756094 -0.013531787222833528 -0.0045022753798053729 0.0091597597162211396 0.0097903888812255271 -0.0069945680960899013 0.014598828236012735 0.028272142859648755 -0.0045397064798784669
leaf_weight=6094.4627333879471 1777.0224138349295 120.18975935876369 5711.3406199067831 7251.881537899375 1133.1060872823 4680.0330495089293 1813.5463604182005 1672.2888213694096 1919.4349586516619 6530.6931901201606 3660.8246800899506 1011.0245539844036 4053.2308874726295 4599.0764379501343 2812.8082898259163 1841.2739537060261 1822.6453529000282 4740.7248839735985 7539.3682470917702 4603.2618509680033 174.68417006731033 3620.1022813469172 5811.2020775973797 5163.5032600313425 1294.5105409622192 2924.6927464306355 1145.9518000483513 650.40779747068882 2856.0400988012552 1162.1741012632847
leaf_count=56762 10269 647 44152 45664 6224 32315 9587 7476 13390 55244 19385 5978 20048 24249 20911 11097 11949 22568 42910 27653 922 17486 43278 34527 6433 17152 7154 3908 13982 6680
internal_value=-0.000102175 0.0108086 -0.0170236 0.00500941 0.0215106 -0.0105299 0.0100653 0.0253265 -0.00121296 -0.0307321 0.0169657 0.000545008 0.0298939 0.00863454 -0.0157037 0.00579653 -0.00450807 0.0273392 0.0039349 0.00502266 -0.0234642 0.0174221 -0.0179975 -0.00651997 0.020463 0.00296942 0.00603039 -0.00236542 0.0229757 0.00774571
internal_weight=100192 60914.4 39277.1 39506.5 21407.9 26651.9 21796.2 16514 17710.3 12625.2 8330.41 15790.9 10466.2 4893.95 14335.4 13465.8 12316.6 8793.96 11688.8 8538.98 294.874 6047.72 11522.5 10493.9 4914.61 7527.95 9847.49 5813.91 4669.59 8701.54
internal_count=640000 336954 303046 230901 106053 191040 121064 80235 109837 112006 42954 96447 50092 25818 108341 78110 82699 42616 67841 50783 1569 30143 87430 70750 23919 44805 56744 38435 23569 49590
is_linear=0
shrinkage=0.05


Tree=15
num_leaves=31
num_cat=0
split_feature=2 41 40 41 41 3 6 43 11 34 2 27 43 6 11 3 18 11 1 13 1 3 43 11 1 4 6 40 13 11
split_gain=6719.48 1350.63 1321.22 554.394 306.436 249.994 235.805 228.127 181.217 171.389 160.709 140.498 131.279 120.9 118.908 116.796 111.026 111.025 96.3844 96.9092 94.2111 89.293 83.1702 81.5293 81.3448 80.4262 80.3602 79.6654 78.5412 77.1985
threshold=12.510000000000002 44249.500000000007 183389.50000000003 13405.000000000002 48782.500000000007 171.10000000000005 70002.500000000015 9711.0000000000018 25.845000000000002 5.5000000000000009 6.9000000000000012 6.5000000000000009 7739.5000000000009 49002.500000000007 14.885000000000003 264.00500000000005 15111.500000000002 14.525 4.0000000000000009 687.50000000000011 4.0000000000000009 158.27500000000003 15795.500000000002 21.045000000000005 4.0000000000000009 134.50000000000003 69997.500000000015 230404.00000000003 702.50000000000011 17.165000000000003
decision_type=2 2 2 2 2 2 2 2 2 2 2 2 2 2 2 2 2 2 2 2 2 2 2 2 2 2 2 2 2 2
left_child=2 3 10 8 14 -5 11 13 15 21 -1 25 -8 -3 -4 -2 -17 -6 19 -19 22 -9 -11 -14 -16 -7 -23 -15 -20 -12
right_child=1 7 4 5 17 6 12 9 -10 20 29 -13 23 27 24 16 -18 18 28 -21 -22 26 -24 -25 -26 -27 -28 -29 -30 -31
leaf_value=-0.037729439687961039 0.0045555646218922276 0.0031967415318525923 -0.020473241384759932 -0.0028204088455965337 -0.010624924316031757 0.024396665373818675 -0.0045830692749239841 -0.014697547827330723 0.034975897024823878 0.014424797864843138 -0.029890716232778655 0.025000191514739846 0.0064498522934516066 -0.0059150323158911368 -0.013009143190725892 0.028350657697543281 0.015122311915052231 0.0023174937282330788 0.02547821220803936 -0.0098941764411277656 0.021441809086783697 0.0067505630193117104 0.00057766874784424512 0.017329577464124096 0.0024178599434918325 0.012334243625189055 -0.0045825473523176622 -0.020085755870609831 0.00063003539384945927 -0.019975973919887632
leaf_weight=4273.9884364008904 926.0429927110672 3377.4094616770744 5947.0435341447592 2512.8064215779305 4430.402921795845 1665.5576867610216 1801.8842016905546 890.84524756669998 3463.4776194989681 2194.0611671358347 4686.2103686779737 4580.4258550852537 4662.3635762184858 5900.2086286395788 7265.5414901375771 4307.9234363436699 2510.5695254057646 3611.1267018169165 577.56899358332157 2953.3160291016102 1708.8153700977564 3880.313626781106 2144.1042576134205 2730.3207038491964 968.37900644540787 8113.269633024931 2620.4957541674376 1192.2090507894754 707.6613400131464 3378.8874673768878
leaf_count=41326 4862 21164 46160 14857 30201 8714 10115 5511 15725 13264 41244 23642 24925 36350 55222 20113 11940 24435 3500 20193 9266 22854 12869 14023 6959 42691 15607 8462 4370 29436
internal_value=-0.000102397 0.0102199 -0.0163794 0.0161695 -0.0100788 0.012171 0.0137704 0.000944036 0.0254688 0.005255 -0.0298909 0.0177737 0.00751843 -0.00458934 -0.0150859 0.0212171 0.02348 -0.00429666 -0.000724946 -0.00317649 0.0114979 0.000147804 0.00758096 0.010468 -0.0111948 0.0143887 0.00218215 -0.00829708 0.0117965 -0.0257369
internal_weight=99983.2 61183.1 38800.1 37274.6 26461 26066.6 23553.8 23908.5 11208 13438.6 12339.1 14359.3 9194.57 10469.8 14181 7744.54 6818.49 12280.1 7849.67 6564.44 6046.98 7391.65 4338.17 7392.68 8233.92 9778.83 6500.81 7092.42 1285.23 8065.1
internal_count=640000 336954 303046 191607 191040 138967 124110 145347 52640 79371 112006 75047 49063 65976 108341 36915 32053 82699 52498 44628 35399 43972 26133 38948 62181 51405 38461 44812 7870 70680
is_linear=0
shrinkage=0.05


Tree=16
num_leaves=31
num_cat=0
split_feature=2 40 2 1 43 41 4 6 11 23 5 2 4 27 5 11 5 43 5 43 1 1 13 23 13 3 6 0 41 11
split_gain=6101.88 1246.79 1215.6 440.352 354.284 282.484 234.677 230.352 196.189 190.981 168.291 156.69 137.986 135.062 130.012 129.337 116.846 116.526 104.166 103.948 103.303 100.425 98.2567 92.5638 85.0601 79.4048 77.9012 76.0732 75.6763 74.6414
threshold=12.510000000000002 183389.50000000003 17.785000000000004 4.0000000000000009 7739.5000000000009 48782.500000000007 54.500000000000007 60842.500000000007 17.525000000000002 14.000000000000002 1.0000000180025095e-35 6.9000000000000012 49.500000000000007 5.5000000000000009 1.0000000180025095e-35 28.805000000000003 1.0000000180025095e-35 1255.0000000000002 1.0000000180025095e-35 9912.5000000000018 4.0000000000000009 4.0000000000000009 677.50000000000011 14.000000000000002 707.50000000000011 262.56000000000006 75002.000000000015 4687.5000000000009 5132.5000000000009 21.265000000000004
decision_type=2 2 2 2 2 2 2 2 2 2 2 2 2 2 2 2 2 2 2 2 2 2 2 2 2 2 2 2 2 2
left_child=1 11 3 6 17 16 12 19 25 10 27 -1 -2 -12 -10 22 -3 23 -7 -5 -18 -20 -9 -4 -21 -6 -11 -8 -16 -13
right_child=2 5 4 7 8 18 9 15 14 26 13 29 -14 -15 28 -17 20 -19 21 24 -22 -23 -24 -25 -26 -27 -28 -29 -30 -31
leaf_value=-0.036926825157373028 0.00088004149757373766 -0.018974440965877647 -0.058876975515289066 0.011768822225193886 0.0024186330396308887 -0.0091286768372881022 -0.01819993200628519 0.013427190956512647 0.020710876880103785 -0.0069682531305644713 0.00025480285527928223 -0.027746406045060582 0.021288612822732724 0.01109516442120043 0.044637330940124391 0.02537237329724433 -0.011644348577676759 0.0093331708648738947 -0.0020570764554592954 0.031042733213794516 0.010990105889515094 0.017373417876288277 0.00064436358742638077 -0.0010787172590323211 0.010390055177009229 0.017956409525633668 -0.023267675678387001 -0.0028721640624252008 0.029229398450454698 -0.016551541977017033
leaf_weight=4151.6749100834131 1391.8244630545378 7132.9345514699817 112.074388474226 1997.9820258170366 980.91130323708057 5587.6563139855862 916.56547254323959 2172.5692630112171 4918.81675799191 2785.7186492979527 6877.2595058232546 5924.2217201218009 2045.3254199326038 4935.3117830902338 953.19207964837551 836.83260077238083 6352.801813647151 4651.4839609116316 5908.3660179823637 2295.378916323185 547.54159307479858 749.32520771026611 4880.0833595693111 181.37625542283058 636.88662242889404 5083.8584949076176 994.85561898350716 6929.5700625777245 4860.631527364254 1988.8144077733159
leaf_count=41326 8274 56151 619 10954 5377 38730 5809 11507 23607 18442 40135 53107 12200 28025 4107 4287 48292 24249 39528 11218 3898 4441 27146 950 3264 24452 6838 42802 22692 17573
internal_value=-0.000102264 -0.0157536 0.00966562 0.00446058 0.0191687 -0.00964448 0.000823531 0.0120856 0.0226317 -0.000965619 0.0010136 -0.0290601 0.0130245 0.00478392 0.0266937 0.00678732 -0.014487 0.00740532 -0.0040949 0.0205641 -0.00984831 0.000129832 0.00458211 -0.023153 0.026557 0.0154433 -0.0112574 -0.00466271 0.0317556 -0.0249328
internal_weight=99781.8 38343.3 61438.5 39696.2 21742.3 26278.6 26876.4 12819.7 16797.4 23439.3 19658.7 12064.7 3437.15 11812.6 10732.6 7889.49 14033.3 4944.93 12245.3 4930.25 6900.34 6657.69 7052.65 293.451 2932.27 6064.77 3780.57 7846.14 5813.82 7913.04
internal_count=640000 303046 336954 230901 106053 191040 162525 68376 80235 142051 116771 112006 20474 68160 50406 42940 108341 25818 82699 25436 52190 43969 38653 1569 14482 29829 25280 48611 26799 70680
is_linear=0
shrinkage=0.05


Tree=17
num_leaves=31
num_cat=0
split_feature=2 41 41 1 41 6 11 27 23 5 39 1 5 27 2 40 5 43 11 4 5 1 0 41 43 1 5 11 11 13
split_gain=5540.88 1178.2 1108.94 463.227 267.59 265.028 200.92 198.504 178.466 168.923 155.406 126.116 111.7 103.754 101.031 99.2085 96.8477 94.4489 92.6233 92.3015 90.5153 90.3878 81.8179 81.7148 73.3695 72.9421 71.4843 69.9881 68.254 67.4944
threshold=12.510000000000002 43304.500000000007 44249.500000000007 4.0000000000000009 26218.500000000004 60842.500000000007 18.375000000000004 5.5000000000000009 14.000000000000002 1.0000000180025095e-35 3.5000000000000004 4.0000000000000009 1.0000000180025095e-35 7.5000000000000009 18.930000000000003 230404.00000000003 1.0000000180025095e-35 7739.5000000000009 17.985000000000003 184.50000000000003 1.0000000180025095e-35 4.0000000000000009 4687.5000000000009 8963.0000000000018 2424.5000000000005 4.0000000000000009 1.0000000180025095e-35 15.065000000000003 23.735000000000003 712.50000000000011
decision_type=2 2 2 2 2 2 2 2 2 2 2 2 2 2 2 2 2 2 2 2 2 2 2 2 2 2 2 2 2 2
left_child=1 4 3 8 -1 13 15 16 9 22 20 12 -9 23 27 19 -3 -8 -6 -4 -7 26 -2 -5 -16 -18 -19 -11 -12 -23
right_child=2 7 6 5 18 10 17 11 -10 14 28 -13 -14 -15 24 -17 25 21 -20 -21 -22 29 -24 -25 -26 -27 -28 -29 -30 -31
leaf_value=-0.034220638818562549 -0.010478692180538641 -0.016410278966214348 0.0070848485715559895 0.034251857848895527 -0.024563644345686982 0.0068930532019850117 -0.0030836047519052995 -0.010525671172909278 -0.004304877669447196 0.0036588609380731984 0.019297395664807239 0.012503383439650512 0.0015382500709893803 0.037543375394844841 -0.031012023521671817 -0.018492712114197563 -0.0094168968466627444 -0.0014123724748344201 -0.014957815804330605 -0.004625508784118138 0.017748353483731192 0.02059456527897455 0.0064878193373149595 0.020648817590784629 0.02260514245636119 0.0070607497470178892 0.0090204705655842019 0.014580828775612179 0.035154589254649642 0.002162531889568102
leaf_weight=5624.8214055001736 815.84021073579788 5734.3081199303269 2073.744878038764 1449.7611902654171 6222.8353445678949 4702.1598707139492 2601.2573644518852 3733.506286740303 2240.4516901373863 2143.2776073664427 2026.2085579037666 1301.9389911368489 3947.4183449298143 1805.5390710681677 65.016717076301575 1051.5381395816803 6384.7076036781073 2818.8567369431257 4205.4966549873352 8923.6844470202923 3245.9849603772163 1875.1367070674896 5506.5384553670883 4629.0116164833307 3420.7855280041695 750.58260913193226 3932.3846170604229 4646.9558355659246 1020.3212453424931 675.60906112194061
leaf_count=56762 4847 43012 12560 6381 53755 23634 16285 27861 13403 11971 9735 8310 27246 8136 355 7617 45929 17654 35412 54783 15103 9913 30167 21698 16840 4759 22786 24661 4676 3749
internal_value=-0.000101834 -0.015146 0.00914509 0.0144881 -0.0254309 0.0200233 0.000731368 -0.00759058 0.00894115 0.0107291 0.0150066 -0.00188658 -0.00432572 0.0270191 0.0146856 -0.00382026 -0.0115719 0.00533872 -0.0206898 -0.00241733 0.0113263 0.00769398 0.00429846 0.0238931 0.0216051 -0.00768356 0.00466443 0.0111334 0.0246082 0.0157125
internal_weight=99575.7 37905.6 61670.1 37717.9 16053.2 18879 23952.2 21852.5 18838.9 16598.4 10994.7 8982.86 7680.92 7884.31 10276 12049 12869.6 11903.2 10428.3 10997.4 7948.14 9301.99 6322.38 6078.77 3485.8 7135.29 6751.24 6790.23 3046.53 2550.75
internal_count=640000 303046 336954 191607 145929 89363 145347 157117 102244 88841 53148 63417 55107 36215 53827 74960 93700 70387 89167 67343 38737 54102 35014 28079 17195 50688 40440 36632 14411 13662
is_linear=0
shrinkage=0.05


Tree=18
num_leaves=31
num_cat=0
split_feature=2 40 41 41 41 11 43 43 2 27 18 27 23 27 0 6 0 11 1 6 43 5 27 13 1 23 5 5 6 1
split_gain=5031.27 1113.27 991.151 424.937 250.823 246.32 184.099 154.155 149.707 149.149 140.049 154.174 132.032 113.584 107.601 107.305 105.511 100.391 100.216 92.5482 90.6302 83.7402 81.5101 81.1845 108.821 79.8436 81.8059 79.2187 74.4804 72.8915
threshold=12.510000000000002 183389.50000000003 44249.500000000007 11835.500000000002 48782.500000000007 17.435000000000006 9711.0000000000018 2662.0000000000005 6.4250000000000007 4.5000000000000009 25409.500000000004 7.5000000000000009 4.5000000000000009 6.5000000000000009 9612.5000000000018 52601.500000000007 7012.5000000000009 14.525 4.0000000000000009 37999.500000000007 14599.000000000002 1.0000000180025095e-35 6.5000000000000009 702.50000000000011 4.0000000000000009 14.000000000000002 1.0000000180025095e-35 1.0000000180025095e-35 30002.500000000004 4.0000000000000009
decision_type=2 2 2 2 2 2 2 2 2 2 2 2 2 2 2 2 2 2 2 2 2 2 2 2 2 2 2 2 2 2
left_child=1 8 3 12 13 14 15 -7 -1 -8 11 16 27 -3 28 -4 -9 -6 20 -10 21 -11 -21 24 -19 26 -16 -2 -5 -15
right_child=2 4 6 5 17 7 9 10 19 18 -12 -13 -14 29 25 -17 -18 23 -20 22 -22 -23 -24 -25 -26 -27 -28 -29 -30 -31
leaf_value=-0.038040526032042367 0.020798909937445872 -0.016272732630077565 0.0020329350833190427 0.011824958759371444 -0.0096389732155028468 -0.012447968835232553 -0.0018764351195871675 0.0045148364837455128 -0.0085786845262006712 0.0019537086114154896 0.006193463230005098 0.026731785254953261 0.014006837987029577 -0.0086524562817802807 0.0045997994761223021 -0.0083635536947249036 0.017104413791969805 0.00071150637871410499 0.017659113998085993 -0.028918442977418902 -0.00043093290946332943 0.019835913203084456 -0.017345271651908627 -0.00799904328764099 0.023483575316571779 -0.0041774057990475654 0.015532884520604962 0.031928362732168002 -0.0063202417149942104 0.012813828285319543
leaf_weight=2593.7390359565616 2908.077328518033 9881.2008965238929 4074.3591855466366 716.61512388288975 4364.6130893528461 517.29531513154507 5424.4180833399296 2116.0941009968519 837.86258564144373 1153.0748584568501 3391.0083817839622 3417.5218785852194 2855.3507570177317 3446.4281158596277 3362.937952414155 6350.1279614716768 7793.6935269683599 4880.0253161489964 2303.3948336243629 6099.8267949000001 3135.4839698076248 1514.6747157424688 2026.9769790992141 2322.3151460140944 587.81373897194862 1131.1387146860361 3482.9957951307297 3551.6202439665794 2682.4597779363394 446.71931402385235
leaf_count=27296 13276 78343 25517 4083 30201 2932 32228 11669 7844 7277 17212 17193 13658 26816 17892 40459 38874 33376 12291 57807 18793 8782 19059 15622 3500 6454 17215 15577 15572 3182
internal_value=-0.000100969 -0.0145561 0.00865575 0.0136848 -0.00880325 0.010665 0.000693667 0.014434 -0.0274615 0.00454096 0.0152658 0.0175742 0.0229603 -0.0134228 0.00495464 -0.00430014 0.0144161 -0.00356819 0.00883505 -0.0244007 0.00533264 0.0121067 -0.0260319 -0.000166898 0.00315959 0.00812887 0.0101622 0.026918 -0.00249475 -0.00618931
internal_weight=99369.9 37487.5 61882.3 37926.8 25929.1 28611.8 23955.5 17235.6 11558.4 13531 16718.3 13327.3 9315.05 13774.3 11376.1 10424.5 9909.79 12154.8 8106.63 8964.67 5803.23 2667.75 8126.8 7790.15 5467.84 7977.07 6845.93 6459.7 3399.07 3893.15
internal_count=640000 303046 336954 191607 191040 149096 145347 87880 112006 79371 84948 67736 42511 108341 61216 65976 50543 82699 47143 84710 34852 16059 76866 52498 36876 41561 35107 28853 19655 29998
is_linear=0
shrinkage=0.05


Tree=19
num_leaves=31
num_cat=0
split_feature=2 40 41 1 13 41 3 11 23 2 5 11 5 11 2 4 4 11 5 4 1 13 6 6 0 27 4 13 11 18
split_gain=4568.1 1047.01 897.771 470.986 284.13 230.681 181.043 163.677 157.798 146.772 141.483 139.564 136.946 112.893 104.192 96.7828 114.05 93.3426 88.3036 79.7502 78.0352 77.7599 73.3459 73.0698 73.1979 71.6207 69.4461 67.5317 67.3207 66.945
threshold=12.510000000000002 183389.50000000003 44511.500000000007 4.0000000000000009 682.50000000000011 48782.500000000007 167.56500000000003 24.315000000000001 14.000000000000002 6.9000000000000012 1.0000000180025095e-35 18.185000000000006 1.0000000180025095e-35 22.735000000000003 17.98 54.500000000000007 39.500000000000007 14.525 1.0000000180025095e-35 54.500000000000007 4.0000000000000009 682.50000000000011 31602.500000000004 55638.500000000007 13312.500000000002 6.5000000000000009 64.000000000000014 687.50000000000011 28.305000000000003 12391.500000000002
decision_type=2 2 2 2 2 2 2 2 2 2 2 2 2 2 2 2 2 2 2 2 2 2 2 2 2 2 2 2 2 2
left_child=1 9 3 6 7 13 26 18 10 -1 -8 23 -6 19 -12 16 -7 -17 -5 -3 27 -13 -11 -4 -25 -24 -2 -19 -14 -26
right_child=2 5 11 4 12 15 8 -9 -10 22 14 21 28 -15 -16 17 -18 20 -20 -21 -22 -23 25 24 29 -27 -28 -29 -30 -31
leaf_value=-0.034630748670614657 0.011992384765745668 -0.0032974938645545793 0.00021999649203017881 0.013547028912908913 0.0061382523965412359 -0.0067921862108190458 0.00491009788508006 0.031866965879570198 -0.0036217112276819455 -0.0013989259994729684 0.010263569942977968 0.0083073874991890836 0.014494348993495408 -0.0049081107263187701 0.020563151332667343 -0.011350362244312098 0.020583433814052435 0.0008974383928165065 0.024323693977985748 -0.017063485042261257 0.010216050906081478 -0.0011271046930033551 -0.026624078526138746 -0.015655514044391364 0.0049762413169165479 -0.014985596054429782 -0.0065965479019729108 -0.01014550086910769 0.028939565306239923 -0.0099347377428163144
leaf_weight=3825.0127787664533 606.71411004662514 1189.5982192829251 3257.0189985334873 3918.001563847065 5669.6459035128355 689.23109368979931 6780.6911079585552 3478.9680785983801 2224.7070964127779 387.11955744028091 6438.1206408441067 3983.513623893261 3633.6574491858482 3352.7142363786697 3969.3916976004839 3820.129216119647 849.24516563117504 3109.3729721903801 3692.1322314143181 9102.4147611930966 1162.3207315951586 4834.782365873456 5348.7996358200908 2462.7590573132038 1227.4493704885244 1755.7687775343657 2923.2234445363283 2495.6411043554544 1036.6802566498518 1946.3619257509708
leaf_count=41326 3461 9502 20673 19326 28465 4709 37700 15430 13448 3581 34653 23810 16930 25966 19185 26620 5740 21189 16766 72873 7034 29357 50727 15989 7673 16372 17162 17407 4591 12335
internal_value=-9.99398e-05 -0.0139842 0.00819415 0.0119929 0.0173231 -0.00841704 0.00701442 0.0228826 0.0089084 -0.0266617 0.0105302 -0.00132253 0.0113608 -0.0128766 0.0141918 -0.00339896 0.00831927 -0.00510175 0.0187754 -0.0154723 -0.00157444 0.00313476 -0.022593 -0.00574208 -0.00918719 -0.0237478 -0.00340154 -0.00401945 0.0177008 -0.00416802
internal_weight=99171.2 37087.4 62083.8 44371.9 21429.1 25770.7 22942.8 11089.1 19412.9 11316.7 17188.2 17711.9 10340 13644.7 10407.5 12125.9 1538.48 10587.5 7610.13 10292 6767.33 8818.3 7491.69 8893.59 5636.57 7104.57 3529.94 5605.01 4670.34 3173.81
internal_count=640000 303046 336954 227117 101508 191040 125609 51522 104986 112006 91538 109837 49986 108341 53838 82699 10449 72250 36092 82375 45630 53167 70680 56670 35997 67099 20623 38596 21521 20008
is_linear=0
shrinkage=0.05


Tree=20
num_leaves=31
num_cat=0
split_feature=2 40 2 1 43 43 11 5 1 13 2 6 4 3 39 1 43 4 39 5 11 6 13 4 27 34 39 4 41 13
split_gain=4147.45 983.606 825.784 384.56 238.259 229.014 228.147 217.21 178.07 149.324 143.534 138.83 130.78 120.259 108.886 106.571 99.9932 99.1663 99.1375 94.7739 93.5622 92.7454 90.116 88.8513 84.2114 81.1893 78.3251 76.3728 72.6594 64.4375
threshold=12.510000000000002 183389.50000000003 18.930000000000003 4.0000000000000009 11916.000000000002 11029.000000000002 15.525 1.0000000180025095e-35 4.0000000000000009 682.50000000000011 6.4250000000000007 69003.000000000015 54.500000000000007 229.14500000000001 2.5000000000000004 4.0000000000000009 1255.0000000000002 49.500000000000007 3.5000000000000004 1.0000000180025095e-35 21.485000000000003 60842.500000000007 682.50000000000011 184.50000000000003 8.5000000000000018 7.5000000000000009 3.5000000000000004 54.500000000000007 45909.500000000007 737.50000000000011
decision_type=2 2 2 2 2 2 2 2 2 2 2 2 2 2 2 2 2 2 2 2 2 2 2 2 2 2 2 2 2 2
left_child=1 10 3 6 21 13 23 15 12 18 -1 24 17 -4 -14 26 -15 -9 27 -18 -12 -5 -7 -2 -6 -13 -3 -8 -25 -17
right_child=2 7 5 4 11 22 9 8 -10 -11 20 25 14 16 -16 29 19 -19 -20 -21 -22 -23 -24 28 -26 -27 -28 -29 -30 -31
leaf_value=-0.036559640885402082 0.0044906937971414809 -0.017186006562061037 -0.0028039163849998029 0.011307346465545978 0.019886730470031491 0.028051593505445616 0.017339981108483029 -0.0060113776686055338 0.013922379000333976 -0.00091690891129982295 -0.025793408310484309 0.0051552565808207444 -0.010686124642198432 -0.025354983316067538 0.00071637816155672594 0.0015831789437798453 0.0091914417387132016 0.019523979681757331 0.015927728915655616 0.020293634036044179 -0.013661050010630902 -8.0884321477538404e-05 0.016869655712293093 -0.003812627935555236 0.039106786293126167 0.020525446970017652 -0.0056779520492592052 0.0032699077073992736 -0.013480644211060136 -0.017197412696308926
leaf_weight=2448.2929654419422 2046.8304473906755 8146.5747345462441 1201.6159185320139 2894.6587754786015 3385.4633328467607 4634.6833275109529 1116.119657561183 688.40385106950998 1305.577991604805 8159.4424429535866 6537.2082777768373 2729.9189516752958 7554.3302468508482 156.74752461910248 2896.4361220821738 1754.9679045006633 3684.0283357650042 849.24963933974504 2905.4096724838018 4019.6160982996225 2099.4376140385866 4675.487366721034 2947.8101801872253 5730.7833502739668 685.25989504158497 1253.7612425833941 1806.4051346033812 7098.0569747239351 2940.5518645644188 617.41229204833508
leaf_count=27296 12355 64479 6522 15199 15993 20772 6317 4991 8339 48346 64575 13891 55956 820 20799 11906 17962 6074 16398 18707 20135 25888 13304 34197 3133 6197 13957 41226 19727 4539
internal_value=-9.86921e-05 -0.0134301 0.00775981 0.00428183 0.0106425 0.0172928 0.000968771 -0.00804609 -0.00361308 0.00422006 -0.0258735 0.0166284 -0.00552275 0.0119279 -0.00752591 -0.0128275 0.0141799 0.00809186 0.00798951 0.0149844 -0.0228442 0.00427373 0.0237044 -0.0048794 0.0231222 0.00999263 -0.0150974 0.00518171 -0.00709117 -0.00330447
internal_weight=98970.5 36704.3 62266.2 45621.7 15624.5 16644.5 29997.2 25619.4 13294 19279 11084.9 8054.4 11988.4 9062.01 10450.8 12325.4 7860.39 1537.65 11119.6 7703.64 8636.65 7570.15 7582.49 10718.2 4070.72 3983.68 9952.98 8214.18 8671.34 2372.38
internal_count=640000 303046 336954 258867 80301 78087 178566 191040 96159 112287 112006 39214 87820 44011 76755 94881 37489 11065 63941 36669 84710 41087 34076 66279 19126 20088 78436 47543 53924 16445
is_linear=0
shrinkage=0.05


Tree=21
num_leaves=31
num_cat=0
split_feature=2 41 41 41 3 6 41 27 27 40 23 2 5 6 43 1 11 18 0 6 11 4 0 6 13 4 13 43 1 42
split_gain=3765.09 930.397 744.864 385.472 252.83 235.161 234.523 170.593 131.668 127.241 125.848 122.261 115.407 106.057 96.412 92.8655 90.0548 87.4579 111.748 85.8128 84.0462 83.5106 78.4589 72.9143 71.3812 71.3317 70.2135 69.6687 72.391 63.1789
threshold=12.510000000000002 43304.500000000007 44511.500000000007 10099.000000000002 212.02000000000001 70002.500000000015 26218.500000000004 5.5000000000000009 6.5000000000000009 230404.00000000003 10.500000000000002 14.100000000000001 1.0000000180025095e-35 87012.000000000015 2826.0000000000005 4.0000000000000009 27.845000000000002 22008.500000000004 14137.500000000002 59801.840000000004 17.985000000000003 200.50000000000003 9762.5000000000018 52003.000000000007 702.50000000000011 134.50000000000003 732.50000000000011 9711.0000000000018 4.0000000000000009 47392.000000000007
decision_type=2 2 2 2 2 2 2 2 2 2 2 2 2 2 2 2 2 2 2 2 2 2 2 2 2 2 2 2 2 2
left_child=1 6 3 16 19 8 26 21 25 11 14 12 -4 15 -7 24 -2 18 -16 -5 -8 29 -14 -13 -9 -6 -1 -10 -29 -3
right_child=2 7 9 4 5 10 20 13 27 -11 -12 23 22 -15 17 -17 -18 -19 -20 -21 -22 -23 -24 -25 -26 -27 -28 28 -30 -31
leaf_value=-0.025058478320354374 0.017954816317538168 0.0071339167304473681 -0.0030397364870925724 0.0027512179350851801 0.019401298055967471 -0.031484612861788851 -0.02178881788562332 0.0036714348471398304 0.012135693347422269 -0.01371101841590598 -0.0081773253955282569 0.00038337368828520504 0.00042276960099270122 -0.0088565601551037296 0.00061486227056108285 0.02014080554966589 0.030623261972861311 0.0018542691037637009 0.014875239770523642 -0.011068281082057319 -0.012389280247147713 -0.012079440029647325 0.010991474217917248 -0.015884008330387053 -0.010390273866943212 0.0093432656902402919 -0.036810633011276683 0.017542193784075188 0.030653946203001905 -0.0085183727606222819
leaf_weight=2440.9895713552833 5725.4860707819462 1092.091144233942 5837.0722489058971 3897.2483384013176 2118.0054824948311 160.26903487741947 5841.9262182340026 4175.3688948526978 1962.907952979207 1857.5209963619709 1549.3434291183949 1162.9002902507782 3088.0652754157782 2840.4480368122458 1884.7395684570074 688.89647987484932 1858.0625149607658 4175.5471945852041 5067.3983085304499 1578.2361660003662 4011.0222489610314 9871.209762506187 4071.1632000058889 1689.7577220648527 1151.3676320537925 10510.195369914174 2651.4780827090144 2305.9537816047668 1936.9297734647989 1573.7117723152041
leaf_count=27085 25844 7989 36430 22224 10636 888 53755 30034 10137 13390 8891 7358 18475 20533 9968 4305 7980 21406 25770 9336 35412 74006 23092 11092 8545 53435 29677 12001 8601 11705
internal_value=-9.73494e-05 -0.0128932 0.00734991 0.0107859 0.00868871 0.0104039 -0.0224652 -0.00620613 0.0139609 -0.00133015 0.00518526 0.000120902 0.00217835 -0.000893747 0.00701936 0.00286612 0.0210587 0.00757392 0.0110092 -0.00123207 -0.0179624 -0.00995877 0.00643276 -0.00925253 0.000632014 0.0110302 -0.0311774 0.0199245 0.0235279 -0.00210615
internal_weight=98775.3 36338.5 62436.8 44730.3 37146.8 31671.3 14945.4 21393.1 18834 17706.5 12837.3 15849 12996.3 8856.08 11288 6015.63 7583.55 11127.7 6952.14 5475.48 9852.95 12537 7159.23 2852.66 5326.74 12628.2 5092.47 6205.79 4242.88 2665.8
internal_count=640000 303046 336954 227117 193293 161733 145929 157117 94810 109837 66923 96447 77997 63417 58032 42884 33824 57144 35738 31560 89167 93700 41567 18450 38579 64071 56762 30739 20602 19694
is_linear=0
shrinkage=0.05


Tree=22
num_leaves=31
num_cat=0
split_feature=2 41 41 1 13 11 5 1 5 39 4 43 4 13 11 27 11 40 3 6 13 13 5 4 6 0 2 2 39 20
split_gain=3431.86 1022.08 618.243 355.396 239.324 191.287 173.789 169.188 151.926 149.939 112.791 112.203 105.605 105.534 103.469 98.4434 92.3229 89.2604 88.9026 88.5688 93.6942 75.7137 74.3435 79.7171 73.0019 70.4217 65.7149 65.1326 63.6523 62.6606
threshold=11.450000000000001 44511.500000000007 34486.500000000007 4.0000000000000009 672.50000000000011 21.045000000000005 1.0000000180025095e-35 4.0000000000000009 1.0000000180025095e-35 2.5000000000000004 54.500000000000007 2826.0000000000005 54.500000000000007 682.50000000000011 17.255000000000006 6.5000000000000009 15.525 230404.00000000003 248.67000000000004 40803.000000000007 732.50000000000011 717.50000000000011 1.5000000000000002 188200.50000000003 82802.000000000015 4962.5000000000009 14.100000000000001 11.510000000000002 2.5000000000000004 25.500000000000004
decision_type=2 2 2 2 2 2 2 2 2 2 2 2 2 2 2 2 2 2 2 2 2 2 2 2 2 2 2 2 2 2
left_child=2 3 19 9 14 12 24 8 -4 10 -2 -11 -3 -7 -5 -10 -13 25 -12 -1 -21 -9 23 -8 -6 -14 -27 -19 -16 -18
right_child=1 5 7 4 6 13 22 21 15 11 18 16 17 -15 28 -17 29 27 -20 20 -22 -23 -24 -25 -26 26 -28 -29 -30 -31
leaf_value=-0.012171102743335629 0.013859270664511581 0.0056679726749728973 -0.01744176322221954 0.014902983689924218 0.0099725977682166463 0.0092764939863968048 0.022824851176411268 0.011250582485712556 -0.011033628466205175 -0.038051027669884024 -0.0067139553966218367 0.0036669050197364497 -0.016034160304842931 -0.0011045050393947229 0.021423518245478539 0.0010917650386475294 0.018475072378241777 -0.001621155790056 0.0032259268619840194 -0.024289990349059612 -0.036281050883275899 -0.0064589530422457138 0.0073091362395847617 0.007037411109852787 0.00011912519092072646 -0.00063496289037465734 -0.011991175578189106 -0.015276235591077462 0.033624616593721256 0.0093063826547931192
leaf_weight=819.47766914218664 1761.6774570867419 1935.6678505763412 8030.024538718164 2836.5004441440105 4764.0721582919359 4320.9004842117429 4244.6871938556433 1111.977184265852 6531.6421294435859 119.13485011458397 3234.6677217036486 3219.9221209436655 1089.5327155441046 5649.0096595883369 2252.8140032738447 2250.7361645922065 3652.800426825881 1127.380148857832 7386.2794555947185 3679.4062847048044 2923.4030199870467 1319.9305630400777 1526.4623030871153 985.17256237566471 3104.752204656601 7458.4905195757747 1536.3047533333302 3874.3867338448763 2034.1328453868628 3804.1117301136255
leaf_count=8792 9406 12453 68363 13369 22909 26604 18769 7803 52723 684 18600 17956 7079 35815 10110 17331 19065 8064 39940 39919 32883 10090 6889 4787 15735 46036 10186 28580 8940 20120
internal_value=-9.58122e-05 0.00558474 -0.0154161 0.0102048 0.0147958 -0.00210534 0.0111352 -0.010688 -0.012471 0.00589716 0.00214217 0.010204 -0.00532672 0.00339456 0.0223112 -0.00792615 0.0107425 -0.00673742 0.000198681 -0.0276749 -0.029599 0.00163864 0.0170173 0.0198509 0.00608478 -0.0040288 -0.0025746 -0.0121984 0.0272129 0.0137977
internal_weight=98585.5 71918.9 26666.6 44927.2 21748.6 26991.7 14625.1 19244.3 16812.4 23178.6 12382.6 10796 17021.8 9969.91 7123.45 8782.38 10676.8 15086.1 10620.9 7422.29 6602.81 2431.91 6756.32 5229.86 7868.82 10084.3 8994.8 5001.77 4286.95 7456.91
internal_count=640000 402096 237904 227279 101508 174817 69089 156310 138417 125771 67946 57825 112398 62419 32419 70054 57141 99945 58540 81594 72802 17893 30445 23556 38644 63301 56222 36644 19050 39185
is_linear=0
shrinkage=0.05


Tree=23
num_leaves=31
num_cat=0
split_feature=2 41 41 41 4 4 27 11 3 18 27 4 23 5 39 1 13 5 11 43 40 18 1 6 11 11 1 6 0 41
split_gain=3124.49 917.617 584.029 333.011 187.994 176.197 159.689 156.901 144.883 138.489 172.827 126.055 117.747 110.162 96.4063 89.1684 85.0173 81.758 75.067 72.0861 71.6981 71.5542 70.6296 68.8277 64.5041 63.9057 59.405 57.1662 97.6493 57.0909
threshold=11.450000000000001 44511.500000000007 34486.500000000007 13405.000000000002 308.00000000000006 54.500000000000007 7.5000000000000009 18.185000000000006 171.10000000000005 25409.500000000004 7.5000000000000009 49.500000000000007 4.5000000000000009 1.0000000180025095e-35 2.5000000000000004 4.0000000000000009 737.50000000000011 1.0000000180025095e-35 22.515000000000004 2203.5000000000005 230404.00000000003 22785.500000000004 4.0000000000000009 79005.000000000015 15.065000000000003 21.775000000000002 4.0000000000000009 52003.000000000007 19987.500000000004 5132.5000000000009
decision_type=2 2 2 2 2 2 2 2 2 2 2 2 2 2 2 2 2 2 2 2 2 2 2 2 2 2 2 2 2 2
left_child=2 3 16 12 17 11 13 20 -6 10 18 -3 19 -4 26 23 25 -5 27 -2 -7 29 -15 -8 -11 -1 -9 -10 -29 -21
right_child=1 5 6 4 8 7 15 14 9 24 -12 -13 -14 22 -16 -17 -18 -19 -20 21 -22 -23 -24 -25 -26 -27 -28 28 -30 -31
leaf_value=-0.025710398143451912 -0.037699159444190028 -0.0018288190033192498 -0.016892161404492283 0.0084042039515682104 -0.0066039799426221308 -0.004766244021867528 0.0025962718074211649 -0.0053225256380948693 0.0080063756945129103 -0.016415635816916203 0.017196758452648921 0.01791237336970064 0.0093047929219018024 -0.0098513234284971166 0.0066610338263905612 0.018943198389070496 -0.03352943312323365 0.018783772573869428 0.01058892979010108 0.030754551683874028 -0.012933675939961212 0.011956548837157722 0.0070513673374737176 -0.011813264377157495 0.00062181951087168287 -0.011128543751436119 0.0052029648010368645 -0.004872432346076665 0.0075882269541130273 0.020147044845158595
leaf_weight=3394.3425164222717 53.411044180393219 1488.4192474707961 7419.1728867068887 3521.1356053799391 2411.953377738595 8058.4758188575506 1808.5988727137446 5606.0559061095119 3793.7149595692754 668.7846996858716 4048.8988106250763 1770.5576380118728 3559.0700700283051 7177.8962377756834 4235.3105530515313 484.71807889640331 2900.5394954755902 4113.6155856102705 5023.9339949712157 1764.6131489127874 4031.2530521824956 1856.9721476733685 676.26612418144941 1529.5695268139243 3280.9361444786191 964.97675728797913 1761.827423915267 3803.2190879881382 2680.3336918205023 4511.5156116187572
leaf_count=37744 258 9397 63387 18780 14417 51183 14217 36628 20033 3681 20509 11146 16773 58143 26428 3330 33473 20691 25082 7498 29991 8140 4731 12502 16891 10377 10044 20586 13969 19971
internal_value=-9.41605e-05 0.00529478 -0.0148248 0.00965739 0.00710727 -0.00200412 -0.0102356 -0.00350348 0.00506154 0.00626913 0.00801071 0.0088963 0.0168974 -0.0125231 0.000649812 -0.00109642 -0.0268961 0.0139967 0.00557996 0.0201982 -0.00748963 0.0205784 -0.00839595 -0.00400627 -0.00226304 -0.0224826 -0.00280564 0.00313137 0.000278868 0.0231295
internal_weight=98400.1 72044 26356.1 45092.1 33346.5 26951.9 19096.2 23692.9 25711.8 23299.8 19350.1 3258.98 11745.6 15273.3 11603.2 3822.89 7259.86 7634.75 15301.2 8186.51 12089.7 8133.1 7854.16 3338.17 3949.72 4359.32 7367.88 10277.3 6483.55 6276.13
internal_count=640000 402096 237904 227279 174639 174817 156310 154274 135168 120751 100179 20543 52640 126261 73100 30049 81594 39471 79670 35867 81174 35609 62874 26719 20572 48121 46672 54588 34555 27469
is_linear=0
shrinkage=0.05


Tree=24
num_leaves=31
num_cat=0
split_feature=2 41 41 1 13 11 11 1 5 5 39 6 13 43 18 23 6 13 27 5 0 13 0 11 4 4 1 39 4 18
split_gain=2848.5 863.623 517.725 307.21 213.69 181.381 157.121 152.687 143.159 127.272 112.533 102.846 99.083 98.6765 92.8428 87.9639 86.3824 89.4017 85.83 76.4604 73.7233 70.3036 67.7315 60.5853 60.4836 70.2957 58.7886 52.5729 51.7644 50.915
threshold=11.180000000000001 44511.500000000007 34486.500000000007 4.0000000000000009 687.50000000000011 20.945000000000004 24.315000000000001 4.0000000000000009 1.0000000180025095e-35 1.0000000180025095e-35 3.5000000000000004 52003.000000000007 682.50000000000011 9711.0000000000018 25749.500000000004 5.5000000000000009 40803.000000000007 732.50000000000011 6.5000000000000009 1.0000000180025095e-35 7012.5000000000009 737.50000000000011 4962.5000000000009 27.095000000000002 55.500000000000007 39.500000000000007 4.0000000000000009 3.5000000000000004 74.500000000000014 22008.500000000004
decision_type=2 2 2 2 2 2 2 2 2 2 2 2 2 2 2 2 2 2 2 2 2 2 2 2 2 2 2 2 2 2
left_child=2 3 16 8 6 11 19 9 20 -4 15 26 27 -13 23 24 -1 -18 -11 -5 -2 -9 -15 -6 25 -10 28 -7 -3 -22
right_child=1 5 7 4 14 12 -8 21 10 18 -12 13 -14 22 -16 -17 17 -19 -20 -21 29 -23 -24 -25 -26 -27 -28 -29 -30 -31
leaf_value=-0.010590868954624313 -0.0074278664428502521 0.010116188918135739 -0.016649886340820794 0.0092501148687167412 0.0076595077831917617 0.0059614748527281785 0.02549674701188151 0.0084283025527890961 0.00028093890212564637 -0.010622481931578045 0.015620429498116701 -0.013332796188391388 -0.001063787424912472 -0.021859516458789897 -0.0018177862439217427 -0.0010628832546174343 -0.022825211300086908 -0.034820143295907442 0.0011132636012852219 0.018504991817155713 0.0055903888277268436 -0.010397302570322531 -0.0026363761872217908 0.018943868106826165 0.0067452218127324482 0.027624599030866 0.013750330444942553 0.019164667091484761 -0.0037325192972859911 -0.0043906674520483536
leaf_weight=794.70962361246347 2363.1813025847077 799.00108523666859 7406.5222964659333 4623.4882955998182 5205.2667042464018 3599.662604637444 4143.2632944732904 1475.784427665174 336.3985106498003 6026.4880371317267 3781.4024689793587 4806.7025965899229 5975.1005153954029 493.40847259759903 2092.1114318817854 3396.0815734341741 3544.0549655035138 2765.6661680042744 2101.1563194468617 4314.0205538868904 4722.6937899142504 746.93063966929913 6426.7385682612658 1541.7877482622862 6203.3298971951008 780.15633751451969 712.09492503106594 953.70854375511408 4339.6269005611539 1751.6037866845727
leaf_count=8792 13857 5146 64897 22333 24930 22256 17958 10645 1710 49729 19379 33564 38087 3379 10196 19118 39919 32883 16352 19157 25956 5937 41666 6934 32157 3917 4130 5767 29519 9730
internal_value=-9.24019e-05 0.00486442 -0.014719 0.00913973 0.0133902 -0.00201944 0.0174484 -0.0101551 0.00514698 -0.0119089 0.00820468 -0.00512808 0.0031705 -0.00782953 0.00738466 0.00558785 -0.0261261 -0.0280828 -0.00758856 0.0137173 0.000130986 0.00210207 -0.00400699 0.0102381 0.00867348 0.0193864 0.000286571 0.0087269 -0.00157919 0.00289004
internal_weight=98222.1 73360.8 24861.3 45254.8 21919.9 28106 13080.8 17756.9 23334.8 15534.2 14497.4 17577.6 10528.5 11726.8 8839.17 10716 7104.43 6309.72 8127.64 8937.51 8837.48 2222.72 6920.15 6747.05 7319.88 1116.55 5850.72 4553.37 5138.63 6474.3
internal_count=640000 410846 229154 227332 101508 183514 59448 147560 125824 130978 76281 117404 66110 78609 42060 56902 81594 72802 66081 41490 49543 16582 45045 31864 37784 5627 38795 28023 34665 35686
is_linear=0
shrinkage=0.05


Tree=25
num_leaves=31
num_cat=0
split_feature=2 41 41 2 27 5 18 1 4 43 5 1 39 0 6 1 11 27 3 11 5 6 42 23 13 13 27 13 34 13
split_gain=2593.5 776.033 488.198 287.17 195.176 177.692 155.515 139.837 134.031 132.85 118.094 106.185 96.5435 95.727 97.121 89.6073 83.7747 78.4417 77.8914 77.5703 71.6136 68.8259 67.015 63.5057 63.4622 60.1943 57.1345 53.3326 52.9984 51.5629
threshold=11.180000000000001 44511.500000000007 34486.500000000007 19.98 5.5000000000000009 1.0000000180025095e-35 20390.500000000004 4.0000000000000009 236.50000000000003 11403.500000000002 1.0000000180025095e-35 4.0000000000000009 2.5000000000000004 7362.5000000000009 70002.500000000015 4.0000000000000009 21.485000000000003 6.5000000000000009 136.68500000000003 12.395000000000001 1.0000000180025095e-35 50602.000000000007 47392.000000000007 9.5000000000000018 737.50000000000011 677.50000000000011 10.500000000000002 677.50000000000011 8.5000000000000018 722.50000000000011
decision_type=2 2 2 2 2 2 2 2 2 2 2 2 2 2 2 2 2 2 2 2 2 2 2 2 2 2 2 2 2 2
left_child=2 3 16 4 13 19 15 10 22 18 -4 12 -10 21 -15 -6 29 -12 -5 -3 -20 -2 -7 -16 -9 -21 -8 -11 -17 -1
right_child=1 5 7 9 6 8 26 24 11 27 17 -13 -14 14 23 28 -18 -19 20 25 -22 -23 -24 -25 -26 -27 -28 -29 -30 -31
leaf_value=-0.022809461229217492 0.00056591982734398283 -0.01305522172418791 -0.016017759038796958 -0.011190509527720594 0.010515890757076549 0.019305041363776226 0.00011667114028012379 0.0079615774330030892 -0.0060176790680115432 0.025747497245681417 -0.010170360275718958 0.010195381330879688 0.0044239252615474456 0.0079874893149548386 0.0017746436957765859 0.016630834450746756 -0.014980541487692935 0.0010567644142439282 0.0064752808161087118 0.0016238040792147567 0.016516423846701316 -0.013006568289685695 0.0045598817844195935 -0.013007634474911663 -0.0099512642757423001 -0.0067806464087770864 0.011165899601250195 0.015718637996634831 0.030100311103460609 -0.032610361816580925
leaf_weight=2410.90191745013 2789.1056984364986 3160.3492848724127 7316.2231793701649 385.25178098678589 5879.7152800559998 1357.6511972546577 3675.8729559183121 1483.9668304473162 6932.3579895868897 2818.0249500125647 5980.8667335361242 1898.9394325911999 3252.3400255590677 8390.504610940814 4307.9539300352335 2468.7596649080515 1518.1094374135137 2102.7749803811312 3292.9538194090128 3164.955132201314 3853.8643085956573 1404.3714446127415 1781.9876930192113 873.9547024294734 741.53041152656078 6518.1192387789488 1716.212823048234 2503.2087046056986 1037.0880638062954 3026.7579904198647
leaf_count=27747 15796 22404 64897 2109 31688 8193 18872 10645 46087 12136 49729 10424 20612 42289 22240 11517 17189 16352 15509 20944 17407 8364 11023 5070 5937 43827 8724 10885 4726 36658
internal_value=-9.05055e-05 0.00461348 -0.0141489 0.00865419 0.00615499 -0.0019222 0.0104006 -0.00972232 0.00173202 0.014982 -0.0114154 -0.000659419 -0.0026833 0.00262348 0.00466358 0.0142884 -0.0253656 -0.00724988 0.0107094 -0.00625354 0.0118899 -0.00397943 0.010936 -0.000718461 0.00199306 -0.00403362 0.00363346 0.0210297 0.0206153 -0.0282649
internal_weight=98044.7 73463.5 24581.1 45396.8 32543.5 28066.7 14777.6 17625.4 15223.3 12853.3 15399.9 12083.6 10184.7 17765.9 13572.4 9385.56 6955.77 8083.64 7532.07 12843.4 7146.82 4193.48 3139.64 5181.91 2225.5 9683.07 5392.09 5321.23 3505.85 5437.66
internal_count=640000 410846 229154 227332 169286 183514 75527 147560 96339 58046 130978 77123 66699 93759 69599 47931 81594 66081 35025 87175 32916 24160 19216 27310 16582 64771 27596 23021 16243 64405
is_linear=0
shrinkage=0.05


Tree=26
num_leaves=31
num_cat=0
split_feature=2 41 41 11 11 40 39 18 0 11 13 6 1 13 0 18 34 27 6 18 1 5 43 2 43 13 5 0 6 18
split_gain=2366.11 857.464 312.619 242.015 231.632 144.16 141.201 129.167 167.356 123.132 115.46 98.571 92.7737 88.5609 85.038 90.7716 86.2318 75.8718 75.3641 71.1701 70.957 67.6082 65.1674 64.2057 63.6614 62.9085 60.8195 59.6752 103.148 67.1584
threshold=10.415000000000001 41323.000000000007 30733.000000000004 21.885000000000002 21.045000000000005 230404.00000000003 3.5000000000000004 25749.500000000004 15012.500000000002 17.075000000000003 702.50000000000011 55000.495000000003 4.0000000000000009 687.50000000000011 4787.5000000000009 23561.500000000004 5.5000000000000009 7.5000000000000009 37003.760000000002 12066.500000000002 4.0000000000000009 1.0000000180025095e-35 2826.0000000000005 11.540000000000001 9711.0000000000018 732.50000000000011 1.0000000180025095e-35 14787.500000000002 45005.500000000007 7114.5000000000009
decision_type=2 2 2 2 2 2 2 2 2 2 2 2 2 2 2 2 2 2 2 2 2 2 2 2 2 2 2 2 2 2
left_child=2 3 25 7 5 14 13 8 11 26 12 -2 21 20 -3 16 27 -11 -7 -10 -5 -6 -8 -20 -18 -1 -4 28 -16 -29
right_child=1 4 9 6 10 18 22 -9 19 17 -12 -13 -14 -15 15 -17 24 -19 23 -21 -22 -23 -24 -25 -26 -27 -28 29 -30 -31
leaf_value=-0.021528259732794756 0.0068799033796826019 -0.012682038920821356 -0.0212891202248182 0.0091802854983706033 -0.001012828449986914 0.002548354788175567 -0.038014061697023746 -0.0050066494116024667 0.016484755037182414 -0.010657845668404962 -0.0034108670589076372 -0.002675438942959124 0.016778872714350086 0.0049636351133375382 0.0045504534785004271 -0.0097851894773752085 -0.0011548661429652452 0.0015538689423198878 -0.0074605555013713565 0.0073173347344063864 0.018829000503177613 0.0078637350490224408 0.021205095314007046 -0.016351035936520521 0.012206575366703748 -0.033297413346995319 -0.012268620138374911 0.014431838738727214 -0.010888940585739458 -0.0013181399148553565
leaf_weight=2224.5534877404571 6378.682943329215 1475.1995978206396 3790.2190540358424 3959.9372985363007 3650.0321661382914 1241.745694167912 46.908730149269104 2582.1218072548509 4496.3868839591742 4867.7213162183762 4317.7747928649187 4678.5695027783513 1757.9965246766806 4474.4109876155853 1742.4800428822637 2034.2129566967487 1353.3873652219772 1721.8689868375659 5747.4439515918493 4000.9329654946923 3672.6499298214912 5202.7436767071486 4818.3645732402802 3140.4009429812431 2611.9980489164591 2319.1160878166556 3685.7350541055202 1022.8446271121502 2853.0111964792013 2000.7715319022536
leaf_count=27101 32890 9637 36637 20029 24561 9289 250 13188 21442 43739 27810 24656 9211 21410 10706 12484 8443 14614 43649 19406 15910 31868 22467 23851 15357 29678 33494 6123 18013 12087
internal_value=-8.85326e-05 0.00367848 -0.0161331 0.00894791 -0.00145406 -0.00437567 0.0134399 0.00550388 0.00689176 -0.0124498 0.00348232 0.00283683 0.00628732 0.0105489 -0.00127907 -4.38773e-05 0.00166668 -0.00746691 -0.00898985 0.0121683 0.0138231 0.0042039 0.0206341 -0.0106019 0.00764631 -0.0275353 -0.0168419 -0.00144544 -0.00503476 0.00400984
internal_weight=97870.2 79261 18609.2 39109 40152 25223.5 16972.3 22136.7 19554.6 14065.5 14928.5 11057.3 10610.8 12107 15093.9 13618.7 11584.5 6589.59 10129.6 8497.32 7632.59 8852.78 4865.27 8887.84 3965.39 4543.67 7475.95 7619.11 4595.49 3023.62
internal_count=640000 454737 185263 191648 263089 169639 80066 111582 98394 128484 93450 57546 65640 57349 92850 83213 70729 58353 76789 40848 35939 56429 22717 67500 23800 56779 70131 46929 28719 18210
is_linear=0
shrinkage=0.05


Tree=27
num_leaves=31
num_cat=0
split_feature=2 41 2 41 27 5 4 43 5 1 27 11 4 18 4 39 5 1 13 4 11 6 1 43 23 13 0 3 0 23
split_gain=2158.55 770.751 297.936 226.29 216.084 171.68 171.289 207.3 157.669 147.795 124.057 113.764 112.101 96.9607 95.1915 91.8363 91.8207 89.4488 90.9821 81.7403 78.8136 69.5795 66.0826 65.3532 64.4283 64.3081 60.9078 56.8474 56.8416 56.2632
threshold=10.415000000000001 41323.000000000007 7.2750000000000012 8963.0000000000018 7.5000000000000009 1.0000000180025095e-35 171929.50000000003 2826.0000000000005 1.0000000180025095e-35 4.0000000000000009 5.5000000000000009 14.885000000000003 54.500000000000007 20808.500000000004 334159.50000000006 2.5000000000000004 1.5000000000000002 4.0000000000000009 702.50000000000011 49.500000000000007 13.585000000000003 62002.000000000007 4.0000000000000009 7739.5000000000009 6.5000000000000009 737.50000000000011 13212.500000000002 252.26500000000001 4687.5000000000009 14.000000000000002
decision_type=2 2 2 2 2 2 2 2 2 2 2 2 2 2 2 2 2 2 2 2 2 2 2 2 2 2 2 2 2 2
left_child=2 3 25 24 5 21 7 29 20 12 27 -4 19 23 -8 -14 -12 18 -13 -7 -9 -3 -15 -6 -2 -1 -23 -10 -22 -5
right_child=1 4 11 6 13 9 14 8 10 -11 16 17 15 22 -16 -17 -18 -19 -20 -21 28 26 -24 -25 -26 -27 -28 -29 -30 -31
leaf_value=-0.021328733832088193 0.019814989167674754 -0.0033382718675697143 -0.017040165733736349 -0.035009739576093851 -0.0027027036348587527 -0.0035245099034718914 -0.0034459517121842066 -0.0027961272784976262 0.001676969519233082 0.010046487470657388 0.02107488920038366 -0.0041132156077610992 -0.0065417224569518087 -0.0049096923323240088 0.012984060404523401 0.0029238305980298467 0.0068397977836180818 0.0083713944931978878 -0.015504046534150327 0.018132566292717877 -0.0091216260872662557 -0.016270505039525453 0.0093741887326877823 0.012500391560301846 0.0067235756167750016 -0.033156385086638193 -0.007218504068267584 0.01106221474892841 0.0079729583893545959 0.0098988419369373699
leaf_weight=2680.0919151827693 4938.4034052193165 5804.4543001428246 5895.1539384275675 342.47412613034248 847.43619261682034 726.42063458263874 5154.5343089997768 2624.2565455436707 2209.209960013628 3004.4018360376358 4947.2177866250277 3635.7864506840706 8945.5730495676398 2654.4618615061045 1063.4657084494829 3591.2035162746906 1469.2467580288649 767.63463843613863 3385.205421872437 1088.6120545566082 514.94949015974998 2928.72733592242 1165.132632702589 4261.7346196621656 1160.7102907598019 2011.9818583652377 5084.6231589242816 5983.24466560781 8735.2790633141994 87.579088300466537
