tree
version=v4
num_class=1
num_tree_per_iteration=1
label_index=0
max_feature_idx=44
objective=binary sigmoid:1
feature_names=loanAmnt term interestRate installment employmentTitle homeOwnership annualIncome verificationStatus purpose postCode regionCode dti delinquency_2years ficoRangeLow ficoRangeHigh openAcc pubRec pubRecBankruptcies revolBal revolUtil totalAcc initialListStatus applicationType title policyCode n0 n1 n2 n3 n4 n5 n6 n7 n8 n9 n10 n11 n12 n13 n14 grade_freq subGrade_freq employmentLength_freq issueDate_freq earliesCreditLine_freq
feature_infos=[500:40000] [3:5] [5.3099999999999996:30.989999999999998] [15.69:1715.4200000000001] [0:378329] [0:5] [0:10999200] [0:2] [0:13] [0:940] [0:50] [0:999] [0:39] [660:845] [664:850] [1:80] [0:54] [0:7] [0:1087664] [0:180.30000000000001] [2:150] [0:1] [0:1] [0:61680] none [0:39] [0:33] [0:63] [0:63] [0:49] [0:70] [0:97] [0:66] [1:128] [0:43] [1:76] [0:2] [0:4] [0:39] [0:30] [5364:233690] [645:50763] [30272:262753] [7:29066] [1:5567]
tree_sizes=3435 3503 3547 3511 3538 3535 3537 3531 3524 3534 3541 3551 3527 3534 3546 3532 3536 3546 3546 3548 3530 3545 3557 3550 3560 3560 3560 3549 3565 3558 3570 3562 3567 3541 3554 3560 3563 3558 3542 3562 3573 3568 3550 3566 3568 3566 3557 3562 3588 3571 3575 3563 3560 3560 3563 3569 3592 3573 3578 3567 3565 3570 3529 3567 3573 3560 3578 3560 3537 3575 3539 3571 3563 3582 3579 3562 3566 3560 3574 3586 3572 3562 3573 3568 3573 3570 3574 3579 3570 3578 3585 3569 3569 3553 3576 3566 3571 3572 3580 3587 3578 3558 3558 3593 3576 3580 3575 3590 3583 3580 3588 3583 3567 3563 3592 3573 3588 3572 3576 3595 3565 3575 3591 3589 3563 3598 3561 3560 3565 3550 3571 3579 3586 3572 3575 3590 3567 3537 3584 3569 3565 3554 3561 3563 3578 3557 3591 3579 3571 3554 3585 3580 3567 3542 3579 3576 3546 3600 3573 3539 3537 3542 3565 3566 3594 3525 3548 3561 3536 3565 3545 3572 3555 3531 3546 3592 3553 3505 3539 3559 3543 3583 3572 3529 3558 3542 3566 3561 3556 3538 3580 3550 3510 3562 3518 3537 3584 3556 3570 3497

Tree=0
num_leaves=31
num_cat=0
split_feature=2 41 41 1 1 43 5 40 41 5 41 2 23 5 2 43 1 11 23 23 3 11 40 3 1 41 5 2 5 11
split_gain=29335.9 7238.83 4149.76 1659.35 1653.28 986.399 936.05 717.718 692.47 672.325 665.625 420.995 372.374 334.927 307.806 297.556 272.114 263.396 252.347 251.467 240.412 238.101 214.169 211.695 201.172 198.737 186.93 180.133 152.48 141.206
threshold=13.135000000000002 23032.500000000004 44249.500000000007 4.0000000000000009 4.0000000000000009 9655.0000000000018 1.0000000180025095e-35 230404.00000000003 34486.500000000007 1.0000000180025095e-35 44511.500000000007 23.730000000000004 25.500000000000004 1.0000000180025095e-35 22.395000000000003 11403.500000000002 4.0000000000000009 23.785000000000004 25.500000000000004 11.500000000000002 172.08500000000004 26.325000000000003 183389.50000000003 167.98000000000005 4.0000000000000009 48782.500000000007 1.0000000180025095e-35 14.100000000000001 1.0000000180025095e-35 21.195000000000004
decision_type=2 2 2 2 2 2 2 2 2 2 2 2 2 2 2 2 2 2 2 2 2 2 2 2 2 2 2 2 2 2
left_child=2 4 8 10 11 14 15 24 -1 17 13 19 22 -3 -6 -5 26 -7 20 23 -15 -11 -8 -2 -4 27 -9 28 -12 -22
right_child=1 3 7 6 5 9 12 16 -10 21 25 -13 -14 18 -16 -17 -18 -19 -20 -21 29 -23 -24 -25 -26 -27 -28 -29 -30 -31
leaf_value=-1.4357836863246971 -1.3772400741025841 -1.3843172669809261 -1.3911638276201417 -1.3789240056673358 -1.3557427361501602 -1.3341954826200031 -1.3167761061006862 -1.4135688653903591 -1.4202321657768409 -1.2987567889233154 -1.3945675965591153 -1.323041756712499 -1.3772871357585237 -1.3837090201689235 -1.3246479088178642 -1.356020042250949 -1.3896147779394972 -1.304109361988016 -1.3902814874416987 -1.3848962972208791 -1.367392371532822 -1.2676160910458467 -1.3422188593021214 -1.348334169293588 -1.3713915229481299 -1.4082610635015118 -1.4026107235242364 -1.4032298867962396 -1.3766970355135251 -1.3516059280139729
leaf_weight=13000.650339111686 769.78900820016861 5619.4597598612309 6261.3232503086329 3504.2967672049999 1671.8156302571297 1891.4131170362234 1343.7769118249416 7127.8948599547148 15927.765057429671 1928.4652020782232 2042.3364806771278 1032.5074560195208 533.42225879430771 1386.2590438127518 1518.9757794588804 2381.8741220533848 2432.8207389861345 1182.1531615555286 1146.6981491446495 745.03438241779804 3252.4384132772684 900.42954942584038 2151.2568341195583 3574.8873775005341 1619.1122334301472 1664.9482179433107 8571.9679330140352 1646.901297211647 2872.4948343336582 2509.4802252799273
leaf_count=81403 4820 35186 39205 21942 10468 11843 8414 44631 99731 12075 12788 6465 3340 8680 9511 14914 15233 7402 7180 4665 20365 5638 13470 22384 10138 10425 53673 10312 17986 15713
internal_value=-1.38934 -1.36047 -1.41419 -1.37395 -1.33207 -1.31854 -1.35695 -1.3997 -1.42722 -1.30643 -1.38156 -1.35215 -1.33838 -1.37489 -1.34094 -1.36966 -1.40517 -1.32262 -1.36851 -1.35806 -1.36501 -1.28884 -1.33244 -1.35346 -1.3871 -1.39283 -1.40759 -1.38892 -1.38412 -1.36052
internal_weight=102213 47271.1 54941.5 32055.6 15215.5 9093.25 9914.63 26013.1 28928.4 5902.46 22141 6122.22 4028.46 13914.3 3190.79 5886.17 18132.7 3073.57 8294.88 5089.71 7148.18 2828.89 3495.03 4344.68 7880.44 8226.68 15699.9 6561.73 4914.83 5761.92
internal_count=640000 295986 344014 200715 95271 56937 62080 162880 181134 36958 138635 38334 25224 87124 19979 36856 113537 19245 51938 31869 44758 17713 21884 27204 49343 51511 98304 41086 30774 36078
is_linear=0
shrinkage=1


Tree=1
num_leaves=31
num_cat=0
split_feature=2 41 41 1 1 5 43 41 40 23 5 5 2 23 2 41 2 1 23 11 13 11 3 1 11 2 5 11 0 11
split_gain=26404.8 6134.4 3920.17 1446.41 1347.96 792.557 786.648 671.803 657.448 600.841 521.046 487.432 349.731 312.271 290.503 266.813 253.851 250.887 217.161 209.43 186.804 184.624 180.885 179.482 179.099 176.356 174.684 162.25 158.937 151.94
threshold=13.135000000000002 23032.500000000004 44249.500000000007 4.0000000000000009 4.0000000000000009 1.0000000180025095e-35 9655.0000000000018 34486.500000000007 230404.00000000003 25.500000000000004 1.0000000180025095e-35 1.0000000180025095e-35 23.730000000000004 25.500000000000004 15.915000000000001 44511.500000000007 22.395000000000003 4.0000000000000009 11.500000000000002 23.785000000000004 682.50000000000011 24.135000000000002 167.98000000000005 4.0000000000000009 25.235000000000003 15.615 1.0000000180025095e-35 22.985000000000003 4812.5000000000009 21.285000000000004
decision_type=2 2 2 2 2 2 2 2 2 2 2 2 2 2 2 2 2 2 2 2 2 2 2 2 2 2 2 2 2 2
left_child=2 4 7 9 12 15 16 -1 23 11 19 25 18 20 29 24 -6 26 22 -8 27 -12 -2 -4 -5 -3 -10 -7 -16 -13
right_child=1 3 8 5 6 13 10 -9 17 -11 21 14 -14 -15 28 -17 -18 -19 -20 -21 -22 -23 -24 -25 -26 -27 -28 -29 -30 -31
leaf_value=-0.045415077201195808 0.01141349285729939 -0.0038602532329392752 -0.0017307574865650548 0.019386341029036344 0.031272123229415978 0.054446847164061979 0.050663800830194096 -0.029912649037916489 -0.023362214174919266 -0.010622153349486596 0.079756567413545865 0.0063981502709452298 0.060506199775611551 0.011369443073331873 0.0077057273851586401 0.0021297533479691434 0.059096953326505747 -0.00025726106704991109 0.0042137755149862458 0.076916494211712427 0.042093586635443742 0.10507711547756829 0.037996524305245888 0.016867939271883292 0.043282582364166558 0.012450386976183482 -0.012707272889203021 0.089052413592935947 0.034910550224206992 0.02112453029866369
leaf_weight=12638.516698583961 775.39081782102585 5141.3012874126434 6254.47584182024 3153.3953489363194 1705.6090775728226 1113.0538282543421 1954.190550327301 15632.457622751594 7024.2196347266436 3843.8303179293871 1800.5565740019083 4402.5829789042473 1073.7152794003487 537.28893041610718 661.9850500524044 1758.8766347467899 1578.1287949085236 2432.42486949265 747.02616468071938 1242.8178303837776 2014.8115510493517 1199.5148963034153 3663.0963730812073 1636.5907978117466 1043.5995840132236 2445.5420772433281 8503.6570672094822 486.87664151191711 2840.7295429557562 2908.7664432674646
leaf_count=81403 4820 32220 39205 19510 10468 6736 11843 99731 44631 24180 10691 27364 6465 3340 4130 10898 9511 15233 4665 7402 12207 7022 22384 10138 6448 15268 53673 2941 17483 17990
internal_value=-1.9647e-05 0.0269393 -0.0239752 0.0144837 0.052541 0.0301672 0.0644299 -0.036843 -0.00990294 0.00735719 0.0749139 0.011113 0.0345329 0.0469359 0.0179292 0.0184773 0.0446444 -0.0151882 0.0291548 0.0608694 0.0522224 0.0898805 0.0333525 0.00212657 0.0253282 0.00139732 -0.0175272 0.0649777 0.0297691 0.0122569
internal_weight=102215 48092.7 54122.3 32352.6 15740 10107.9 9480.82 28271 25851.4 22244.7 6197.08 18400.9 6259.23 4152.03 10814.1 5955.87 3283.74 17960.3 5185.51 3197.01 3614.74 3000.07 4438.49 7891.07 4196.99 7586.84 15527.9 1599.93 3502.71 7311.35
internal_count=640000 295986 344014 200715 95271 62080 56937 181134 162880 138635 36958 114455 38334 25224 66967 36856 19979 113537 31869 19245 21884 17713 27204 49343 25958 47488 98304 9677 21613 45354
is_linear=0
shrinkage=0.05


Tree=2
num_leaves=31
num_cat=0
split_feature=2 41 41 1 1 5 41 43 40 41 5 2 11 43 43 1 2 3 6 41 5 1 5 43 41 2 5 6 5 5
split_gain=23794.7 5236.72 3701.36 1264.53 1114.51 675.676 651.975 639.889 601.956 556.226 444.972 296.464 288.333 273.883 249.61 231.167 203.946 199.706 181.943 174.414 163.855 181.718 163.111 157.803 157.019 155.793 151.342 130.146 126.216 123.351
threshold=13.135000000000002 23032.500000000004 44249.500000000007 4.0000000000000009 4.0000000000000009 1.0000000180025095e-35 34486.500000000007 9446.5000000000018 230404.00000000003 44511.500000000007 1.0000000180025095e-35 21.200000000000003 19.205000000000002 9912.5000000000018 11403.500000000002 4.0000000000000009 22.760000000000002 169.90500000000003 64909.525000000009 48782.500000000007 1.0000000180025095e-35 4.0000000000000009 1.0000000180025095e-35 9711.0000000000018 8963.0000000000018 14.100000000000001 1.0000000180025095e-35 69000.005000000019 1.0000000180025095e-35 1.0000000180025095e-35
decision_type=2 2 2 2 2 2 2 2 2 2 2 2 2 2 2 2 2 2 2 2 2 2 2 2 2 2 2 2 2 2
left_child=2 4 6 9 11 14 -1 16 20 12 18 23 28 -7 -5 22 -6 -13 -9 25 -4 -22 -10 -2 -12 29 -14 -15 -3 -11
right_child=1 3 8 5 7 13 -8 10 15 19 24 17 26 27 -16 -17 -18 -19 -20 -21 21 -23 -24 -25 -26 -27 -28 -29 -30 -31
leaf_value=-0.044414227186018299 0.0096623038031579539 -0.0026890348491299316 -0.0057700626263342287 0.0088955177822160787 0.029310699709420181 0.028710272915918506 -0.028958880087998885 0.069751238663203402 -0.022522291647555995 -0.0047915803696980293 0.096099722635068094 0.016005753802381527 0.011373209513156422 0.064536289468197158 0.029605919923364307 -0.00024443588363941748 0.054977031745160609 0.054058609442900862 0.046090230332571452 -0.017973760755042686 0.0043920889889914033 0.033579392311416704 -0.012167873401071602 0.030753782425699729 0.072989483245512687 -0.013157997129339278 0.026183318222972381 0.04127394730421461 0.011092430075377472 0.011259633180483813
leaf_weight=12286.169535800815 1284.3247858285904 2704.7148754894733 3641.8178711980581 3561.829403668642 1791.0877262502909 1824.4740438908339 15347.319623112679 1319.6616377681494 6924.4529302418232 2031.0545040071011 1125.5847172290087 425.9186849296093 2939.7048181146383 1368.8660472482443 2459.4724503159523 2432.0487480759621 1362.9352413117886 1810.1757229268551 2113.987461835146 1640.6467943489552 3634.1940823793411 624.98120076954365 8438.2966268062592 2865.4360168725252 2118.0448590815067 1629.6631684750319 4174.5346314460039 1072.2337389290333 4306.8121221959591 2914.4178608953953
leaf_count=81403 7854 16867 22706 21942 10761 10894 99731 7658 44631 12788 6330 2565 18319 8024 14914 15233 7942 10696 12324 10425 22804 3833 53673 17219 11922 10312 25420 6306 26518 17986
internal_value=-3.58944e-05 0.0251762 -0.0231282 0.0136343 0.0483981 0.0281404 -0.0358305 0.0589621 -0.00946811 0.00695514 0.067729 0.0321343 0.0129718 0.0433653 0.0173549 -0.0145675 0.0404018 0.0468105 0.0551839 -0.00338962 0.00201679 0.00867496 -0.0168349 0.0242261 0.0810091 0.000249457 0.0200636 0.0543185 0.00577619 0.00466757
internal_weight=102175 48845.6 53329.3 32628.4 16217.2 10286.9 27633.5 9831.3 25695.8 22341.5 6677.28 6385.86 14125.8 4265.57 6021.3 17794.8 3154.02 2236.09 3433.65 8215.78 7900.99 4259.18 15362.7 4149.76 3243.63 6575.14 7114.24 2441.1 7011.53 4945.47
internal_count=640000 295986 344014 200715 95271 62080 181134 56937 162880 138635 38234 38334 87124 25224 36856 113537 18703 13261 19982 51511 49343 26637 98304 25073 18252 41086 43739 14330 43385 30774
is_linear=0
shrinkage=0.05


Tree=3
num_leaves=31
num_cat=0
split_feature=2 41 41 1 1 43 41 40 5 23 23 5 2 5 2 1 3 11 11 23 11 13 1 3 5 40 5 5 34 11
split_gain=21464 4519.29 3492.67 1637.55 728.513 677.768 632.808 550.836 436.641 379.15 370.138 358.148 342.006 305.357 269.927 212.862 189.571 164.011 159.897 155.714 155.344 154.608 151.219 146.971 137.519 127.33 121.472 118.209 113.812 113.712
threshold=13.135000000000002 28533.000000000004 44249.500000000007 4.0000000000000009 4.0000000000000009 11403.500000000002 34486.500000000007 230404.00000000003 1.0000000180025095e-35 25.500000000000004 25.500000000000004 1.0000000180025095e-35 19.98 1.0000000180025095e-35 22.370000000000005 4.0000000000000009 162.86000000000004 19.595000000000002 21.285000000000004 25.500000000000004 23.785000000000004 702.50000000000011 4.0000000000000009 216.19000000000003 1.0000000180025095e-35 37357.000000000007 1.0000000180025095e-35 1.0000000180025095e-35 4.5000000000000009 23.435000000000006
decision_type=2 2 2 2 2 2 2 2 2 2 2 2 2 2 2 2 2 2 2 2 2 2 2 2 2 2 2 2 2 2
left_child=2 3 6 9 10 14 -1 22 21 12 13 20 23 -3 24 17 -14 -9 -15 -10 -7 29 27 -2 -5 -13 -18 -4 -27 -6
right_child=1 4 7 5 8 11 -8 15 19 -11 -12 25 16 18 -16 -17 26 -19 -20 -21 -22 -23 -24 -25 -26 28 -28 -29 -30 -31
leaf_value=-0.043434511731960307 0.0089933567180955198 -0.001475184050504161 -0.0097873177058852671 0.022793779248135113 0.013238559273982651 0.04272018475105116 -0.028026186641309188 -0.020350874196567614 0.040011547309984678 0.00097338215516809979 -0.011686523591757281 0.093857117273998258 0.015154837444325303 0.0075133148962803157 0.05317004744445121 -0.00023224717343478258 0.033755935529215041 -0.009722609884144303 0.021256403761538829 0.0081144078743378197 0.064913923828788453 0.00047119571961168029 0.015316726057562428 0.026599949317040579 0.042271737957237536 0.05615099689524259 0.05554887183020462 0.0041611876456614386 0.078227051452132643 0.035165822882376414
leaf_weight=11943.893905580044 1605.4064606428146 6146.8884464800358 2604.6915197074413 2047.3825242370367 2239.4461000561714 1968.80078586936 15072.273780912161 9215.6853133141994 2871.1183058172464 1388.8837107568979 3189.8221904784441 707.23904007673264 547.7463780939579 5254.21597404778 2330.3990773111582 2431.6914667785168 1022.3389340043068 5988.61678647995 3544.0471389442682 441.44500434398651 1315.1096968948841 1778.5791494399309 1661.9127533882856 4529.2259037643671 1625.7576287984848 944.3421296775341 1707.1397522836924 3643.8061769604683 1529.2950042933226 803.35973206162453
leaf_count=81403 9748 38535 16401 12142 13606 11336 99731 59575 16507 8612 20279 3778 3285 32259 13086 15233 5915 38729 21371 2680 7358 10821 10138 27098 9395 5156 9867 22804 8321 4831
internal_value=-4.92376e-05 0.0235654 -0.022305 0.0396114 0.00935175 0.0519567 -0.0348382 -0.00905068 0.0217847 0.0253601 0.00377528 0.0631906 0.0289588 0.00707537 0.0398596 -0.0139679 0.0419992 -0.0161647 0.0130492 0.0357608 0.0516081 0.0121824 0.001912 0.0219924 0.0314149 0.0751483 0.0473862 -0.00165326 0.0697992 0.0190278
internal_weight=102101 49538 52562.6 23269.1 26268.9 12468.3 27016.2 25546.4 8133.95 10800.7 18135 6464.79 9411.86 14945.2 6003.54 17636 3277.23 15204.3 8798.26 3312.56 3283.91 4821.38 7910.41 6134.63 3673.14 3180.88 2729.48 6248.5 2473.64 3042.81
internal_count=640000 295986 344014 135097 160889 70572 181134 162880 48445 64525 112444 35949 55913 92165 34623 113537 19067 98304 53630 19187 18694 29258 49343 36846 21537 17255 15782 39205 13477 18437
is_linear=0
shrinkage=0.05


Tree=4
num_leaves=31
num_cat=0
split_feature=2 41 41 1 41 41 43 1 40 5 2 5 23 11 1 2 3 11 5 11 3 2 6 5 1 11 6 5 41 5
split_gain=19377.4 3917.72 3293.65 1390.09 652.812 614.155 573.456 536.964 503.819 347.769 332.809 323.327 224.389 205.574 195.872 188.169 173.772 167.648 154.041 152.257 144.284 140.056 138.515 138.116 151.096 136.861 122.073 121.121 113.772 113.265
threshold=13.135000000000002 28533.000000000004 44249.500000000007 4.0000000000000009 45909.500000000007 34486.500000000007 9655.0000000000018 4.0000000000000009 230404.00000000003 1.0000000180025095e-35 21.070000000000004 1.0000000180025095e-35 25.500000000000004 17.685000000000006 4.0000000000000009 26.100000000000005 178.24500000000003 23.785000000000004 1.0000000180025095e-35 20.685000000000006 120.94500000000001 13.600000000000001 72002.500000000015 1.0000000180025095e-35 4.0000000000000009 21.805000000000003 60954.000000000007 1.0000000180025095e-35 5132.5000000000009 1.0000000180025095e-35
decision_type=2 2 2 2 2 2 2 2 2 2 2 2 2 2 2 2 2 2 2 2 2 2 2 2 2 2 2 2 2 2
left_child=2 3 5 10 7 -1 15 13 23 17 12 26 16 -3 18 22 -2 28 -10 -11 -12 -6 -5 -4 -25 -18 -9 -15 -8 -7
right_child=1 4 8 6 21 29 9 11 14 19 20 -13 -14 27 -16 -17 25 -19 -20 -21 -22 -23 -24 24 -26 -27 -28 -29 -30 -31
leaf_value=-0.042473658829541752 0.0062256011077617759 0.00032563752360625735 -0.0053770968145947402 0.038062853554615361 0.0019833117052217271 -0.031229160046195571 0.063394040622164124 0.027960864205886244 -0.021117457453996687 0.055706713036300252 0.0058088550839668343 0.036600557566875795 -0.00086001324142694232 0.005087300769934168 -0.00022066570946069786 0.060730758047665714 0.01916659909169886 0.058082213856522784 -0.01094861765974554 0.074974092462733843 0.044356694030025012 -0.014297193632133913 0.018943443319953152 0.0039430116221289739 0.030227249243570342 0.034398881461204733 0.0092466392107474048 0.017745775899550648 0.03366758867291255 -0.022466959520610306
leaf_weight=11611.888739794493 1355.783534348011 6213.7603748887777 3623.137746527791 2080.9377420991659 2443.121556520462 7853.1001321971416 374.92116270959377 1252.4104164242744 6760.3323608338833 1919.7181218713522 273.42714922130108 2962.7031732052565 1210.6629233062267 3219.4168407618999 2431.3518906533718 546.35441920161247 3258.4046033322811 1674.8416895568371 8292.388677701354 2200.8684913218021 2163.6123858690262 2876.1808134913445 1738.889020755887 3652.9156983494759 643.01225554943085 2693.7677964568138 2864.3087626546621 4575.3491360843182 2275.0977092832327 6954.1055336594582
leaf_count=81403 8228 38487 22706 11916 15021 52893 2090 7511 44631 10173 1624 16786 7530 20123 15233 3000 19200 9094 53673 11444 12178 18278 9977 22804 3833 15765 17215 27468 12878 46838
internal_value=-6.03908e-05 0.022088 -0.0215045 0.036815 0.00883315 -0.033865 0.047997 0.0127815 -0.00864971 0.0556031 0.0237387 0.0240048 0.0190776 0.00710958 -0.0133886 0.0332848 0.0223805 0.0456994 -0.0155155 0.0659977 0.0400318 -0.00681966 0.0293592 0.00181309 0.00787722 0.0260603 0.01494 0.0125175 0.0378732 -0.0271141
internal_weight=101997 50174.5 51822.2 23767.3 26407.3 26419.1 12811.6 21087.9 25403.1 8445.45 10955.7 7079.42 8518.62 14008.5 17484.1 4366.18 7307.96 4324.86 15052.7 4120.59 2437.04 5319.3 3819.83 7919.07 4295.93 5952.17 4116.72 7794.77 2650.02 14807.2
internal_count=640000 295986 344014 135097 160889 181134 70572 127590 162880 45679 64525 41512 50723 86078 113537 24893 43193 24062 98304 21617 13802 33299 21893 49343 26637 34965 24726 47591 14968 99731
is_linear=0
shrinkage=0.05


Tree=5
num_leaves=31
num_cat=0
split_feature=2 41 41 41 1 41 11 40 0 5 6 11 41 2 11 41 1 23 11 23 11 5 5 5 6 18 5 11 1 2
split_gain=17506.1 3432.04 3103.76 1080.76 724.301 595.878 519.933 460.606 402.04 390.668 255.651 249.436 218.214 195.393 192.7 163.773 161.288 153.962 148.552 141.479 137.608 127.391 126.449 119.72 119.666 116.959 107.842 106.956 105.342 98.3806
threshold=13.135000000000002 19488.500000000004 44249.500000000007 44511.500000000007 4.0000000000000009 34486.500000000007 25.365000000000006 230404.00000000003 7812.5000000000009 1.0000000180025095e-35 80000.020000000004 19.205000000000002 48782.500000000007 14.100000000000001 19.595000000000002 8963.0000000000018 4.0000000000000009 25.500000000000004 25.235000000000003 10.500000000000002 18.155000000000005 1.0000000180025095e-35 1.0000000180025095e-35 1.0000000180025095e-35 60954.000000000007 22010.500000000004 1.0000000180025095e-35 21.915000000000003 4.0000000000000009 24.870000000000005
decision_type=2 2 2 2 2 2 2 2 2 2 2 2 2 2 2 2 2 2 2 2 2 2 2 2 2 2 2 2 2 2
left_child=2 6 5 4 11 -1 8 20 -2 18 15 23 13 21 -9 -10 29 27 24 -12 -4 -5 -13 -3 -6 -18 -7 -11 -22 -8
right_child=1 3 7 12 9 26 16 14 10 17 19 22 -14 -15 -16 -17 25 -19 -20 -21 28 -23 -24 -25 -26 -27 -28 -29 -30 -31
leaf_value=-0.04152968294654874 0.010969602371909656 -0.0023333908693195437 -0.0048569557435590004 -0.00046483727050393989 0.029408769926004327 -0.030284224291539825 0.037711995667047186 -0.017069189821383276 0.057889695232868091 0.037350084697734612 0.033093892933608336 0.010491855379904493 -0.015901325915315571 -0.0096582742006911179 -0.0062756652210045564 0.039374783568938816 0.069783025912320801 0.012499024953423504 0.034786581516558127 0.0062337531747081324 0.0042358849157637839 0.013176755905345373 0.023158005976965934 0.010364645526304391 0.0097992438041140939 0.048936569576035885 -0.021661159345675876 0.054883230261025068 0.024621729268094732 0.072301365781422364
leaf_weight=11290.274125367403 1489.6453211307526 3006.9467578828335 3970.4441282302141 3130.5691284835339 1086.6301595121622 7697.2495424151421 1404.9120454490185 10528.280932858586 1851.7743533700705 2131.8547174930573 2523.9179022461176 3329.5372242182493 1888.8351772278547 2365.3489795178175 6809.9138439595699 3364.2810726761818 1883.0198324620724 419.55348166823387 1326.4867753535509 608.42992171645164 3164.3032887279987 3775.1496953815222 4827.2816897779703 4850.5634346753359 2739.1496634483337 1046.9180928021669 6854.7376383244991 1469.2902826219797 792.38662585616112 240.80808275938034
leaf_count=81403 8598 18586 24695 19441 6346 52893 7964 69074 9823 11623 13673 20300 12158 14878 44463 18463 9720 2455 7563 3480 19878 22491 28313 29332 16150 5456 46838 7869 4770 1304
internal_value=-6.95994e-05 0.0207285 -0.0207266 0.0125413 0.0182803 -0.03291 0.0413741 -0.00826495 0.0348978 0.0294834 0.0391674 0.0118632 -0.000411397 0.00274443 -0.0128298 0.0459478 0.0552988 0.0411641 0.0203681 0.0278766 0.00171932 0.00699261 0.0179878 0.0055053 0.0153689 0.0623342 -0.0262223 0.0445037 0.00831846 0.0427732
internal_weight=101868 50760.9 51107.6 36347.2 25187.3 25842.3 14413.7 25265.3 9838.05 9172.97 8348.4 16014.3 11159.9 9271.07 17338.2 5216.06 4575.66 4020.7 5152.27 3132.35 7927.13 6905.72 8156.82 7857.51 3825.78 2929.94 14552 3601.15 3956.69 1645.72
internal_count=640000 295986 344014 217505 148537 181134 78481 162880 54037 52006 45439 96531 68968 56810 113537 28286 24444 21947 30059 17153 49343 41932 48613 47918 22496 15176 99731 19492 24648 9268
is_linear=0
shrinkage=0.05


Tree=6
num_leaves=31
num_cat=0
split_feature=2 40 40 1 41 23 43 1 23 2 6 5 5 5 43 1 2 41 27 5 27 23 3 0 27 13 43 5 43 5
split_gain=15870.2 3891.23 2133.52 1306.02 636.944 538.272 521.145 427.862 325.432 291.078 285.605 278.129 273.157 214.729 190.094 186.582 183.925 159.6 156.968 149.837 149.323 149.294 146.647 126.281 122.875 120.702 118.998 110.264 106.577 105.678
threshold=12.510000000000002 183389.50000000003 183389.50000000003 4.0000000000000009 48782.500000000007 25.500000000000004 11403.500000000002 4.0000000000000009 25.500000000000004 18.930000000000003 67610.000000000015 1.0000000180025095e-35 1.0000000180025095e-35 1.0000000180025095e-35 3891.0000000000005 4.0000000000000009 6.9000000000000012 10099.000000000002 5.5000000000000009 1.0000000180025095e-35 7.5000000000000009 11.500000000000002 167.98000000000005 4812.5000000000009 8.5000000000000018 692.50000000000011 2203.5000000000005 1.0000000180025095e-35 2662.0000000000005 1.0000000180025095e-35
decision_type=2 2 2 2 2 2 2 2 2 2 2 2 2 2 2 2 2 2 2 2 2 2 2 2 2 2 2 2 2 2
left_child=2 3 16 8 20 7 13 12 9 23 25 24 -3 28 -11 19 -1 -12 -14 -6 -4 26 -16 -2 -9 -8 -15 -24 -5 -25
right_child=1 5 4 6 15 -7 10 11 -10 14 17 -13 18 21 22 -17 -18 -19 -20 -21 -22 -23 27 29 -26 -27 -28 -29 -30 -31
leaf_value=-0.045039813296429032 0.0013339196394563505 -0.0044914705354274559 -0.023707725858683876 -0.002647053481803763 -0.015729232422023766 -0.010902609727961277 0.06413485682249595 0.0053343107790345965 -0.00058235805116812968 -0.015794393317502389 0.054688609646089105 0.029528973017737204 0.0030880697793027444 -0.027137566508563127 0.013605301049559586 0.0077565446280742677 -0.033649161746589433 0.032349865940553717 0.015776284968151314 -0.0037945665617446461 -0.01140501367787948 0.022814697259084745 0.026763922116424144 0.010721981143857079 0.028005458746889474 0.044861139901974892 0.04841880971097634 0.043951046051594708 0.025420415295985058 0.024268257480117884
leaf_weight=5559.5394381582737 1252.5919479578733 7080.1083822995424 12820.525817811489 375.308204382658 4615.1518038809299 4887.2167948484421 2898.4856248050928 3393.2627843022346 1806.5311688929796 203.56602284312248 1173.4588087052107 2905.8851495087147 5900.734274238348 53.311946287751198 771.45178864896297 1985.6741606891155 9774.8788873851299 2509.4655863195658 4153.1411190778017 6113.7391642034054 3053.9297564029694 902.01646357774734 1503.4076246917248 2416.2235130369663 725.43560306727886 1128.6088333874941 2315.0589311122894 2460.3833256214857 3422.49844224751 3562.4936825484037
leaf_count=41220 7554 44677 87609 2130 30769 31169 14743 20278 11116 1155 6000 16044 35840 286 4528 12355 70545 13313 25108 39707 20876 4999 8369 14415 4310 5790 12137 13476 18978 20504
internal_value=-7.71705e-05 0.0171388 -0.0227323 0.0301774 -0.0146618 0.00423071 0.0405403 0.00729214 0.0192203 0.0221598 0.0495304 0.0176843 0.00303157 0.0307338 0.0315165 -0.00632266 -0.0377789 0.0394675 0.00832943 -0.0089284 -0.0213409 0.0401252 0.0335504 0.0157694 0.00932743 0.0587333 0.046718 0.0374322 0.0226467 0.0187937
internal_weight=101724 57800.6 43923.4 28754.9 28589 29045.8 14778.2 24158.6 13976.6 12170.1 7710.02 7024.58 17134 7068.19 4938.81 12714.6 15334.4 3682.92 10053.9 10728.9 15874.5 3270.39 4735.24 7231.31 4118.7 4027.09 2368.37 3963.79 3797.81 5978.72
internal_count=640000 336919 303081 159493 191316 177426 78376 146257 81117 70001 39846 40632 105625 38530 27528 82831 111765 19313 60948 70476 108485 17422 26373 42473 24588 20533 12423 21845 21108 34919
is_linear=0
shrinkage=0.05


Tree=7
num_leaves=31
num_cat=0
split_feature=2 40 40 1 41 41 5 1 11 23 2 11 5 11 41 13 1 2 5 23 13 1 5 3 5 34 41 2 34 5
split_gain=14397.5 3420.48 2030.63 1130.92 591.301 488.238 462.235 382.817 297.441 269.642 240.828 230.276 228.507 203.313 181.505 181.24 169.215 154.318 150.284 148.971 145.957 142.432 137.784 129.85 121.919 121.66 116.27 108.058 104.992 104.25
threshold=12.510000000000002 183389.50000000003 183389.50000000003 4.0000000000000009 48782.500000000007 48782.500000000007 1.0000000180025095e-35 4.0000000000000009 21.705000000000002 25.500000000000004 12.795000000000002 18.255000000000006 1.0000000180025095e-35 17.025000000000002 26218.500000000004 687.50000000000011 4.0000000000000009 24.870000000000005 1.5000000000000002 25.500000000000004 682.50000000000011 4.0000000000000009 1.0000000180025095e-35 254.70500000000001 1.0000000180025095e-35 7.5000000000000009 8963.0000000000018 19.98 5.5000000000000009 1.0000000180025095e-35
decision_type=2 2 2 2 2 2 2 2 2 2 2 2 2 2 2 2 2 2 2 2 2 2 2 2 2 2 2 2 2 2
left_child=2 3 14 8 21 7 11 13 19 18 -7 -5 -9 -3 -1 -13 22 24 25 23 -15 29 -6 -2 -10 26 -8 -25 -24 -4
right_child=1 5 4 6 16 10 9 12 17 -11 -12 15 -14 20 -16 -17 -18 -19 -20 -21 -22 -23 28 27 -26 -27 -28 -29 -30 -31
leaf_value=-0.042394487915985879 0.0050523004661748409 -0.0036709707474057544 -0.026709840270232689 0.019130394719546133 -0.015096579368774397 0.0051100261052493164 0.06462747108248354 0.0092372141803799771 0.015419272678258622 0.021451775523223058 -0.016516612835493199 0.044838361580019311 0.027095549991482039 0.013272183222906768 -0.031374619062696667 0.024663598265071727 0.0073338495657930452 0.059094167226352905 0.035968186654881398 -0.0037409099749152394 0.00056457812604616346 -0.0073749617999485711 -0.0087792018885822082 0.014931949050152542 0.030305324905748589 0.068193250303511324 0.04468091751965856 0.032443313988270682 0.0047172387776604052 -0.018031289742890991
leaf_weight=7419.8000492155552 2284.3114765435457 6827.2746641933918 6791.1023254394531 3236.7876333296299 4569.3257327079773 1959.4330038279295 1002.0093135386705 4330.1011976450682 2267.5168309360743 911.28098903596401 3752.5097222924232 2706.2678882032633 3055.0561257153749 5173.0400986671448 7527.33331592381 1891.1049405783415 1994.8713094592094 340.40430627763271 1381.5486358702183 1302.6900180280209 4012.1883324533701 1810.5021054148674 3764.8886937052011 3216.0283755660057 3496.3932704925537 1237.7706988751888 2697.1145396530628 1213.3197863847017 2334.4843458086252 7055.3638997375965
leaf_count=56613 13381 42415 47626 17675 30769 12203 4861 25732 13141 4991 24410 14204 16719 31464 55152 10080 12355 1760 6879 8047 24483 12277 24536 18678 19634 6117 13569 6476 15171 48582
internal_value=-8.36105e-05 0.0161351 -0.021935 0.0282312 -0.0140658 0.00400797 0.0377606 0.00720741 0.0180652 0.046878 -0.00909778 0.0293467 0.0166248 0.00286401 -0.0368449 0.0365396 -0.00603238 0.0263811 0.0505451 0.0117327 0.00772139 -0.0205633 -0.00853165 0.0147351 0.0244492 0.0546243 0.050084 0.0197288 -0.00361355 -0.0222877
internal_weight=101562 58294.2 43267.7 29184.5 28320.5 29109.6 15063.9 23397.7 14120.7 7229.72 5711.94 7834.16 7385.16 16012.5 14947.1 4597.37 12663.6 6104.31 6318.44 8016.35 9185.23 15657 10668.7 6713.66 5763.91 4936.89 3699.12 4429.35 6099.37 13846.5
internal_count=640000 336919 303081 159493 191316 177426 78376 140813 81117 36417 36613 41959 42451 98362 111765 24284 82831 34535 31426 46582 55947 108485 70476 38535 32775 24547 18430 25154 39707 96208
is_linear=0
shrinkage=0.05


Tree=8
num_leaves=31
num_cat=0
split_feature=2 41 40 1 41 41 43 40 1 23 11 5 6 2 6 43 2 1 2 27 11 3 5 23 13 5 3 6 5 5
split_gain=13065.6 3014.49 1931.08 779.034 592.73 548.507 376.049 281.022 264.573 225.27 216.194 193.654 193.06 179.745 172.416 170.993 160.932 153.45 149.119 142.558 138.161 128.645 126.602 114.693 112.964 111.518 106.745 106.496 103.907 102.488
threshold=12.510000000000002 28533.000000000004 183389.50000000003 4.0000000000000009 44511.500000000007 48782.500000000007 11403.500000000002 230404.00000000003 4.0000000000000009 25.500000000000004 18.155000000000005 1.0000000180025095e-35 75006.000000000015 6.6950000000000012 65883.000000000015 3964.0000000000005 26.100000000000005 4.0000000000000009 17.98 7.5000000000000009 22.985000000000003 166.06500000000003 1.0000000180025095e-35 25.500000000000004 682.50000000000011 1.0000000180025095e-35 271.46500000000009 60954.000000000007 1.0000000180025095e-35 1.0000000180025095e-35
decision_type=2 2 2 2 2 2 2 2 2 2 2 2 2 2 2 2 2 2 2 2 2 2 2 2 2 2 2 2 2 2
left_child=2 3 13 9 8 19 15 10 21 11 -6 26 24 -1 -10 -5 27 22 -13 -4 -20 -3 -7 28 -8 -12 -2 -17 -23 -19
right_child=1 4 5 6 7 17 12 -9 14 -11 25 18 -14 -15 -16 16 -18 29 20 -21 -22 23 -24 -25 -26 -27 -28 -29 -30 -31
leaf_value=-0.044062840774209501 -0.00070847821578353168 -0.0055897330142921451 -0.022160416468579785 0.010411856403126078 -0.0044900132592364745 -0.014484431482359568 0.056854213029616608 -0.018567605319175461 0.03087727769688739 -0.00015492813517328259 0.00086573985199279004 0.014886562770682338 0.033269657891667553 -0.032135848541494177 0.01319949465470203 0.037252446735746063 0.052598299522273441 -0.0014832544213835811 0.024395628477615144 -0.010002989102304106 0.042568668296438357 0.0051003078131678335 -0.0034414683252135419 -0.0057152113967793997 0.041042434048402285 0.01289032306197121 0.017683053012736979 0.021723836086404168 0.017020153450146954 0.022125159512789882
leaf_weight=4629.6332406848669 1115.5992759019136 1565.4164874851704 12457.789522722363 1196.4862322360277 7935.2622023075819 4525.4580433964729 2669.5944378823042 2005.572615981102 2507.1855635941029 1410.6931748241186 3629.5271333754063 1892.7860795706511 2664.8651625812054 9943.6629400402308 3066.0913613289595 1814.4611864984035 762.0094121992588 1289.0460580587387 2602.6204014867544 2990.0090858340263 1748.4621537923813 3102.4841828644276 6085.6815084218979 1022.9382187128067 1958.1301163733006 4113.3731539994478 2694.5038273781538 2820.201415553689 4451.5878573209047 714.52464273571968
leaf_count=36459 6465 9485 87609 6534 49144 30769 12923 13374 13716 8628 22697 10686 13422 75306 17272 9378 3777 7988 14316 20876 9363 19172 39707 6394 9604 24643 15083 14934 25909 4367
internal_value=-8.88001e-05 0.015202 -0.0211587 0.0282022 0.00533472 -0.0134904 0.0361666 -0.00094455 0.0124003 0.0185559 0.00130982 0.0211813 0.0439903 -0.0359248 0.021152 0.0275129 0.0313043 -0.00575482 0.026602 -0.0198073 0.0316984 0.00759126 -0.00815109 0.00999696 0.0501638 0.00725373 0.012298 0.0278033 0.0121246 0.00693611
internal_weight=101386 58749.9 42635.8 25350.4 33399.4 28062.5 13885.7 17683.7 15715.7 11464.7 15678.2 10054 7292.59 14573.3 5573.28 6593.16 5396.67 12614.7 6243.87 15447.8 4351.08 10142.4 10611.1 8577.01 4627.72 7742.9 3810.1 4634.66 7554.07 2003.57
internal_count=640000 336919 303081 135113 201806 191316 70572 109858 91948 64541 96484 55913 35949 111765 30988 34623 28089 82831 34365 108485 23679 60960 70476 51475 22527 47340 21548 24312 45081 12355
is_linear=0
shrinkage=0.05


Tree=9
num_leaves=31
num_cat=0
split_feature=2 40 40 1 41 23 5 1 11 5 23 5 43 41 26 1 27 2 3 13 5 2 27 11 11 11 6 4 11 5
split_gain=11859.3 2677.37 1834.83 858.363 508.326 439.162 386.25 320.371 244.026 229.225 210.175 209.396 198.009 176.997 154.136 134.982 133.224 127.526 127.498 125.704 124.756 121.514 107.264 106.579 102.753 98.9936 98.5494 93.9836 92.8919 90.3183
threshold=12.510000000000002 183389.50000000003 183389.50000000003 4.0000000000000009 48782.500000000007 25.500000000000004 1.0000000180025095e-35 4.0000000000000009 21.705000000000002 1.0000000180025095e-35 25.500000000000004 1.0000000180025095e-35 9655.0000000000018 26218.500000000004 4.5000000000000009 4.0000000000000009 5.5000000000000009 18.930000000000003 162.86000000000004 687.50000000000011 1.5000000000000002 19.98 9.5000000000000018 20.685000000000006 18.535000000000004 23.675000000000004 52997.000000000007 54.500000000000007 19.305000000000003 1.0000000180025095e-35
decision_type=2 2 2 2 2 2 2 2 2 2 2 2 2 2 2 2 2 2 2 2 2 2 2 2 2 2 2 2 2 2
left_child=2 3 13 8 15 7 12 9 18 28 20 22 -5 -1 29 24 27 -10 -2 25 23 -20 -9 -8 -4 -14 -7 -11 -3 -6
right_child=1 5 4 6 14 26 10 11 17 16 -12 -13 19 -15 -16 -17 -18 -19 21 -21 -22 -23 -24 -25 -26 -27 -28 -29 -30 -31
leaf_value=-0.040676974718274798 -0.0036801723709553856 -0.009959054173560928 -0.024427277132627153 0.014662371982793507 -0.014290182927468066 -0.0016532998247036159 0.040520775443420205 0.0049034060529121147 0.017370357392620245 0.018695510414727189 0.018926984395198687 0.025228805001814042 0.030471070940423475 -0.029516475004012766 0.0037753902085593976 -0.0061262133358731454 0.014204642550485589 0.031833219438299115 0.0091829961295121759 0.021354190322897607 0.031228149427154458 0.024515004157905539 0.029163922944584138 0.054938267374547489 -0.015550524247928063 0.04854444866047649 -0.016159151470616067 0.00012327539903024605 0.0015100669654922972 -0.0043583671555673447
leaf_weight=7004.9490554407239 1355.0327337533236 3590.6433796882629 7935.4994717240334 2805.0243843495846 4139.9196977168322 1988.4141028225422 2487.5937594920397 3657.6234523802996 3619.9846927374601 785.0566071420908 930.87138693034649 3006.6274853646755 2027.5284331589937 7208.1103418171406 3307.8354988694191 1778.9329100251198 4216.8336552679539 2632.5765220969915 5029.9656766206026 2030.1345900148153 1425.1357620358467 1739.1394117474556 520.44089789688587 2644.5650176405907 5533.2016639709473 1209.6867786496878 2847.7501275241375 5148.2311235368252 3473.145653963089 5120.1014859676361
leaf_count=56613 8101 22913 56852 15099 27837 12833 12086 21574 20490 4735 4991 16044 10513 55152 21723 12277 25108 14045 29261 10461 6879 9220 3014 12461 39356 5886 18336 31105 21764 33271
internal_value=-9.28438e-05 0.0143324 -0.0204021 0.0248425 -0.0129342 0.00356963 0.0329805 0.00629799 0.0160344 0.00259648 0.0411596 0.0151665 0.0253934 -0.035017 -0.00548917 -0.0190708 0.00740979 0.0234598 0.0103197 0.0311079 0.0443157 0.0131221 0.00792542 0.04795 -0.0207805 0.0372248 -0.010195 0.00258064 -0.00431988 -0.00879863
internal_weight=101201 59172 42028.6 29937.2 27815.5 29234.8 15560.5 24398.6 14376.7 17213.9 7488.17 7184.69 8072.37 14213.1 12567.9 15247.6 10150.1 6252.56 8124.14 5267.35 6557.29 6769.11 4178.06 5132.16 13468.7 3237.22 4836.16 5933.29 7063.79 9260.02
internal_count=640000 336919 303081 159493 191316 177426 78376 146257 81117 105625 36417 40632 41959 111765 82831 108485 60948 34535 46582 26860 31426 38481 24588 24547 96208 16399 31169 35840 44677 61108
is_linear=0
shrinkage=0.05


Tree=10
num_leaves=31
num_cat=0
split_feature=2 40 40 41 41 23 3 11 43 11 5 1 2 3 0 27 6 27 5 1 13 13 11 5 6 1 6 41 5 6
split_gain=10766.4 2368.85 1741.93 795.776 470.831 396.576 325.935 297.856 268.057 247.511 243.954 188.555 175.802 154.224 148.923 144.436 142.661 133.903 133.18 130.533 130.47 121.696 119.959 114.814 110.989 110.847 90.6279 83.8545 82.8798 78.8432
threshold=12.510000000000002 183389.50000000003 183389.50000000003 13405.000000000002 48782.500000000007 25.500000000000004 210.23500000000004 18.915000000000003 3891.0000000000005 24.365000000000006 1.0000000180025095e-35 4.0000000000000009 6.6950000000000012 263.94500000000005 9012.5000000000018 8.5000000000000018 101002.00000000001 7.5000000000000009 1.0000000180025095e-35 4.0000000000000009 682.50000000000011 692.50000000000011 13.585000000000003 1.0000000180025095e-35 61843.000000000007 4.0000000000000009 51006.000000000007 5132.5000000000009 1.0000000180025095e-35 52003.000000000007
decision_type=2 2 2 2 2 2 2 2 2 2 2 2 2 2 2 2 2 2 2 2 2 2 2 2 2 2 2 2 2 2
left_child=2 3 12 9 17 7 -5 14 -8 13 22 20 -1 -2 24 23 27 28 -16 -12 -9 -13 -10 -6 -3 -25 -7 -15 -4 -21
right_child=1 5 4 6 15 26 8 11 10 -11 19 21 -14 16 18 -17 -18 -19 -20 29 -22 -23 -24 25 -26 -27 -28 -29 -30 -31
leaf_value=-0.042436386360726941 0.0086760022244899999 -0.0012314347798952194 -0.02483228478828664 0.0017693376570472219 -0.013297954113110026 -0.0011898310247748316 -0.0027620614853753845 0.013343378412259464 0.0032991655282198842 0.044459182583325506 0.022246791751447382 0.031600028612301517 -0.030309469409913053 0.0457695734029245 -0.0018351596128274262 0.0075057171458294963 0.016801366757650871 -0.008773560330491691 0.010711504845057521 0.044856264602884534 0.00095266463503704344 0.012682024680708863 0.018593886677698335 -0.0052161460139794075 -0.018572243870146738 0.01695415871306102 -0.015256802546015375 0.031135443354886879 -0.016562833296522552 0.029295637918868352
leaf_weight=4358.7383516058326 850.26870243251324 2630.4282460659742 6028.2579020261765 2865.5864621698856 4733.5469096750021 1881.8865315169096 1198.9287245124578 4611.7856552451849 1659.021850451827 3848.5800479203463 4731.7137691676617 1597.7284552454948 9507.1629272997379 1398.1041016429663 4295.6925771534443 1889.1968550235033 1301.5326636731625 2935.3176621943712 4166.5011738091707 1281.028584420681 3939.135411426425 1816.6683767735958 5641.2497419863939 5270.2418520897627 1421.350452080369 631.32920178771019 2924.058747947216 3264.6202919334173 6091.8773518502712 2233.1079165041447
leaf_count=36459 4665 16288 44003 16755 32037 12161 6930 27608 9255 18551 26031 8751 75306 6782 26472 12408 6618 20876 24120 6094 23924 10209 30645 34568 8885 3818 19008 16332 43606 10835
internal_value=-9.59734e-05 0.0135216 -0.0196649 0.0233291 -0.0123968 0.00338311 0.0173514 0.00596121 0.020018 0.0343226 0.0217748 0.0116016 -0.0341216 0.0285978 0.000568113 -0.00523409 0.0314379 -0.0183553 0.0043424 0.0276682 0.00763537 0.0215345 0.0151181 -0.00749716 -0.00731453 -0.00284445 -0.00974853 0.0355234 -0.0206759 0.034968
internal_weight=101005 59559 41445.7 30273.7 27579.8 29285.2 19610.6 24479.3 16745.1 10663.1 15546.1 11965.3 13865.9 6814.53 12514 12524.3 5964.26 15055.5 8462.19 8245.85 8550.92 3414.4 7300.27 10635.1 4051.78 5901.57 4805.95 4662.72 12120.1 3514.14
internal_count=640000 336919 303081 159493 191316 177426 106545 146257 89790 52948 82860 70492 111765 34397 75765 82831 29732 108485 50592 42960 51532 18960 39900 70423 25173 38386 31169 23114 87609 16929
is_linear=0
shrinkage=0.05


Tree=11
num_leaves=31
num_cat=0
split_feature=2 41 40 41 41 41 40 23 43 11 11 2 11 1 41 1 3 1 13 5 5 5 6 5 5 13 34 2 0 3
split_gain=9775.17 2101.34 1652.02 565.518 472.78 435.673 236.45 231.203 229.129 196.734 178.507 172.721 171.184 161.855 152.432 135.765 133.495 128.535 109.852 104.807 99.4365 98.3286 94.3012 91.0159 89.9057 89.8839 89.6861 88.3532 81.1708 77.4438
threshold=12.510000000000002 28533.000000000004 183389.50000000003 13405.000000000002 44511.500000000007 48782.500000000007 230404.00000000003 6.5000000000000009 7739.5000000000009 13.965000000000002 15.825000000000001 6.9000000000000012 18.155000000000005 4.0000000000000009 5132.5000000000009 4.0000000000000009 178.24500000000003 4.0000000000000009 707.50000000000011 1.0000000180025095e-35 1.0000000180025095e-35 1.0000000180025095e-35 60954.000000000007 1.0000000180025095e-35 1.0000000180025095e-35 697.50000000000011 5.5000000000000009 14.100000000000001 9762.5000000000018 136.68500000000003
decision_type=2 2 2 2 2 2 2 2 2 2 2 2 2 2 2 2 2 2 2 2 2 2 2 2 2 2 2 2 2 2
left_child=2 3 11 7 9 17 12 14 22 -3 -10 -1 27 -11 -2 19 -12 21 -15 -7 -16 -4 -5 -14 -18 -17 -21 29 -22 -6
right_child=1 4 5 8 6 15 -8 -9 10 13 16 -13 23 18 20 25 24 -19 -20 26 28 -23 -24 -25 -26 -27 -28 -29 -30 -31
leaf_value=-0.040871182588239956 0.046081339493976588 0.0019528219027111729 -0.023790676579889498 0.013638169999034748 -0.018122710196022459 -0.013115140569866623 -0.01746482241084522 0.016725509765483173 0.011423117394175562 0.0097725271910745135 0.0042824758780288892 -0.029057242192168938 0.00038366657628434876 0.026821294043653261 0.024722377729962008 0.020161285031717824 0.020649743827270979 -0.0049280825672073734 0.0077885769934067017 -0.0078191136745044548 0.022398047808991354 -0.015131758334558341 -0.0035351251301161783 0.011189227797919676 0.031516700988675171 -0.0015462653604335951 0.0046855544669732489 -0.014984507820163929 0.041282434784110422 0.00018241025709493956
leaf_weight=4787.8537123128772 2491.0355350375175 4555.0318557173014 6402.8556384295225 1648.9024093002081 642.7480997890234 4428.8308011740446 1968.9895536750555 1987.2851686775684 3848.3674141615629 7291.5448778867722 748.83088010549545 8744.0686844140291 3649.3292737603188 3108.2908702939749 2926.9389733076096 782.72849397361279 3594.4265180528164 1749.2561121433973 1002.6968420594931 3714.8637892454863 721.80628789961338 6719.3063685446978 1551.5529714524746 4182.0214266777039 4045.477639451623 1220.3699669986963 2335.3214469999075 1548.6384726911783 2688.3999648988247 5718.648030474782
leaf_count=41220 11705 26852 47626 9262 4031 30769 13374 10378 20682 42947 4341 70545 22697 16642 14534 4791 18903 12277 5507 24536 3757 48582 8725 24643 20252 7564 15171 10010 12574 35103
internal_value=-9.8442e-05 0.0127628 -0.0189476 0.0233662 0.00449463 -0.0118785 -0.00112957 0.0321336 0.0172239 0.0107366 0.0203391 -0.0332372 0.000913702 0.0142455 0.0356021 -0.00499079 0.0244293 -0.0176596 0.0221791 -0.00727066 0.0314829 -0.0193568 0.00531271 0.00615395 0.026404 0.00693615 -0.00299242 -0.00427442 0.0372854 -0.00166712
internal_weight=100806 59921 40885.5 26253 33667.9 27353.5 17710.4 10815.5 15437.6 15957.6 12237.1 13531.9 15741.4 11402.5 8828.18 12482.1 8388.74 14871.4 4110.99 10479 6337.15 13122.2 3200.46 7831.35 7639.9 2003.1 6050.19 7910.03 3410.21 6361.4
internal_count=640000 336919 303081 135113 201806 191316 109858 52948 82165 91948 64178 111765 96484 65096 42570 82831 43496 108485 22149 70476 30865 96208 17987 47340 39155 12355 39707 49144 16331 39134
is_linear=0
shrinkage=0.05


Tree=12
num_leaves=31
num_cat=0
split_feature=2 40 40 1 41 41 6 1 23 2 3 41 13 2 6 5 27 27 27 27 13 11 41 43 41 5 5 1 4 11
split_gain=8876.23 1870.61 1565.1 640.818 402.79 344.008 322.445 257.78 200.977 192.049 176.309 170.383 167.703 161.972 156.733 147.567 138.296 130.576 127.172 112.315 104.274 102.703 98.4573 91.9286 91.6545 89.0802 82.4421 83.9047 79.0557 76.2238
threshold=12.510000000000002 183389.50000000003 183389.50000000003 4.0000000000000009 48782.500000000007 48782.500000000007 60954.000000000007 4.0000000000000009 25.500000000000004 12.795000000000002 162.86000000000004 26218.500000000004 677.50000000000011 19.525000000000002 60954.000000000007 1.0000000180025095e-35 6.5000000000000009 6.5000000000000009 7.5000000000000009 5.5000000000000009 692.50000000000011 14.615 8963.0000000000018 2203.5000000000005 5132.5000000000009 1.0000000180025095e-35 1.0000000180025095e-35 4.0000000000000009 54.500000000000007 26.765000000000004
decision_type=2 2 2 2 2 2 2 2 2 2 2 2 2 2 2 2 2 2 2 2 2 2 2 2 2 2 2 2 2 2
left_child=2 3 11 8 18 7 16 15 10 -7 -2 -1 21 25 -9 -3 22 26 -4 28 29 -8 -5 -15 -14 -12 -6 -28 -17 -16
right_child=1 5 4 6 17 9 12 14 -10 -11 13 -13 24 23 20 19 -18 -19 -20 -21 -22 -23 -24 -25 -26 -27 27 -29 -30 -31
leaf_value=-0.038187515836733771 0.0016324549117585439 -0.0037639423129503117 -0.019282142113251466 0.042976628711015923 -0.013723788648439129 0.0044812771517501 0.017625253498119536 0.022742001425059527 -0.0023265056758319156 -0.014877423524984591 0.0071481970393661581 -0.026827235155922308 0.03297988537781521 -0.033121917567639596 0.011933049690339616 0.016971801915568168 0.046166703943599528 0.0029864682815505363 -0.0075689997828972833 0.012442600899381109 0.00043540573666459514 0.034495318525364242 0.026495385940431961 0.028208336709612342 0.012991251551249665 0.018200414488142847 -0.0061830621133065911 0.014676580175229943 -0.00074714917843663408 0.039724818128945141
leaf_weight=6438.762139543891 1989.5262479931116 6472.0196366757154 11811.949134707451 1237.2643398493528 3752.8291961252689 1972.4668729007244 1334.8947179317474 2764.6447646170855 1843.6471551209688 3655.3639846891165 3028.8454437255859 6771.8939323499799 656.43872638046741 62.272382467985153 2161.3424649685621 720.57032757997513 2186.6481091529131 3785.8929870426655 2882.8878657072783 3973.657534211874 2405.5728725641966 2783.1179782301188 3386.2126233577728 3245.4424476623535 4538.6300618350506 4579.9556256979704 4360.3528703898191 541.99487414956093 4980.9015832692385 278.50797586143017
leaf_count=56613 11508 40840 87609 5682 25804 12203 6692 15110 11116 24410 17206 55152 3086 333 12099 4265 10248 24933 20876 23276 13748 13439 16422 16256 22807 24698 28855 3239 29981 1494
internal_value=-0.000100112 0.0120526 -0.0182502 0.0206472 -0.0113791 0.00302273 0.0275371 0.00565581 0.0131157 -0.0080925 0.0153216 -0.0323641 0.0214906 0.0178165 0.0132425 0.00208026 0.0358059 -0.00475862 -0.0169842 0.00598964 0.00782233 0.0290267 0.0309058 0.0270537 0.015517 0.0138008 -0.00814642 -0.00387686 0.00149223 0.0151055
internal_weight=100605 60257.9 40346.6 30872.9 27135.9 29385 16123.2 23757.2 14749.7 5627.83 12906 13210.7 9313.08 10916.5 7610.07 16147.1 6810.13 12441.1 14694.8 9675.13 4845.42 4118.01 4623.48 3307.71 5195.07 7608.8 8655.18 4902.35 5701.47 2439.85
internal_count=640000 336919 303081 159493 191316 177426 78376 140813 81117 36613 70001 111765 46024 58493 42451 98362 32352 82831 108485 57522 27341 20131 22104 16589 25893 41904 57898 32094 34246 13593
is_linear=0
shrinkage=0.05


Tree=13
num_leaves=31
num_cat=0
split_feature=2 40 40 1 41 23 43 11 11 2 13 3 5 2 26 1 13 11 4 4 5 2 23 1 43 1 11 6 18 41
split_gain=8060.26 1662.54 1481.39 565.721 372.09 323.155 303.28 248.585 182.694 168.695 156.699 150.756 162.582 129.69 121.732 121.074 117.36 105.822 99.671 99.8933 98.7265 93.0614 92.1422 91.1112 83.776 83.6308 82.7375 82.0219 80.0155 77.8843
threshold=12.510000000000002 183389.50000000003 183389.50000000003 4.0000000000000009 48782.500000000007 25.500000000000004 11403.500000000002 22.125000000000004 21.705000000000002 6.6950000000000012 682.50000000000011 162.86000000000004 1.0000000180025095e-35 21.200000000000003 4.5000000000000009 4.0000000000000009 682.50000000000011 12.715000000000002 54.500000000000007 49.500000000000007 1.0000000180025095e-35 21.200000000000003 25.500000000000004 4.0000000000000009 2424.5000000000005 4.0000000000000009 18.535000000000004 52997.000000000007 25411.500000000004 48782.500000000007
decision_type=2 2 2 2 2 2 2 2 2 2 2 2 2 2 2 2 2 2 2 2 2 2 2 2 2 2 2 2 2 2
left_child=2 3 9 8 15 7 13 11 22 -1 17 -3 29 28 -6 18 23 -8 19 -4 -10 -22 24 -9 -2 -18 -20 -7 -5 -13
right_child=1 5 4 6 14 27 10 16 20 -11 -12 12 -14 -15 -16 -17 25 -19 26 -21 21 -23 -24 -25 -26 -27 -28 -29 -30 -31
leaf_value=-0.040053081638845509 -0.038709984790469054 -0.013056578153004469 -0.019858942732136439 0.016454926333005267 -0.0075253260976233987 -0.0012841901750220127 0.022094755345819832 0.014415645280083714 0.010910971766581094 -0.027679319200290004 0.024670098283590715 -0.00022974125274353887 0.0080838078102161998 0.025915561268893883 0.0036724334334346355 -0.0038883674828249035 0.0014695238289745092 0.04168995903151735 -0.02322733643354525 0.0053240459670588804 0.019804085718393288 0.039107048204570699 -0.0046534177964234575 0.033355526280791213 0.010372525633457814 0.0152973049583831 -0.01449036149140007 -0.014605581759299586 -0.0001970958748179235 -0.014754320490962492
leaf_weight=3985.8541763797402 88.040666148066521 1619.1252972334623 729.59430535137653 3369.3414345979691 9091.6460040509701 1977.9325370043516 832.71242994070053 3380.3376431018114 2516.8536097109318 8915.9388204663992 3738.1529225856066 5523.8319488316774 7517.3137649446726 3447.2939586937428 3310.9437785148621 1724.0192926973104 3026.0180413722992 3992.0609760582447 6638.5662215948105 855.56665414571762 3207.9598218947649 775.30365978181362 1317.2095217108727 781.83945187926292 6937.024532020092 1712.1399478912354 4578.5319650620222 2778.9642752707005 917.94821326434612 1108.1110661178827
leaf_count=36459 502 10079 5486 17265 61108 12833 3984 19913 13789 75306 17608 33765 43598 16494 21723 12277 18249 18254 50201 6421 16992 3754 8047 4089 38033 9364 34100 18336 4771 7200
internal_value=-0.00010125 0.0113877 -0.0175711 0.0194405 -0.0108967 0.00286579 0.0258719 0.00516671 0.0123786 -0.031502 0.0323544 0.00139582 0.00304963 0.0186952 -0.00453602 -0.0163275 0.0118475 0.038308 -0.0180027 -0.00626681 0.018663 0.0235612 0.007482 0.0179734 0.00975741 0.00646621 -0.0196611 -0.00906651 0.0128896 -0.00265661
internal_weight=100396 60565.5 39830.7 31139.9 26928.9 29425.6 16297.5 24668.7 14842.4 12901.8 8562.93 15768.4 14149.3 7734.58 12402.6 14526.3 8900.34 4824.77 12802.3 1585.16 6500.12 3983.26 8342.27 4162.18 7025.07 4738.16 11217.1 4756.9 4287.29 6631.94
internal_count=640000 336919 303081 159493 191316 177426 78376 146257 81117 111765 39846 94642 84563 38530 82831 108485 51615 22238 96208 11907 34535 20746 46582 24002 38535 27613 84301 31169 22036 40965
is_linear=0
shrinkage=0.05


Tree=14
num_leaves=31
num_cat=0
split_feature=2 2 40 1 43 41 43 23 11 5 2 6 41 3 1 27 43 5 13 2 6 6 23 11 6 34 11 11 13 5
split_gain=7319.43 1508.1 1400.66 493.477 418.758 343.587 274.921 265.395 255.035 206.73 164.98 160.848 133.685 131.761 119.263 118.905 116.272 102.318 97.8466 97.4961 96.858 95.1322 94.4718 91.0215 89.8555 86.7995 85.3937 84.9598 79.8596 77.5282
threshold=12.510000000000002 17.785000000000004 183389.50000000003 4.0000000000000009 7739.5000000000009 48782.500000000007 11403.500000000002 25.500000000000004 19.015000000000004 1.0000000180025095e-35 6.6950000000000012 60954.000000000007 5132.5000000000009 166.06500000000003 4.0000000000000009 7.5000000000000009 1255.0000000000002 1.0000000180025095e-35 687.50000000000011 24.870000000000005 49689.500000000007 60954.000000000007 9.5000000000000018 13.195000000000002 61843.000000000007 4.5000000000000009 17.025000000000002 24.245000000000001 702.50000000000011 1.0000000180025095e-35
decision_type=2 2 2 2 2 2 2 2 2 2 2 2 2 2 2 2 2 2 2 2 2 2 2 2 2 2 2 2 2 2
left_child=2 3 10 7 16 15 21 9 19 26 -1 -8 -10 -11 18 29 22 -14 25 -6 -9 -5 -3 -15 -18 -7 -2 -13 -16 -4
right_child=1 4 5 6 8 14 11 20 12 13 -12 27 17 23 28 -17 24 -19 -20 -21 -22 -23 -24 -25 -26 -27 -28 -29 -30 -31
leaf_value=-0.039248634737090407 -0.0085754681144171192 -0.059563450200740012 -0.022091621389033665 0.013601513817525291 0.015454818282437874 -0.00985233679161906 0.030518527700714983 -0.0011661708242685428 0.043940758724793999 -0.0038102700852628416 -0.02684480133106561 0.0096053472231864487 0.021800433133764813 0.0019030353423045217 0.017705502790854373 -0.0065244088472209251 0.01777702752999195 0.033096740235670094 -0.012070733652975486 0.0320886833297662 -0.016854499430769245 0.0010498641180663965 0.00013505407629334245 0.012074756889877844 0.0037962332581102107 0.0025838081593897392 0.0013305123601904608 0.026524647680062376 -0.002325472632655444 -0.013889847914490265
leaf_weight=3867.2079579085112 3617.5355897694826 107.27490313351154 5704.2924051731825 2430.0368749350309 5929.0191979557276 2297.6418431997299 2452.6054214835167 1635.9338935464621 1549.5810616314411 2284.6160808354616 8738.0453004017472 2794.5178342014551 3708.2766662538052 2999.6622156500816 917.37710309028625 2838.4106100201607 2197.3270911574364 4363.1004009246826 4460.6040668934584 1034.6571888029575 2468.1661877632141 3985.5749853849411 173.37038441002369 8243.458338946104 2409.5167001783848 3603.8176562488079 5457.9011453539133 1010.1903750747442 1087.3548081070185 5822.0010802298784
leaf_count=36459 23029 583 44003 13273 29874 15776 12194 10691 6926 13663 75306 14954 18295 17849 5577 20876 11579 20650 30470 4808 16642 22689 928 47015 12744 24230 33407 5126 6778 43606
internal_value=-0.000101827 0.0107639 -0.0169107 0.00495165 0.0214237 -0.0104318 0.013077 0.00109609 0.0252142 0.00321994 -0.0306502 0.0205339 0.0304893 0.00713654 -0.00432241 -0.0156914 0.0085612 0.0279068 -0.00648214 0.0179263 -0.010601 0.00580404 -0.0226843 0.00936094 0.0104647 -0.00225801 -0.00261808 0.0140976 0.00684082 -0.0179489
internal_weight=100189 60852.3 39336.8 39380.2 21472.1 26731.5 12672.9 26707.3 16584.6 22603.2 12605.3 6257.31 9620.96 13527.7 12366.8 14364.7 4887.49 8071.38 10362.1 6963.68 4104.1 6415.61 280.645 11243.1 4606.84 5901.46 9075.44 3804.71 2004.73 11526.3
internal_count=640000 336919 303081 230532 106387 191316 68236 162296 80553 134963 111765 32274 45871 78527 82831 108485 25834 38945 70476 34682 27333 35962 1511 64864 24323 40006 56436 20080 12355 87609
is_linear=0
shrinkage=0.05


Tree=15
num_leaves=31
num_cat=0
split_feature=2 41 40 41 41 3 43 6 43 27 41 43 1 27 43 11 11 40 11 1 11 11 5 6 3 41 6 4 18 13
split_gain=6646.7 1376.62 1322.81 569.776 316.896 276.044 234.745 227.921 180.578 174.31 163.274 161.24 135.204 133.693 123.608 119.577 116.984 110.363 98.3047 94.1139 92.6063 89.8798 88.7816 88.57 90.8516 83.926 83.3923 83.1534 80.8305 69.325
threshold=12.510000000000002 44249.500000000007 183389.50000000003 13405.000000000002 48782.500000000007 210.23500000000004 9711.0000000000018 62001.500000000007 11029.000000000002 4.5000000000000009 26218.500000000004 3891.0000000000005 4.0000000000000009 7.5000000000000009 14599.000000000002 21.385000000000002 14.885000000000003 230404.00000000003 10.575000000000001 4.0000000000000009 14.335000000000003 19.885000000000002 1.0000000180025095e-35 87003.000000000015 200.48500000000004 5132.5000000000009 65001.000000000007 134.50000000000003 25411.500000000004 722.50000000000011
decision_type=2 2 2 2 2 2 2 2 2 2 2 2 2 2 2 2 2 2 2 2 2 2 2 2 2 2 2 2 2 2
left_child=2 3 10 8 16 26 17 13 23 -8 29 -9 14 27 22 -6 -4 21 -10 -18 -13 -3 -11 24 -2 -20 -5 -7 -22 -1
right_child=1 6 4 5 15 7 9 11 18 12 -12 20 -14 -15 -16 -17 19 -19 25 -21 28 -23 -24 -25 -26 -27 -28 -29 -30 -31
leaf_value=-0.028819603631961462 0.0019253197729724931 -0.0066127606314518783 -0.020376468233430915 0.0036430454410105377 -0.0076732683251976193 0.027232202403034179 -0.0017776129745568341 -0.013260954520087959 0.013796516077507363 0.0032281366605973224 -0.024259161219778749 0.0040819335757145822 0.020227210606976926 0.029654643352004774 -0.00089701808896960943 0.0027020613017696322 -0.013139173486731935 -0.016005402236320295 0.043930100582111803 0.0035390689527597971 0.018041815815385619 0.0037685902084460573 0.021774378710947843 0.0079067664628898471 0.025548388742200889 0.029903066016474106 -0.014227049192455973 0.014142007256053716 0.0068055079907955746 -0.039974358950068671
leaf_weight=2232.6628350540996 463.35358640551567 5193.4070120155811 6005.4798921868205 3050.7556093484163 8107.7746416926384 1469.6519009917974 5370.122456356883 741.6725846529007 698.38661435246468 1132.8333380818367 6384.86992097646 3396.2221138030291 2259.5796301960945 2470.2947143614292 3141.1167936623096 4223.7510649263859 7247.0681627169251 1814.1701733022928 1467.6823604106903 957.61933785676956 4598.9362372308969 3483.3830059766769 1499.3376077562571 1383.8729971796274 3346.8119266182184 3899.835571616888 830.59166702628136 6952.0553763657808 2454.9186056554317 3703.0485424175858
leaf_count=21226 2458 32481 46261 17599 54735 7645 31961 4326 3325 7188 55152 18452 12279 12650 18892 28096 55343 12675 6468 6881 24031 20955 8773 6827 15854 18016 4892 36354 12818 35387
internal_value=-0.000102073 0.0101778 -0.0162694 0.0161898 -0.00998437 0.0121162 0.000811653 0.0142775 0.0255834 0.00519626 -0.0298089 0.00926647 0.00985843 0.0194265 0.00580024 -0.00411955 -0.0150738 -0.00479001 0.0314426 -0.0111926 0.0108653 -0.00244506 0.0137924 0.0187407 0.0226756 0.0337386 -0.000181078 0.0164263 0.0141313 -0.0357786
internal_weight=99981.3 61119 38862.3 37225 26541.7 25965.1 23894 22083.8 11259.9 13403 12320.6 11191.7 8032.87 10892 5773.29 12331.5 14210.2 10491 6065.9 8204.69 10450.1 8676.79 2632.17 5194.04 3810.17 5367.52 3881.35 8421.71 7053.85 5935.71
internal_count=640000 336919 303081 191715 191316 138767 145204 116276 52948 79093 111765 59627 47132 56649 34853 82831 108485 66111 27809 62224 55301 53436 15961 25139 18312 24484 22491 43999 36849 56613
is_linear=0
shrinkage=0.05


Tree=16
num_leaves=31
num_cat=0
split_feature=2 40 41 1 41 5 43 23 2 3 27 4 11 5 1 4 43 27 2 5 6 5 27 13 11 13 42 1 5 43
split_gain=6035.3 1248.11 1228.21 509.263 292.135 291.837 211.743 170.404 159.408 156.464 156.135 149.609 141.101 136.437 119.818 111.713 110.327 109.491 108.265 106.758 105.743 95.7939 95.7087 92.8266 90.2979 89.269 82.5163 80.0709 78.3641 71.4696
threshold=12.510000000000002 183389.50000000003 44249.500000000007 4.0000000000000009 48782.500000000007 1.0000000180025095e-35 9711.0000000000018 25.500000000000004 6.6950000000000012 172.08500000000004 4.5000000000000009 185736.50000000003 25.235000000000003 1.0000000180025095e-35 4.0000000000000009 200.00000000000003 14599.000000000002 8.5000000000000018 17.98 1.5000000000000002 52997.000000000007 1.0000000180025095e-35 7.5000000000000009 687.50000000000011 19.305000000000003 672.50000000000011 47392.000000000007 4.0000000000000009 1.0000000180025095e-35 3071.5000000000005
decision_type=2 2 2 2 2 2 2 2 2 2 2 2 2 2 2 2 2 2 2 2 2 2 2 2 2 2 2 2 2 2
left_child=1 8 3 7 15 12 20 9 -1 -2 -8 19 25 -11 16 26 28 21 -15 22 -4 -6 -7 -14 -17 -5 -3 -23 -12 -22
right_child=2 4 6 5 17 11 10 -9 -10 13 14 -13 23 18 -16 24 -18 -19 -20 -21 29 27 -24 -25 -26 -27 -28 -29 -30 -31
leaf_value=-0.037702405921159907 0.00019471233369630712 0.004362601236164664 0.0017147809831797483 0.019202086333943588 -0.011337082257839907 0.030068071601579895 -0.0016904809950286184 -0.0035874164339695261 -0.025186721792012076 0.0071454799880660532 0.0030605716742693207 0.01369312893908884 0.032285727409608049 0.012054174545212001 0.019015972872112014 -0.020246933025093332 -0.00085261949648975793 0.0071229654194204933 0.023444065808602327 0.019261519811502526 -0.022599946088984486 -0.0037454599712623479 0.044898643723670341 0.014376674813225033 -0.010945182528713598 0.007188577078806273 -0.012727697112758075 0.014956554311946556 0.020429788552135709 -0.0065892969289409716
leaf_weight=3649.9474367648363 2706.3048844486475 1189.5054366514087 4084.8312766104937 2337.7930494695902 4591.2726021558046 4274.7964102625847 5364.7092199921608 2213.5664184242487 8397.4317924231291 5401.0958089530468 1135.0540686249733 1580.9246917814016 1632.393023326993 4500.7529780119658 2282.7144239544868 6961.0611765310168 3139.4933342188597 1896.8942705839872 3889.2533840090036 1607.3134547024965 796.55867147445679 5167.4007291346788 1459.2125002592802 1299.5769381970167 4173.2747403904796 4567.451948210597 1738.6115230992436 643.60151249170303 1517.6284679621458 5577.7298554480076
leaf_count=36459 15558 9094 25608 11524 32037 19290 31961 13387 75306 29905 7188 7717 7527 24315 12279 54232 18892 12408 19135 7315 5239 34568 6468 6308 31725 23266 13434 3818 8773 35264
internal_value=-0.000101916 -0.0156458 0.00962652 0.0152755 -0.00955271 0.021097 0.000769503 0.00943896 -0.0289785 0.0111868 0.00492136 0.0276454 0.0151578 0.0133438 0.00931406 -0.0144752 0.0054905 -0.00392452 0.017334 0.0306499 -0.00456548 -0.00593907 0.0338422 0.0243477 -0.0167605 0.0112558 -0.00578501 -0.00167411 0.0129977 -0.00859006
internal_weight=99778.2 38409 61369.2 37470.4 26361.6 18759.5 23898.7 18711 12047.4 16497.4 13439.6 8922.25 9837.21 13791.1 8074.89 14062.5 5792.18 12299.2 8390.01 7341.32 10459.1 10402.3 5734.01 2931.97 11134.3 6905.24 2928.12 5811 2652.68 6374.29
internal_count=640000 303081 336919 191715 191316 89415 145204 102300 111765 88913 79093 40790 48625 73355 47132 108485 34853 82831 43450 33073 66111 70423 25758 13835 85957 34790 22528 38386 15961 40503
is_linear=0
shrinkage=0.05


Tree=17
num_leaves=31
num_cat=0
split_feature=2 40 40 41 0 41 6 11 40 41 4 6 23 27 43 11 3 18 4 11 1 27 27 13 18 0 6 23 13 42
split_gain=5480.38 1176.14 1104.98 533.958 269.472 269.037 213.948 184.471 159.664 156.894 138.056 113.662 113.467 110.992 110.206 107.453 106.732 118.141 93.826 92.847 92.4666 86.0992 84.7925 78.7156 78.2873 78.1658 75.203 73.8363 69.3942 68.9172
threshold=12.510000000000002 183389.50000000003 87557.000000000015 44511.500000000007 7012.5000000000009 48782.500000000007 70000.500000000015 25.365000000000006 230404.00000000003 26218.500000000004 200.00000000000003 64001.500000000007 25.500000000000004 4.5000000000000009 2662.0000000000005 21.385000000000002 263.94500000000005 22750.500000000004 134.50000000000003 15.465000000000002 4.0000000000000009 7.5000000000000009 5.5000000000000009 702.50000000000011 27185.500000000004 14412.500000000002 44671.500000000007 6.5000000000000009 727.50000000000011 47392.000000000007
decision_type=2 2 2 2 2 2 2 2 2 2 2 2 2 2 2 2 2 2 2 2 2 2 2 2 2 2 2 2 2 2
left_child=1 9 7 4 11 13 18 16 10 28 29 22 14 -3 -8 -7 -2 27 -6 -12 26 -20 -4 -21 25 -16 -15 -18 -1 -5
right_child=2 5 3 8 6 15 12 -9 -10 -11 19 -13 -14 20 24 -17 17 -19 21 23 -22 -23 -24 -25 -26 -27 -28 -29 -30 -31
leaf_value=-0.027775158993782481 0.0036875342906877474 -0.019215781436036642 -0.00062533054613073157 0.018019978749686034 0.024887809087072964 -0.0071294900121625831 -0.036935244019973605 0.029981254257730589 -0.015087649772948922 -0.022641362208170642 -0.0075533534575202097 -0.012145032652304218 -0.0086220350292454968 -0.0015025225262580606 0.0023966462935034465 0.0027201541896565646 0.025232494674041026 0.0074689840848237519 0.01167514089680494 0.0042411804481857357 0.0044757477884175513 0.021839576361448731 0.014135978710438367 -0.0073197174731222314 0.0013997496582316337 0.015087697597869357 -0.014546478861737454 0.011577932936821758 -0.038994198354918103 0.003306554453986265
leaf_weight=2410.256341971457 1200.3304586112499 5752.0020845010877 3131.4244494736195 1361.0388131886721 2418.0875072777271 8044.6747749298811 132.91544811427593 4451.327279612422 1892.6581787467003 6155.9061560034752 4821.0888246446848 1443.5706381946802 1119.3824240863323 1362.1520487219095 1627.3183325976133 4222.2618307620287 5264.2245612591505 1593.4848290234804 8877.0422143489122 5760.7681602090597 954.52036449313164 2722.3142046630383 1411.3128593415022 1977.8964580595493 2484.0518810749054 4768.6451331824064 5852.8593333661556 1219.3709208667278 3219.3218819648027 1916.5944076627493
leaf_count=24041 6306 45268 18101 8240 12580 54735 752 20039 13374 55152 30147 8543 6698 10517 8868 28096 24161 7589 46807 34705 6931 14048 8000 11843 13196 25318 45769 6055 32572 11549
internal_value=-0.000101347 -0.0150411 0.00910918 0.00552263 0.00957325 -0.00913804 0.0119273 0.0216139 -0.00136227 -0.0281582 0.00027799 7.68254e-05 0.00639187 -0.0138952 0.00825656 -0.00373926 0.0175992 0.0196666 0.0159284 -0.00210677 -0.010149 0.0140607 0.00396063 0.00128637 0.00893298 0.0118587 -0.0120839 0.0226645 -0.0341909 0.00941631
internal_weight=99568.8 37974 61594.8 47866.1 30136.1 26188.5 24149.8 13728.7 17730 11785.5 15837.4 5986.31 10132.3 13921.5 9012.93 12266.9 9277.41 8077.08 14017.4 12559.8 8169.53 11599.4 4542.74 7738.66 8880.02 6395.96 7215.01 6483.6 5629.58 3277.63
internal_count=640000 303081 336919 272769 162911 191316 128267 64150 109858 111765 96484 34644 54832 108485 48134 82831 44111 37805 73435 76695 63217 60855 26101 46548 47382 34186 56286 30216 56613 19789
is_linear=0
shrinkage=0.05


Tree=18
num_leaves=31
num_cat=0
split_feature=2 40 2 1 43 41 5 11 13 2 11 2 27 41 27 1 41 6 13 4 4 43 39 13 5 5 13 5 6 1
split_gain=4975.74 1107.23 996.059 367.602 315.166 247.657 215.704 205.681 160.806 153.303 139.073 128.686 116.375 112.198 108.139 105.129 102.968 101.631 98.9109 90.8622 107.985 81.3436 76.6037 76.2384 75.9384 73.7146 71.3712 68.711 67.8521 67.737
threshold=12.510000000000002 183389.50000000003 17.785000000000004 4.0000000000000009 9655.0000000000018 48782.500000000007 1.0000000180025095e-35 17.025000000000002 682.50000000000011 6.6950000000000012 14.985000000000001 21.200000000000003 9.5000000000000018 8963.0000000000018 7.5000000000000009 4.0000000000000009 45909.500000000007 60954.000000000007 682.50000000000011 54.500000000000007 38.500000000000007 1496.5000000000002 2.5000000000000004 687.50000000000011 1.0000000180025095e-35 1.0000000180025095e-35 697.50000000000011 1.0000000180025095e-35 51633.000000000007 4.0000000000000009
decision_type=2 2 2 2 2 2 2 2 2 2 2 2 2 2 2 2 2 2 2 2 2 2 2 2 2 2 2 2 2 2
left_child=1 9 3 7 11 14 12 16 22 -1 -6 28 17 -12 24 19 -2 -5 -8 20 -7 -13 -9 -21 -3 -11 -17 -23 -4 -26
right_child=2 5 4 6 10 15 18 8 -10 25 13 21 -14 -15 -16 26 -18 -19 -20 23 -22 27 -24 -25 29 -27 -28 -29 -30 -31
leaf_value=-0.036174139832536895 -0.00088856132139901586 -0.019749157936783904 0.012223814283299231 0.011822313174516562 0.013255344805626405 -0.0096761380307126815 0.026062629157836938 0.0046027395400657116 -0.0014994023346320117 -0.027873667759728233 0.033452697007807335 -0.026934769600071948 0.021770895817067384 0.021637627127416903 -0.0044697620962538256 0.018555722129501309 -0.010736680158574331 -0.0015792336923404267 0.01255295793212865 -0.0034349522437396546 0.019101138478796048 0.010313061983846355 0.014023202890892737 -0.012785651083654804 -0.01308012276584688 -0.018270402790885192 -0.00073935455429305558 0.023727558490863918 -0.00017832496347701442 0.0071597987891550089
leaf_weight=3449.3613738566637 7135.351090028882 5444.0768349543214 1718.0205122232437 2104.9410323500633 3400.9219561815262 576.50011903047562 2347.7313822805882 4867.1217467337847 6736.0869190245867 4473.4877770319581 2799.403804898262 105.19578243792057 926.61269538104534 7119.459900572896 2753.4842791706324 794.46252323687077 4226.3218005150557 4313.946539580822 3203.6857607662678 5103.0211548060179 750.19857959449291 1750.2356373071671 3876.8923907727003 3805.3766271024942 5139.4295171275735 3611.5170854702592 1207.959595054388 2099.8830695450306 3079.8660317361355 449.53649708628654
leaf_count=36459 43041 44003 9109 11322 16388 3972 11275 28581 40439 41841 12203 537 4930 33405 20876 4791 27938 24456 16253 34930 5153 8389 22297 26421 40311 33465 7564 9864 16492 3295
internal_value=-0.000100585 -0.0144539 0.00862088 0.00389044 0.0171372 -0.00873853 0.0108281 0.000557026 0.00430672 -0.0273491 0.0219806 0.00976711 0.00520669 0.0249722 -0.013334 -0.00356141 -0.00455187 0.00281553 0.0182663 -0.00561123 0.00659634 0.0164442 0.00877955 -0.00742927 -0.0155462 -0.023584 0.00691598 0.0176294 0.00426262 -0.0114522
internal_weight=99370.1 37558.4 61811.7 39738.7 22073 26024 12896.9 26841.8 15480.1 11534.4 13319.8 8753.2 7345.5 9918.86 13786.5 12237.5 11361.7 6418.89 5551.42 10235.1 1326.7 3955.31 8744.01 8908.4 11033 8085 2002.42 3850.12 4797.89 5588.97
internal_count=640000 303081 336919 230532 106387 191316 68236 162296 91317 111765 61996 44391 40708 45608 108485 82831 70979 35778 27528 70476 9125 18790 50878 61351 87609 75306 12355 18253 25601 43606
is_linear=0
shrinkage=0.05


Tree=19
num_leaves=31
num_cat=0
split_feature=2 40 41 1 6 41 40 5 41 11 11 1 43 4 5 1 13 4 39 11 11 4 3 42 23 13 39 4 27 4
split_gain=4517.7 1041.04 906.122 395.093 243.13 227.735 180.028 166.698 149.81 144.736 123.539 121.935 115.188 105.687 101.642 96.8636 95.2191 90.4259 89.612 84.0921 84.0877 83.584 81.9342 76.0495 73.0656 69.5128 68.2861 67.3632 65.4331 64.5107
threshold=12.510000000000002 183389.50000000003 44249.500000000007 4.0000000000000009 65001.000000000007 48782.500000000007 230404.00000000003 1.0000000180025095e-35 26218.500000000004 21.285000000000004 27.205000000000002 4.0000000000000009 11916.000000000002 200.00000000000003 1.0000000180025095e-35 4.0000000000000009 687.50000000000011 54.500000000000007 2.5000000000000004 19.305000000000003 16.195000000000004 54.500000000000007 132.85000000000005 47392.000000000007 4.5000000000000009 722.50000000000011 2.5000000000000004 54.500000000000007 6.5000000000000009 49.500000000000007
decision_type=2 2 2 2 2 2 2 2 2 2 2 2 2 2 2 2 2 2 2 2 2 2 2 2 2 2 2 2 2 2
left_child=1 8 3 9 12 13 7 20 25 24 16 21 -5 23 -7 27 -6 -11 -19 -15 -4 29 -23 -3 -2 -1 -24 -16 -14 -9
right_child=2 5 6 4 10 14 -8 11 -10 17 -12 -13 28 19 15 -17 -18 18 -20 -21 -22 22 26 -25 -26 -27 -28 -29 -30 -31
leaf_value=-0.025352173065464351 0.0071727496142359242 0.0055442825903420341 -0.0085916956236516701 0.018042285841209541 0.014265185197226818 -0.0083974319497532365 -0.014355806862014379 0.0013874399905681655 -0.021089962467113074 0.024746820670546659 0.024613853428891854 0.015147694137128277 0.024889730140132335 -0.018487140528085051 0.012442217572143793 0.017770545104282578 0.0031268935070210262 0.0048750901861295643 0.015989314302470095 -0.0093812268164409629 0.0007459835490318768 -0.013097027978548326 -0.00068511894527346429 -0.011033925020827876 -0.0014533364963381723 -0.037093196698721992 0.0094101679038562768 -0.0034283883961262504 0.03707984227920047 0.025226248146598674
leaf_weight=2035.564086176455 6428.4909408092499 1171.2973083928227 3974.1793613284826 4457.8191652595997 4945.7909142822027 5541.1917066574097 1869.9267816096544 478.46560069918633 5946.8402514383197 1309.8822705596685 1745.0217005759478 2698.9639324098825 3118.0743442922831 6727.4141687005758 768.26327563822269 744.02457267045975 3135.085663318634 3600.8684594035149 3654.0236933082342 4068.8774182274938 6129.5552646517754 884.92418806254864 4558.8804896622896 1689.7182574942708 3971.4181767106056 3311.4737174734473 2648.0570434331894 5154.8421476483345 1701.5759564787149 697.51059357821941
leaf_count=21226 34938 9094 25268 21073 23616 38757 13374 2787 55152 6762 7976 13938 13782 54232 5103 4367 15593 18903 18912 31725 37189 5426 27563 13434 22785 35387 15576 34604 7375 4083
internal_value=-9.95293e-05 -0.0138854 0.00816184 0.012955 0.0180303 -0.00835533 0.00054014 0.0018022 -0.0265505 0.00784265 0.0125492 0.00579502 0.0238353 -0.0127911 -0.00339309 0.00076612 0.00994393 0.0126559 0.0104729 -0.0150553 -0.00292688 0.00307136 0.00126119 -0.00424682 0.0038787 -0.0326235 0.00302421 -0.00136987 0.0291934 0.015527
internal_weight=99168 37159.5 62008.5 38068.1 19103.4 25865.6 23940.5 22070.5 11293.9 18964.7 9825.9 11966.8 9277.47 13657.3 12208.3 6667.13 8080.88 8564.77 7254.89 10796.3 10103.7 9267.84 8091.86 2861.02 10399.9 5347.04 7206.94 5923.11 4819.65 1175.98
internal_count=640000 303081 336919 191715 89415 191316 145204 131830 111765 102300 47185 69373 42230 108485 82831 44074 39209 44577 37815 85957 62457 55435 48565 22528 57723 56613 43139 39707 21157 6870
is_linear=0
shrinkage=0.05


Tree=20
num_leaves=31
num_cat=0
split_feature=2 41 40 41 2 0 5 27 43 1 4 13 23 41 43 6 43 6 5 2 5 11 0 4 18 27 1 43 6 27
split_gain=4101.35 980.502 821.977 401.317 243.948 222.012 183.44 179.592 149.569 130.273 128.111 118.541 102.334 100.792 100.307 99.9168 97.6115 94.8256 91.6304 89.4674 87.4231 85.8034 84.5096 81.8326 79.6635 74.9886 74.3583 74.3442 73.9402 72.7622
threshold=12.510000000000002 43304.500000000007 87557.000000000015 44511.500000000007 7.2750000000000012 7012.5000000000009 1.0000000180025095e-35 5.5000000000000009 11029.000000000002 4.0000000000000009 200.00000000000003 682.50000000000011 25.500000000000004 5132.5000000000009 2424.5000000000005 64001.500000000007 9711.0000000000018 39000.500000000007 1.0000000180025095e-35 25.855 1.5000000000000002 17.595000000000002 14387.500000000002 54.500000000000007 8811.5000000000018 4.5000000000000009 4.0000000000000009 2662.0000000000005 62001.500000000007 5.5000000000000009
decision_type=2 2 2 2 2 2 2 2 2 2 2 2 2 2 2 2 2 2 2 2 2 2 2 2 2 2 2 2 2 2
left_child=1 4 8 5 -1 15 21 17 19 11 -5 -9 14 -10 -8 29 -12 23 -6 -2 26 -7 -19 -3 -24 -18 -16 -23 -13 -4
right_child=2 7 3 10 18 6 12 9 13 -11 16 28 -14 -15 20 -17 25 22 -20 -21 -22 27 24 -25 -26 -27 -28 -29 -30 -31
leaf_value=-0.031531606524272046 0.0097351633360449052 0.017446952793163283 -0.0011319107765937826 0.0071358903263444729 -0.022817826893001072 0.00053149447573875653 -0.03509575421020774 0.0028030046978343845 0.033720360240785022 0.013724736751573775 -0.0077923498105580595 -0.0016949283816583831 0.0018335539643877009 0.019999175952894108 0.014799057891634991 -0.011979828114420525 -0.00563059786131448 -0.016117456258591942 -0.013085634476660824 0.024835078012790664 0.0081060287962849004 -0.023168817938353153 0.0034451876634612579 -0.0058844235915774569 -0.011482301498004629 0.0046685693115407819 0.024133281292407632 0.010059822976758989 -0.015708344512871484 0.012459048796552919
leaf_weight=5455.8109350204468 5051.8958623707294 467.70034298300743 3147.8519987165928 3553.4642544090748 5237.1768580004573 4748.2069771140814 95.298312693834305 3753.7269933596253 1723.6032826751471 1280.3393578082323 6814.7454408854246 1649.772573441267 1440.5645794719458 5988.5891305357218 5018.4477757960558 1439.919819444418 2961.2931060194969 6125.6465945839882 4493.874572634697 1217.354737251997 2465.8939009904861 172.58783024549484 1287.8042917773128 1913.1763263121247 2921.0733373686671 4383.7085772752762 3711.589846894145 6823.2157288491726 2191.994856916368 1433.1509381830692
leaf_count=58777 24289 3342 18101 21560 47297 26648 507 26847 7370 8253 44493 11988 8347 27090 26442 8543 17979 45894 39560 5401 12270 998 9383 14008 21432 25826 16917 36138 16300 8000
internal_value=-9.82244e-05 -0.0133341 0.00772908 0.0046335 -0.0230684 0.0081102 0.0102261 -0.0064872 0.0184031 -0.00102918 -0.00135232 -0.00351618 0.0143834 0.0230657 0.0159845 -0.000491184 -0.00348248 -0.0102971 -0.0183234 0.0126672 0.0164193 0.00571911 -0.0123696 -0.0013012 -0.00691489 0.000516242 0.0187675 0.00924007 -0.00969055 0.00311997
internal_weight=98969.5 36778.1 62191.4 48209.9 15186.9 30496.7 24475.8 21591.2 13981.4 8875.83 17713.2 7595.49 12731.8 7712.19 11291.2 6020.92 14159.7 12715.4 9731.05 6269.25 11195.9 11744 10334.5 2380.88 4208.88 7345 8730.04 6995.8 3841.77 4581
internal_count=640000 303081 336919 272769 145634 162911 128267 157447 64150 63388 109858 55135 64483 34460 56136 34644 88298 94059 86857 29690 55629 63784 76709 17350 30815 43805 43359 37136 28288 26101
is_linear=0
shrinkage=0.05


Tree=21
num_leaves=31
num_cat=0
split_feature=2 41 2 1 41 43 13 23 11 5 11 43 6 3 13 5 43 13 23 6 39 13 1 4 4 7 4 1 2 11
split_gain=3723.01 923.698 746.053 285.078 281.384 255.047 185.398 173.848 161.205 158.251 152.849 131.303 117.597 104.899 102.949 99.8656 94.9551 93.9069 83.4157 80.2919 80.1729 75.7029 84.046 74.7159 82.0308 74.5482 72.5834 72.5041 68.914 68.5113
threshold=12.510000000000002 34486.500000000007 17.785000000000004 4.0000000000000009 44249.500000000007 7739.5000000000009 702.50000000000011 25.500000000000004 19.015000000000004 1.0000000180025095e-35 19.495000000000001 9912.5000000000018 60954.000000000007 99.090000000000018 687.50000000000011 1.0000000180025095e-35 1255.0000000000002 737.50000000000011 9.5000000000000018 49689.500000000007 2.5000000000000004 702.50000000000011 4.0000000000000009 54.500000000000007 38.500000000000007 1.0000000180025095e-35 54.500000000000007 4.0000000000000009 25.940000000000001 28.455000000000002
decision_type=2 2 2 2 2 2 2 2 2 2 2 2 2 2 2 2 2 2 2 2 2 2 2 2 2 2 2 2 2 2
left_child=1 17 3 7 15 16 11 9 28 25 23 -5 -13 -11 -10 -3 18 -1 -4 -9 26 22 -12 24 -6 -2 -15 -17 -7 -14
right_child=2 4 5 6 10 8 -8 19 14 13 21 12 29 20 -16 27 -18 -19 -20 -21 -22 -23 -24 -25 -26 -27 -28 -29 -30 -31
leaf_value=-0.023788863911789835 -0.011004680397646301 -0.019149990391685107 -0.05884615372479414 0.0051630926819751753 -0.011417543057376779 0.010370506533036845 0.00078725115518334544 -0.00072256095673380071 0.025031255025579548 -0.0114229019484455 0.0025274075747000078 0.026939244360167099 0.0095109260432414116 0.015255845077525485 0.014206890845008511 -0.011353370504238939 0.0063943791537658824 -0.035152388036847206 -0.0026008089500280203 -0.015118057839160405 0.011159223051068458 -0.0063130863688708244 0.025852747858784747 -0.0101922202802531 0.01491717266168417 -0.00054056657315621186 0.0011641926347941709 0.012250551903823547 0.028282385008486035 0.030785721955038772
leaf_weight=4534.0166553705931 2263.7352407425642 6080.4286069869995 104.69789488613605 3081.1743782758713 535.65732539445162 6674.6473577767611 4297.3887801766396 1625.3333054333925 6885.156216993928 872.5030322521925 4305.1042463257909 2226.8930512517691 3004.8982895612717 1064.5139919966459 3225.7720260024071 5225.9798236489296 4758.3151674568653 3035.1072731763124 177.97681428492069 2397.3574910014868 5367.2816597372293 2380.2727804556489 424.24725514650345 8887.6870900541544 660.12057016044855 6859.7039010077715 6454.5377903133631 346.93557617068291 583.9702845364809 432.93892729282379
leaf_count=47929 14121 52890 583 16691 3822 32111 23566 10691 31169 5226 30181 10510 15420 5955 14702 44087 24323 33449 928 16642 30116 16635 2562 64140 4642 42315 37230 2744 2571 2049
internal_value=-9.67831e-05 -0.0127996 0.00732127 0.00322505 -0.00872048 0.014623 0.00929137 0.000284147 0.0174966 0.00196933 -0.0046549 0.01347 0.0179882 0.00535529 0.0215779 -0.0147187 0.00472179 -0.0283455 -0.0234331 -0.00930168 0.0064913 0.000959522 0.00461981 -0.00861351 0.00312035 -0.00313695 0.00315923 -0.00988393 0.0118116 0.0121901
internal_weight=98774.4 36415.6 62358.8 39948.3 28846.4 22410.5 13043.3 26905 17369.5 22882.3 17193.1 8745.9 5664.73 13758.8 10110.9 11653.3 5040.99 7569.12 282.675 4022.69 12886.3 7109.62 4729.35 10083.5 1195.78 9123.44 7519.05 5572.92 7258.62 3437.84
internal_count=640000 303081 336919 230532 221703 106387 68236 162296 80553 134963 121982 44670 27979 78527 45871 99721 25834 81378 1511 27333 73301 49378 32743 72604 8464 56436 43185 46831 34682 17469
is_linear=0
shrinkage=0.05


Tree=22
num_leaves=31
num_cat=0
split_feature=2 41 41 43 1 2 13 27 18 6 11 5 43 6 0 6 23 3 27 11 0 18 3 11 5 13 4 13 39 39
split_gain=3384.14 1124.79 532.007 334.395 258.307 228.291 192.662 191.824 176.654 147.501 144.385 135.918 118.96 117.396 116.064 104.633 99.1354 89.6846 87.7749 85.7196 84.7165 100.806 82.4202 76.0887 74.4954 73.6982 69.4785 65.359 62.8532 61.2412
threshold=13.475000000000003 43304.500000000007 13405.000000000002 9711.0000000000018 4.0000000000000009 7.2750000000000012 682.50000000000011 5.5000000000000009 26112.500000000004 50000.500000000007 21.085000000000004 1.0000000180025095e-35 3891.0000000000005 90000.500000000015 7762.5000000000009 48000.500000000007 25.500000000000004 169.90500000000003 8.5000000000000018 17.595000000000002 14512.500000000002 7094.5000000000009 248.49500000000003 13.485000000000001 1.0000000180025095e-35 722.50000000000011 184.50000000000003 712.50000000000011 3.5000000000000004 2.5000000000000004
decision_type=2 2 2 2 2 2 2 2 2 2 2 2 2 2 2 2 2 2 2 2 2 2 2 2 2 2 2 2 2 2
left_child=1 5 13 9 6 25 10 17 24 22 -3 18 -11 14 -2 26 20 -5 -6 -7 -14 -22 -4 -19 -9 -1 -8 -25 -16 -17
right_child=2 4 3 7 11 19 15 8 -10 12 -12 -13 16 -15 28 29 -18 23 -20 -21 21 -23 -24 27 -26 -27 -28 -29 -30 -31
leaf_value=-0.02301647572260207 0.0068893958927293804 -0.0060144619023011154 -0.0011363559142930641 -0.0060102518705107584 -0.0045499784104339729 -0.020970546696123998 0.0074992272115422323 0.012457220920262935 0.0033628947085137051 -0.014042707945354414 0.0058319228817503843 0.015754224333985888 -0.00421313382372828 0.0082099373101873225 0.019840293067834466 -0.017088229685075278 -0.0091773936054434981 0.00068811834793164241 0.017365237421763047 -0.011322917863986157 0.025771534977040402 0.0038078151003129745 0.010712272309206065 0.011510320695294448 0.021815154038738807 -0.035073676442072592 -0.0078922648843608688 -0.0012494354699488415 0.029655491530175715 -0.0084452915800796568
leaf_weight=2188.4902683421969 1358.6478293836117 7882.3266158774495 2269.3025918751955 1532.6585285067558 2720.2144105881453 5541.1139776855707 936.43950481712818 3745.8097714483738 2819.9431160837412 1996.321863040328 3817.9943572729826 1970.9895172566175 2734.5528651177883 2519.7032962441444 5572.2302773296833 5789.8593056797981 2453.4534706622362 3450.6420459151268 549.13162569701672 3939.1496271565557 618.27354022860527 3369.3607824295759 4155.0058677047491 6682.7462181150913 4920.2118253707886 3011.1567071303725 3378.5043760240078 1180.9522878229618 2306.069474324584 3172.6551793068647
leaf_count=24013 6692 56450 13473 9110 17786 51205 6518 20185 14577 12457 25611 11577 15616 11617 24597 43337 15323 18750 3312 35712 3342 18263 23196 34321 24587 34764 24346 6138 10042 23083
internal_value=-9.52556e-05 -0.0102252 0.00837653 0.00574091 -0.00470927 -0.0215796 -0.00682669 0.00953803 0.0142331 0.000490074 -0.0021488 0.0053833 -0.00298133 0.0177763 0.0203858 -0.0109489 -0.000574737 0.00534038 -0.000869017 -0.0169619 0.00256505 0.00721324 0.0065269 0.00687795 0.0177703 -0.0299989 -0.00455197 0.00959409 0.0227133 -0.0140287
internal_weight=98583.9 44898 53685.9 41929.2 30218.1 14679.9 24977.8 24333 11486 17596.3 11700.3 5240.34 11172 11756.7 9236.95 13277.5 9175.64 12847 3269.35 9480.26 6722.19 3987.63 6424.31 11314.3 8666.02 5199.65 4314.94 7863.7 7878.3 8962.51
internal_count=640000 357714 282286 229338 212020 145694 179345 127668 59349 101670 82061 32675 65001 52948 41331 97284 52544 68319 21098 86917 37221 21605 36669 59209 44772 58777 30864 40459 34639 66420
is_linear=0
shrinkage=0.05


Tree=23
num_leaves=31
num_cat=0
split_feature=2 41 41 1 5 11 1 5 3 18 11 13 13 4 11 27 6 0 18 5 11 1 27 11 3 6 4 39 4 43
split_gain=3089.62 984.469 557.675 348.086 236.721 204.761 177.94 157.393 140.842 125.557 130.363 124.049 121.503 115.975 101.713 97.5613 97.0054 115.231 97.6013 96.3268 90.9725 80.9416 79.9822 77.2535 71.7099 81.1263 67.4293 65.6034 61.8838 59.6323
threshold=11.240000000000002 44511.500000000007 34486.500000000007 4.0000000000000009 1.0000000180025095e-35 18.255000000000006 4.0000000000000009 1.0000000180025095e-35 169.90500000000003 22251.500000000004 19.305000000000003 702.50000000000011 692.50000000000011 185736.50000000003 22.665000000000003 7.5000000000000009 49999.500000000007 14962.500000000002 12301.500000000002 1.5000000000000002 21.495000000000001 4.0000000000000009 8.5000000000000018 28.935000000000006 542.08000000000015 43500.120000000003 72.500000000000014 3.5000000000000004 148.50000000000003 1496.5000000000002
decision_type=2 2 2 2 2 2 2 2 2 2 2 2 2 2 2 2 2 2 2 2 2 2 2 2 2 2 2 2 2 2
left_child=2 3 20 8 12 16 7 -4 26 10 24 21 14 19 -5 -9 -3 -18 -19 23 -1 27 -8 -6 25 -10 -2 28 -7 -12
right_child=1 5 6 4 13 11 22 15 9 -11 29 -13 -14 -15 -16 -17 17 18 -20 -21 -22 -23 -24 -25 -26 -27 -28 -29 -30 -31
leaf_value=-0.029792068062074708 0.011272513433423498 0.00040544739767358067 -0.017521929094479718 0.0085256668382213165 0.02227951213143527 0.011182795741920333 -0.0009420863477222829 -0.010055759436146184 0.0092252336218041527 -0.0017176654176035656 -0.0266931998898291 -0.0055325234170300816 0.0022256555623434786 0.0081694279683421477 0.020504581410007935 0.004207240812858698 -0.013897134685136502 0.0054737705106474898 -0.0088083997885070563 0.012182876914324502 -0.016109837958119953 0.015974845409402538 0.026897743486829568 0.035650078268985509 0.011805768020283972 -0.0030965104159896735 -0.0066159079821415251 0.011879136024528478 -0.0012797514692616725 0.013897598146496538
leaf_weight=5701.3267959803343 636.89848399907351 3862.2083857133985 7570.2895329520106 4702.2884983420372 5260.8098426908255 1216.7731328830123 1927.5410766378045 6788.9009623005986 2116.7291643843055 3323.0057402551174 91.51737966388464 3791.7616891562939 3960.6138014495373 1784.0309697985649 2843.7331920862198 1456.083196029067 5467.6054375246167 1914.4920315816998 3188.3432601168752 1873.322368055582 1543.8686456158757 1459.5043379664421 297.8540967926383 1359.5211124718189 2358.3758402764797 3621.0754432380199 3047.3841185867786 1738.5530298352242 5492.4201675951481 8004.2233161777258
leaf_count=64188 3610 25624 65167 23055 23167 7662 14515 55500 11513 18010 548 24269 19908 8499 12866 11304 37252 12409 20939 8326 17174 7965 2085 5739 12856 20410 17687 10930 35747 41076
internal_value=-9.37146e-05 0.00511653 -0.0151594 0.00970469 0.0142436 -0.0022201 -0.0104537 -0.0123164 0.0054426 0.00713535 0.00895222 0.00215839 0.00931764 0.0197586 0.0130399 -0.00753688 -0.00637602 -0.00885382 -0.00344999 0.0221928 -0.0268765 0.00510191 0.00278409 0.0250252 0.00446594 0.00144909 -0.00352355 0.0032234 0.000980445 0.0134387
internal_weight=98401.1 73115.2 25285.9 44983.5 21784.3 28131.7 18040.7 15815.3 23199.2 19514.9 16191.9 13699 11506.6 10277.7 7546.02 8244.98 14432.6 10570.4 5102.84 8493.65 7245.2 9907.25 2225.4 6620.33 8096.18 5737.8 3684.28 8447.75 6709.19 8095.74
internal_count=640000 410067 229933 227270 101560 182797 148571 131971 125710 104413 86403 86573 55829 45731 35921 66804 96224 70600 33348 37232 81362 62304 16600 28906 44779 31923 21297 54339 43409 41624
is_linear=0
shrinkage=0.05


Tree=24
num_leaves=31
num_cat=0
split_feature=2 41 41 41 11 11 1 13 5 1 6 0 18 11 13 4 13 27 18 3 18 0 13 6 11 3 27 27 43 43
split_gain=2813.35 884.443 526.314 315.954 216.217 189.168 162.958 146.595 146.132 117.604 117.385 114.097 116.71 95.5909 94.9855 92.3423 90.1233 89.2183 83.8892 82.6903 82.0493 94.2485 77.2123 69.0744 67.3176 59.8255 57.2184 54.9548 54.6194 57.5443
threshold=11.240000000000002 44511.500000000007 34486.500000000007 10099.000000000002 17.595000000000002 20.885000000000002 4.0000000000000009 682.50000000000011 1.0000000180025095e-35 4.0000000000000009 45601.000000000007 14962.500000000002 12301.500000000002 28.455000000000002 682.50000000000011 200.00000000000003 737.50000000000011 6.5000000000000009 20370.500000000004 229.53500000000003 26809.500000000004 13187.500000000002 737.50000000000011 45601.000000000007 21.285000000000004 162.86000000000004 5.5000000000000009 4.5000000000000009 7739.5000000000009 14599.000000000002
decision_type=2 2 2 2 2 2 2 2 2 2 2 2 2 2 2 2 2 2 2 2 2 2 2 2 2 2 2 2 2 2
left_child=2 3 16 13 15 10 8 9 27 28 -3 26 -13 25 -7 -5 24 -10 19 -9 21 23 -8 -17 -1 -2 -12 -4 -6 -30
right_child=1 5 6 4 7 14 22 18 17 -11 11 12 -14 -15 -16 20 -18 -19 -20 -21 -22 -23 -24 -25 -26 -27 -28 -29 29 -31
leaf_value=-0.025043411763406194 -0.0070186347522104885 0.0019753535896641773 -0.022161386480498785 0.010499958673587377 0.0014823920400392858 0.0086025973994454229 0.009339564258907921 -0.0034881330893041331 -0.010262684397749352 0.020654890245718691 -0.015486532515467314 0.0062868480773724741 -0.0078098879232920823 0.028676944469818333 -0.00097109458357809832 0.0042050666465318493 -0.033052485876860202 0.0016807374450371036 -0.00040235085101005517 0.011723777891813336 -0.0122460719687515 0.0067580265372728021 -0.010282905882854763 -0.0070417645755701686 -0.010323288484104683 0.016503500728999625 -0.0060363565526451602 -0.013394663759660395 0.016933316949329934 0.0074510231517572112
leaf_weight=3255.3213971927762 283.80470886826515 4215.8086897656322 2959.4352671131492 3035.4288236200809 1399.9811738282442 4571.1420379728079 1468.0373987853527 1066.6924570053816 6097.9519807398319 4393.9657406806946 4402.1755854487419 2281.2267529666424 4120.2142366915941 1748.941642999649 5980.3800460845232 2301.3810525685549 2815.0247468277812 2102.8517376258969 3423.6462488695979 5497.8180544599891 1103.9149693623185 5423.2253008186817 761.30482356250286 3356.0334305018187 1020.0622077286243 5687.7660929858685 2517.9053877219558 4514.5455713346601 3334.6342259943485 3075.7585592269897
leaf_count=36622 1473 27772 26255 16142 7841 28087 10629 5925 50299 19817 30366 14682 26960 7420 38149 12702 33449 16505 17385 27166 6003 28046 5971 18881 11291 25124 16781 38912 17288 16057
internal_value=-9.19703e-05 0.00485219 -0.0145759 0.00918734 0.00728692 -0.00211351 -0.01001 0.0104347 -0.011809 0.0141111 -0.00529627 -0.00759749 -0.00278635 0.0183965 0.00317643 0.00269702 -0.0261055 -0.00720015 0.00594273 0.00925194 0.000753145 0.0020482 0.00263863 -0.00246666 -0.0215313 0.0153856 -0.012048 -0.016866 0.0104296 0.0123836
internal_weight=98216.4 73221.8 24994.5 45133 37412.5 28088.9 17904.1 22192.5 15674.8 12204.3 17537.3 13321.5 6401.44 7720.51 10551.5 15220 7090.41 8200.8 9988.16 6564.51 12184.6 11080.6 2229.34 5657.41 4275.38 5971.57 6920.08 7473.98 7810.37 6410.39
internal_count=640000 410067 229933 227270 193253 182797 148571 111479 131971 61003 116561 88789 41642 34017 66236 81774 81362 66804 50476 33091 65632 59629 16600 31583 47913 26597 47147 65167 41186 33345
is_linear=0
shrinkage=0.05


Tree=25
num_leaves=31
num_cat=0
split_feature=2 41 41 1 13 11 27 5 5 1 6 6 23 0 39 5 13 11 6 0 13 4 3 4 5 5 11 18 4 4
split_gain=2561.24 794.733 496.121 290.782 210.582 171.283 154.147 136.742 134.152 120.84 104.305 100.15 94.5339 94.8197 92.4104 89.0156 87.1211 79.6764 76.667 69.284 68.0529 67.7929 78.1336 65.9227 72.1809 65.8701 63.6878 61.2291 59.3911 59.2172
threshold=11.240000000000002 44511.500000000007 34486.500000000007 4.0000000000000009 672.50000000000011 20.985000000000003 4.5000000000000009 1.0000000180025095e-35 1.0000000180025095e-35 4.0000000000000009 52997.000000000007 81003.000000000015 25.500000000000004 9012.5000000000018 3.5000000000000004 1.0000000180025095e-35 737.50000000000011 17.405000000000005 60004.000000000007 7012.5000000000009 682.50000000000011 54.500000000000007 248.49500000000003 173760.50000000003 1.5000000000000002 1.0000000180025095e-35 21.285000000000004 5251.5000000000009 49.500000000000007 64.000000000000014
decision_type=2 2 2 2 2 2 2 2 2 2 2 2 2 2 2 2 2 2 2 2 2 2 2 2 2 2 2 2 2 2
left_child=2 3 16 7 17 10 -4 19 18 11 29 -8 13 -12 21 -7 26 -5 -6 -2 -15 28 -23 24 -10 -11 -1 -22 -9 -3
right_child=1 5 6 4 8 15 9 14 23 25 12 -13 -14 20 -16 -17 -18 -19 -20 -21 27 22 -24 -25 -26 -27 -28 -29 -30 -31
leaf_value=-0.024287943131330501 -0.0074062064895891455 0.012279570161452279 -0.015025277729578358 0.013446971826451937 0.0120028105180921 -0.0019125078670688943 -0.0037098431383597893 0.00093462641574319912 0.020132352456450949 0.0009315513541607118 -0.014440118169929426 -0.014727455818674863 -0.01802876625368904 0.0021666034046758488 0.014485935917308793 0.0073375973952563333 -0.032281125036423074 0.024163961888881754 0.0015621139657407582 0.002589498168881408 0.0075245641675825417 -0.0027043095985405893 0.0070644579864656935 0.0044888226580025578 0.0065436004135171885 0.025122396879695554 -0.0098905031376280497 -0.010034207702960176 0.022240748120598234 -0.0017211641038509054
leaf_weight=3190.4252473562956 2373.284891910851 888.58296250551939 7511.3168103694916 2909.0517076253891 2622.2506562620401 4843.3096200376749 5758.7388346791267 484.76874266564846 4208.4024821668863 874.98924514651299 2394.798631079495 3213.6224554851651 1882.5505633503199 3427.860011562705 3805.3803657144308 5617.304854169488 2740.0999572947621 4294.6608282923698 5336.6306912004948 6431.6449962630868 581.97749473899603 3066.4232644513249 6156.5420169085264 1309.1980070024729 1272.8052770197392 414.80489759147167 1011.6817298531532 3379.9322325438261 1005.5050874575973 5032.934241399169
leaf_count=36622 13809 5668 63961 13597 12317 31504 47788 2492 18346 6491 16501 27459 14019 22005 19465 34033 33449 18791 26598 35599 3742 17131 32021 6244 5667 2872 11291 21913 5193 33412
internal_value=-9.01395e-05 0.00460175 -0.0140099 0.00869885 0.012829 -0.0020117 -0.0095826 0.00481138 0.00940665 -0.00559887 -0.00502491 -0.00765601 -0.00776801 -0.00579384 0.00779281 0.00305476 -0.0253447 0.0198362 0.00500206 -0.000104749 -0.00299184 0.00541539 0.00381657 0.0145692 0.0169769 0.00871146 -0.0208217 -0.00745494 0.0153101 0.000379786
internal_weight=98041.5 73325.8 24715.7 45276.5 21953 28049.3 17773.5 23323.5 14749.3 10262.2 17588.6 8972.36 11667.1 9784.57 14518.6 10460.6 6942.21 7203.71 7958.88 8804.93 7389.77 10713.2 9222.97 6790.41 5481.21 1289.79 4202.11 3961.91 1490.27 5921.52
internal_count=640000 410067 229933 227270 101560 182797 148571 125710 69172 84610 117260 75247 78180 64161 76302 65537 81362 32388 38915 49408 47660 56837 49152 30257 24013 9363 47913 25655 7685 39080
is_linear=0
shrinkage=0.05


Tree=26
num_leaves=31
num_cat=0
split_feature=2 41 2 5 41 1 11 39 27 11 4 13 5 4 6 11 0 18 1 1 13 13 23 43 6 1 1 13 3 27
split_gain=2333.49 873.579 315.479 240.467 234.031 194.584 171.42 159.613 118.323 112.951 111.326 102.153 94.3164 89.3508 84.2724 84.2404 78.4876 82.7498 77.5166 70.591 68.6874 66.1584 65.3048 86.7701 62.5832 61.5204 60.0728 58.3444 57.3417 54.858
threshold=10.415000000000001 41323.000000000007 7.2750000000000012 1.0000000180025095e-35 10099.000000000002 4.0000000000000009 22.665000000000003 2.5000000000000004 6.5000000000000009 16.195000000000004 54.500000000000007 682.50000000000011 1.0000000180025095e-35 49.500000000000007 37004.000000000007 28.455000000000002 13187.500000000002 15031.500000000002 4.0000000000000009 4.0000000000000009 722.50000000000011 702.50000000000011 11.500000000000002 14599.000000000002 79009.000000000015 4.0000000000000009 4.0000000000000009 682.50000000000011 102.51500000000001 9.5000000000000018
decision_type=2 2 2 2 2 2 2 2 2 2 2 2 2 2 2 2 2 2 2 2 2 2 2 2 2 2 2 2 2 2
left_child=2 4 20 9 15 7 12 10 14 -3 13 25 -6 -5 -4 -2 -14 -18 21 24 -1 -11 23 -12 -10 -8 -16 -7 -9 -20
right_child=1 3 8 5 6 27 11 28 19 18 22 -13 16 -15 26 -17 17 -19 29 -21 -22 -23 -24 -25 -26 -27 -28 -29 -30 -31
leaf_value=-0.020193854902895603 0.013921066985426937 -0.010404038757376591 -0.0028877639565147457 -0.0061753692612615324 8.953647079895839e-05 0.021384746816521485 0.012075014354028003 -0.012309273325850727 -0.00057895591568850519 -0.0025185821304447159 0.00081051115532028656 0.0066264060168708342 0.0032478025011955696 0.018425501514910309 -0.018226493824572861 0.026349615115988496 0.017257919303146879 0.0037467103196005091 0.0012204959603458556 0.015688554931335048 -0.032314651593350389 -0.013237414765782829 -0.013166524810505457 -0.0095415565203112729 -0.014168159816528199 0.021920849246261451 -0.0049275125099727674 0.0080734620256426928 0.0079254794181118186 0.019120863121030521
leaf_weight=2045.2198342308402 6014.3242934197187 7572.7239183411002 1246.3789117336273 596.43260158598423 8388.621731646359 1220.314013928175 4275.2889928966761 373.86731211096048 1802.725743688643 5756.9774182587862 5110.6754429191351 5639.3382795527577 5690.2802526205778 968.33570097386837 7818.6108588278294 1763.0552788227797 2886.0924700573087 1865.8709330186248 2743.2981467843056 382.54438356310129 2727.7369665205479 1919.5548631697893 2086.1643806248903 3351.7575172260404 1598.5189261734486 2522.7301740348339 952.60148008912802 2529.5421155840158 5511.6636598259211 507.13634516298771
leaf_count=24106 26597 53539 11292 3824 44659 6094 21722 2415 15730 39343 33666 27479 30111 6052 73796 7420 13779 9033 16277 2903 34776 13907 15321 21541 14528 10959 7891 13806 34624 2810
internal_value=-8.81819e-05 0.00364852 -0.0160402 -0.00152055 0.00897683 0.00204386 0.00704626 -0.000114831 -0.0122081 -0.00571097 -0.00339686 0.0116016 0.00403756 0.00904855 -0.0150534 0.0167385 0.00720915 0.0119527 -0.00245853 -0.00467526 -0.0271209 -0.00519888 -0.005243 -0.00328968 -0.00696562 0.0157288 -0.0167822 0.0124053 0.0066401 0.00401333
internal_weight=97868.4 79294 18574.3 40248.4 39045.6 21748.8 31268.2 17998.9 13801.4 18499.7 12113.4 12437.4 18830.9 1564.77 10017.6 7777.38 10442.2 4751.96 10927 3783.79 4772.96 7676.53 10548.6 8462.43 3401.24 6798.02 8771.21 3749.86 5885.53 3250.43
internal_count=640000 454978 185022 263219 191759 137343 157742 117443 126140 125876 80404 60160 97582 9876 92979 34017 52923 22812 72337 33161 58882 53250 70528 55207 30258 32681 81687 19900 37039 19087
is_linear=0
shrinkage=0.05


Tree=27
num_leaves=31
num_cat=0
split_feature=2 41 41 0 6 41 13 5 6 11 1 1 27 6 11 1 5 27 18 0 7 1 4 4 4 39 2 13 4 42
split_gain=2129.33 647.078 441.458 249.796 237.477 158.829 153.634 143.475 133.854 118.049 112.152 98.0092 96.7287 94.6328 83.7395 83.4591 81.2319 79.6495 79.0989 78.7868 73.8753 68.9496 63.0602 61.9317 55.9838 57.6451 54.1595 53.1046 52.3705 52.2781
threshold=11.240000000000002 44511.500000000007 34486.500000000007 9512.5000000000018 89999.500000000015 13405.000000000002 682.50000000000011 1.0000000180025095e-35 61004.500000000007 12.315000000000003 4.0000000000000009 4.0000000000000009 9.5000000000000018 90000.500000000015 21.495000000000001 4.0000000000000009 1.0000000180025095e-35 8.5000000000000018 21766.500000000004 23212.500000000004 1.0000000180025095e-35 4.0000000000000009 200.00000000000003 308.00000000000006 54.500000000000007 3.5000000000000004 6.4250000000000007 737.50000000000011 308.00000000000006 47392.000000000007
decision_type=2 2 2 2 2 2 2 2 2 2 2 2 2 2 2 2 2 2 2 2 2 2 2 2 2 2 2 2 2 2
left_child=2 3 14 8 5 -5 9 21 20 -3 17 24 16 15 26 28 -7 22 19 -6 -2 -4 29 -18 -11 -26 -1 -23 -8 -9
right_child=1 6 7 4 18 12 13 10 -10 11 -12 -13 -14 -15 -16 -17 23 -19 -20 -21 -22 27 -24 -25 25 -27 -28 -29 -30 -31
leaf_value=-0.034198015090964963 -0.0035383213191441201 -0.0056784670844475457 -0.015329357679495196 0.018568825401683319 0.0010955576627448289 0.0043565156248605453 0.0016072157090279639 0.011698403692841728 -0.0081620114778240601 0.013629990670936244 0.01409851797619226 0.018349594854897937 0.019338346000932132 -0.012402413708786105 -0.013282875464628613 0.0041408418394710093 0.01977183778587191 0.0072929286967879578 -0.0020291692064367118 0.013488217220185231 0.0072396216078984207 0.0033688899838545069 -0.010364411420070541 0.0094279573138764967 -0.00079367615125864189 0.010216428640684963 -0.02331954672935611 -0.016650573448416459 -0.0077798240558240583 -0.0069310764321460832
