tree
version=v4
num_class=1
num_tree_per_iteration=1
label_index=0
max_feature_idx=44
objective=binary sigmoid:1
feature_names=loanAmnt term interestRate installment employmentTitle homeOwnership annualIncome verificationStatus purpose postCode regionCode dti delinquency_2years ficoRangeLow ficoRangeHigh openAcc pubRec pubRecBankruptcies revolBal revolUtil totalAcc initialListStatus applicationType title policyCode n0 n1 n2 n3 n4 n5 n6 n7 n8 n9 n10 n11 n12 n13 n14 grade_freq subGrade_freq employmentLength_freq issueDate_freq earliesCreditLine_freq
feature_infos=[500:40000] [3:5] [5.3099999999999996:30.989999999999998] [15.69:1598.26] [0:378351] [0:5] [0:10999200] [0:2] [0:13] [0:940] [0:50] [0:999] [0:27] [660:845] [664:850] [0:82] [0:40] [0:12] [0:2560703] [0:165.80000000000001] [2:162] [0:1] [0:1] [0:61678] none [0:33] [0:33] [0:46] [0:46] [0:49] [0:64] [0:132] [0:67] [1:128] [0:43] [0:82] [0:3] [0:3] [0:26] [0:29] [5364:233690] [645:50763] [30272:262753] [7:29066] [1:5567]
tree_sizes=3409 3510 3527 3502 3522 3537 3531 3521 3510 3535 3540 3531 3538 3539 3548 3550 3534 3538 3547 3555 3531 3561 3551 3559 3559 3560 3556 3547 3567 3558 3561 3545 3546 3549 3576 3571 3573 3567 3552 3546 3550 3567 3565 3568 3575 3555 3558 3575 3574 3569 3571 3571 3570 3569 3572 3566 3573 3576 3563 3571 3568 3580 3570 3559 3545 3568 3582 3567 3577 3585 3583 3586 3578 3581 3581 3576 3586 3577 3570 3559 3575 3566 3575 3580 3559 3572 3570 3573 3588 3586 3585 3567 3582 3578 3574 3568 3569 3581 3561 3580 3582 3566 3578 3584 3580 3565 3574 3596 3566 3610 3583 3573 3601 3580 3568 3600 3575 3584 3566 3583 3561 3578 3574 3585 3569 3578 3563 3586 3590 3566 3589 3572 3560 3603 3603 3531 3548 3553 3554 3572 3579 3581 3554 3585 3550 3558 3566 3568 3544 3547 3580 3572 3594 3550 3590 3549 3568 3525 3584 3572 3570 3569 3556 3577 3578 3580 3533 3563 3561 3566 3581 3568 3577 3542 3588 3568 3563 3451 3582 3553 3572 3592 3519 3521 3568 3547 3559 3546 3501 3563 3533 3515 3563 3539 3530 3569 3565 3498 3566 3517

Tree=0
num_leaves=31
num_cat=0
split_feature=2 41 41 1 1 5 43 40 23 41 5 5 2 2 23 41 2 3 1 11 11 23 1 43 5 13 2 3 11 11
split_gain=29154.8 7100.59 4239.16 1782.58 1626.66 920.483 908.52 742.773 714.967 698.077 673.01 585.942 410.569 366.402 341.815 288.755 271.846 271.738 254.432 219.984 216.175 204.758 200.964 189.065 185.421 180.555 174.561 164.835 163.259 157.26
threshold=13.115 23032.500000000004 45909.500000000007 4.0000000000000009 4.0000000000000009 1.0000000180025095e-35 9655.0000000000018 230404.00000000003 16.000000000000004 34486.500000000007 1.0000000180025095e-35 1.0000000180025095e-35 23.730000000000004 15.915000000000001 16.000000000000004 44511.500000000007 22.720000000000002 180.19500000000002 4.0000000000000009 26.305000000000003 23.785000000000004 11.500000000000002 4.0000000000000009 12552.500000000002 1.0000000180025095e-35 682.50000000000011 15.615 170.87500000000003 22.025000000000002 19.405000000000005
decision_type=2 2 2 2 2 2 2 2 2 2 2 2 2 2 2 2 2 2 2 2 2 2 2 2 2 2 2 2 2 2
left_child=2 4 9 8 12 15 16 22 11 -1 20 26 17 28 25 23 -6 -2 24 -12 -8 -19 -4 -5 -9 29 -3 -15 -13 -7
right_child=1 3 7 5 6 14 10 18 -10 -11 19 13 -14 27 -16 -17 -18 21 -20 -21 -22 -23 -24 -25 -26 -27 -28 -29 -30 -31
leaf_value=-1.4359260718443057 -1.3810824133830033 -1.3934542981930009 -1.3906721237857154 -1.3707812167961579 -1.3532189918141548 -1.3338711739424567 -1.3341185906255069 -1.4133199999918797 -1.4012953694194361 -1.4203068084991362 -1.2992178072895226 -1.3822512449810178 -1.3235563456352204 -1.3798698826284947 -1.3753843790303213 -1.3860186382425517 -1.32372409103454 -1.3478479793131461 -1.3899898252117755 -1.2691425394903222 -1.306886673767292 -1.3802439426859405 -1.3707989215849468 -1.3491069732642493 -1.4024014861944814 -1.3423677592867436 -1.3772745018629022 -1.3515866385707387 -1.3667042299389818 -1.3018979036351819
leaf_weight=12972.38215354085 1032.1880414932966 5177.2303483039141 6246.9495966285467 2407.9064059406519 1816.6701178997755 856.82946659624577 1885.5039483010769 7145.4626588970423 3876.4146902561188 15948.047879844904 1937.5685160756111 4570.5024557411671 1029.6327252835035 629.72573845088482 527.99221184849739 1736.6567790806293 1370.6077320277691 3503.3385236263275 2429.7863009870052 886.05589574575424 1187.9026230275631 566.64136952161789 1597.3920456469059 1728.3520013988018 8530.6037518680096 1948.5883172303438 2458.6933156102896 2831.2903604507446 2677.9713878631592 697.76103253662586
leaf_count=81226 6463 32417 39115 15077 11375 5365 11806 44741 24272 99858 12132 28618 6447 3943 3306 10874 8582 21936 15214 5548 7438 3548 10002 10822 53414 12201 15395 17728 16768 4369
internal_value=-1.38934 -1.3606 -1.41415 -1.37392 -1.33246 -1.35628 -1.31903 -1.39948 -1.38178 -1.42731 -1.3074 -1.37766 -1.35236 -1.37012 -1.33788 -1.36891 -1.34054 -1.35817 -1.40504 -1.28978 -1.32359 -1.35236 -1.38663 -1.36172 -1.40738 -1.33223 -1.38824 -1.35673 -1.37651 -1.31952
internal_weight=102213 47342 54870.6 32125.9 15216.1 9904.09 9084.31 25950.2 22221.8 28920.4 5897.03 18345.4 6131.8 10709.5 4031.17 5872.92 3187.28 5102.17 18105.9 2823.62 3073.41 4069.98 7844.34 4136.26 15676.1 3503.18 7635.92 3461.02 7248.47 1554.59
internal_count=640000 296430 343570 201155 95275 62014 56881 162486 139141 181084 36924 114869 38394 67057 25241 36773 19957 31947 113369 17680 19244 25484 49117 25899 98155 21935 47812 21671 45386 9734
is_linear=0
shrinkage=1


Tree=1
num_leaves=31
num_cat=0
split_feature=2 41 41 1 1 5 43 40 41 23 5 5 2 2 23 41 1 3 2 11 1 5 11 43 11 40 2 27 11 0
split_gain=26243.2 6019.35 4004.2 1553.27 1327.19 778.484 724.978 680.044 677.376 642.31 522.457 518.348 357.829 317.656 286.161 252.438 234.591 234.041 223.662 181.222 179.123 173.202 172.261 171.194 164.537 163.29 159.881 144.983 143.5 141.729
threshold=13.115 23032.500000000004 45909.500000000007 4.0000000000000009 4.0000000000000009 1.0000000180025095e-35 9655.0000000000018 230404.00000000003 34486.500000000007 16.000000000000004 1.0000000180025095e-35 1.0000000180025095e-35 21.075000000000003 15.915000000000001 16.000000000000004 44511.500000000007 4.0000000000000009 124.77500000000002 22.720000000000002 25.235000000000003 4.0000000000000009 1.0000000180025095e-35 23.785000000000004 11029.000000000002 26.305000000000003 183389.50000000003 16.975000000000005 5.5000000000000009 22.025000000000002 4812.5000000000009
decision_type=2 2 2 2 2 2 2 2 2 2 2 2 2 2 2 2 2 2 2 2 2 2 2 2 2 2 2 2 2 2
left_child=2 4 8 9 12 15 18 20 -1 11 22 26 23 28 25 19 21 -14 -6 -5 -4 -9 -8 -2 -12 -7 -3 -23 -13 -15
right_child=1 3 7 5 6 14 10 16 -10 -11 24 13 17 29 -16 -17 -18 -19 -20 -21 -22 27 -24 -25 -26 -27 -28 -29 -30 -31
leaf_value=-0.045558417745316687 0.012657829210964505 -0.0024235601848013894 -0.0012627297924297394 0.019830949254591376 0.03356958774566024 0.065806017554370794 0.050732106129950917 -0.023118616694341051 -0.029986336434122005 -0.011438038144066744 0.081097039412713956 0.0067087789521319777 0.0064608623332089417 0.0093916601462430693 0.013148378807140766 0.00315264899577375 -0.00061375454305118886 0.05606747520039651 0.059907844790685186 0.043856862820510489 0.017418429335786311 -0.017541855424301974 0.074532121195509005 0.033786229548687867 0.10628192154375316 0.043998463353881107 0.016133221772899303 -0.0040025425574277719 0.021211295712311808 0.035153969547034918
leaf_weight=12609.930864214897 1597.9646237939596 6213.6125776767731 6241.963821426034 3160.8574202805758 1856.1519179493189 1396.8922234922647 1948.1725096702576 7042.5986186116934 15651.651641070843 3848.5847852230072 2042.7086917161942 4589.9891233742237 269.77706676721573 655.69469240307808 532.42378503084183 1740.1278977096081 2428.8432029187679 2003.9069755673409 1424.7458379864693 1044.121051967144 1615.2057735621929 5315.2015014886856 1246.8747363984585 2396.6212476789951 950.1833792924881 2226.7121732383966 1427.3654041439295 3148.4931384027004 2714.4335975646973 2873.2236149013042
leaf_count=81226 9857 38939 39115 19475 11375 8444 11806 44741 99858 24272 12132 28618 1659 4080 3306 10874 15214 12184 8582 6424 10002 33544 7438 14694 5548 13491 8873 19870 16768 17591
internal_value=-1.96341e-05 0.0268206 -0.0239339 0.0145059 0.0521933 0.0307745 0.0640074 -0.0096887 -0.0369344 0.00714431 0.0740815 0.0110154 0.034347 0.0180492 0.0473761 0.0191688 -0.0150624 0.0501816 0.0450071 0.0257967 0.00257757 -0.0173256 0.0600201 0.0253342 0.0890927 0.0524052 0.00104292 -0.0125052 0.0120981 0.0303672
internal_weight=102215 48161.1 54053.9 32424 15737.1 10101.1 9468.84 25792.3 28261.6 22322.9 6187.94 18474.3 6268.27 10833.3 4156.03 5945.11 17935.1 2273.68 3280.9 4204.98 7857.17 15506.3 3195.05 3994.59 2992.89 3623.6 7640.98 8463.69 7304.42 3528.92
internal_count=640000 296430 343570 201155 95275 62014 56881 162486 181084 139141 36924 114869 38394 67057 25241 36773 113369 13843 19957 25899 49117 98155 19244 24551 17680 21935 47812 53414 45386 21671
is_linear=0
shrinkage=0.05


Tree=2
num_leaves=31
num_cat=0
split_feature=2 41 41 1 1 5 41 41 40 43 11 5 3 43 43 2 1 5 41 2 2 11 6 1 5 21 6 5 41 11
split_gain=23650.6 5145.69 3780.25 1600.44 798.58 773.185 696.436 657.519 622.353 570.824 382.929 373.641 272.314 268.413 259.9 227.348 216.166 199.83 192.318 172.387 172.139 171.433 169.384 159.793 159.468 139.692 135.159 127.385 126.876 126.617
threshold=13.115 19488.500000000004 45909.500000000007 4.0000000000000009 4.0000000000000009 1.0000000180025095e-35 44511.500000000007 34486.500000000007 230404.00000000003 9446.5000000000018 19.205000000000002 1.0000000180025095e-35 173.45500000000001 11916.000000000002 11403.500000000002 21.195000000000004 4.0000000000000009 1.0000000180025095e-35 48782.500000000007 14.100000000000001 21.195000000000004 19.305000000000003 68728.000000000015 4.0000000000000009 1.0000000180025095e-35 1.0000000180025095e-35 64004.500000000007 1.0000000180025095e-35 44511.500000000007 26.745000000000001
decision_type=2 2 2 2 2 2 2 2 2 2 2 2 2 2 2 2 2 2 2 2 2 2 2 2 2 2 2 2 2 2
left_child=2 4 7 6 12 14 10 -1 23 20 24 26 -2 25 28 -14 21 -12 19 -8 -6 -10 -15 -4 -3 -7 -11 -9 -5 -16
right_child=1 3 8 5 9 13 18 27 16 11 17 -13 15 22 29 -17 -18 -19 -20 -21 -22 -23 -24 -25 -26 -27 -28 -29 -30 -31
leaf_value=-0.044558622706423523 0.010535314399273691 -0.0028873782881295648 -0.0012005293865931831 0.017088392490488321 0.02285103023476898 0.043827780626505095 0.004495047251123329 -0.033299799389799517 -0.021000591701790149 0.070658372842326456 0.012230303922409603 0.082617541868058891 0.029701566427432741 0.070183977397693886 0.025114982041737101 0.053873785723137779 -0.00058329100981861369 0.028377452783326013 -0.019234937288475112 -0.014104949006847346 0.050114899005017047 -0.010234467656555892 0.042253921387540944 0.016373227829716171 0.011776234329498043 0.020033529439412813 0.048691102552178171 -0.024175702481562509 -0.0024471601631577086 0.050143701685254685
leaf_weight=12257.249614685774 907.00515681505203 3027.7116272002459 6237.2240126878023 2684.1746833175421 822.38672763109207 1622.6547439545393 4966.513296186924 8177.5804026424885 9128.1565826833248 1141.6023564040661 3265.8953390419483 2826.4676374793053 2091.4527635872364 1286.7404712736607 2150.782665386796 1818.5670165717602 2427.9470330476761 4635.8526845127344 1652.5759725272655 1662.7769786268473 1955.8654321432114 6215.1604759544134 938.95483060181141 1631.9529611170292 4783.2189827263355 995.1154441088438 1811.0612270832062 7187.8692887127399 1203.911685526371 660.47909496724606
leaf_count=81226 5527 18882 39115 16331 4942 9564 30894 53145 58404 6631 20333 15918 12607 7491 13037 10693 15214 28285 10422 10462 11495 39751 5490 10002 29430 5984 10564 46713 7509 3939
internal_value=-3.57985e-05 0.0250672 -0.023088 0.0151182 0.0515029 0.0304167 0.00775872 -0.0359215 -0.0092623 0.0606695 0.0139431 0.0696233 0.0352184 0.0456359 0.0194135 0.0409442 -0.0144459 0.0217036 -0.00397445 -0.000170255 0.0420446 -0.0166395 0.0584011 0.00244401 0.00609225 0.0347827 0.0571844 -0.0290316 0.0110394 0.0309952
internal_weight=102175 48911.8 53263.1 35537.4 13374.4 11542.8 23994.5 27622.7 25640.4 8557.38 15712.7 5779.13 4817.02 4843.47 6699.35 3910.02 17771.3 7901.75 8281.87 6629.29 2778.25 15343.3 2225.7 7869.18 7810.93 2617.77 2952.66 15365.4 3888.09 2811.26
internal_count=640000 296430 343570 218053 78377 69345 148708 181084 162486 49550 96930 33113 28827 28529 40816 23300 113369 48618 51778 41356 16437 98155 12981 49117 48312 15548 17195 99858 23840 16976
is_linear=0
shrinkage=0.05


Tree=3
num_leaves=31
num_cat=0
split_feature=2 41 41 1 1 41 5 40 5 4 23 23 2 5 43 11 3 41 41 3 11 5 13 5 1 23 6 5 5 11
split_gain=21334.6 4459.29 3566.99 1622.45 802.325 637.419 626.091 566.602 412.843 398.689 396.405 395.721 337.233 324.729 286.884 202.295 187.408 177.95 167.881 154.29 149.412 148.453 143.594 143.561 152.791 143.157 132.61 126.573 122.118 117.6
threshold=13.115 28533.000000000004 44511.500000000007 4.0000000000000009 4.0000000000000009 34486.500000000007 1.0000000180025095e-35 230404.00000000003 1.0000000180025095e-35 186904.50000000003 16.000000000000004 16.000000000000004 19.98 1.0000000180025095e-35 9655.0000000000018 19.305000000000003 170.87500000000003 8963.0000000000018 10099.000000000002 173.45500000000001 21.275000000000002 1.0000000180025095e-35 702.50000000000011 1.0000000180025095e-35 4.0000000000000009 16.000000000000004 72002.500000000015 1.0000000180025095e-35 1.0000000180025095e-35 21.915000000000003
decision_type=2 2 2 2 2 2 2 2 2 2 2 2 2 2 2 2 2 2 2 2 2 2 2 2 2 2 2 2 2 2
left_child=2 3 5 10 11 -1 14 23 22 17 12 13 19 -3 -5 -9 -14 -8 -16 -2 -15 -18 -6 -4 -25 -10 -20 -21 -7 -19
right_child=1 4 7 6 8 28 9 15 25 -11 -12 -13 16 20 18 -17 21 29 26 27 -22 -23 -24 24 -26 -27 -28 -29 -30 -31
leaf_value=-0.043580041998457365 0.0045584151717865543 -0.0018515645206106373 -0.0049987710061091904 0.026657364117776472 0.019677788578137453 -0.032335868106601072 0.084236699591150738 -0.018258119133519667 0.040067236412636757 0.036292703419948363 0.00044609864001940127 -0.012459248766538974 0.015764596824788306 0.0077291016484157538 0.062817344283492962 -0.0073366199070497799 0.032279616031473883 0.054743771731296603 0.0524817671738039 0.016105157901137031 0.021013027664664129 0.056456014987751962 0.0018074356886574267 0.0046005383509469941 0.03147080707718556 0.0094135070784430227 0.030732215297453687 0.032114500582795989 -0.023317668152268281 0.073368772625369727
leaf_weight=11914.628891766071 1045.9916957467794 6187.7806670069695 3652.6335884928703 2276.1999047547579 3043.3112741261721 8002.0143392682076 1450.0753970146179 10504.775693565607 2872.1547069251537 1105.0593632608652 1401.5465789288282 3195.3320145457983 566.78182113170624 5234.7328583151102 1402.4861231297255 7109.505410656333 1016.4926283359528 1839.0797141194344 1404.4371403455734 2074.9503895491362 3553.8076358437538 1691.6911698877811 1782.5309877097607 3624.6586160063744 619.45936997234821 439.10727292299271 1398.919465303421 3048.5314268171787 7071.0398051142693 1571.9488696008921
leaf_count=81226 6392 38747 22714 13313 18425 53098 7916 67768 16473 6365 8644 20361 3421 32213 7907 45601 5889 10253 8028 12594 21441 9775 10859 22750 3761 2667 8075 18058 46652 8614
internal_value=-4.91824e-05 0.0234643 -0.0222656 0.0393964 0.00935764 -0.0349371 0.0517137 -0.0088607 0.022406 0.0634018 0.0252597 0.00351468 0.028942 0.00692286 0.0409558 -0.01385 0.0419098 0.0695644 0.0486941 0.0220582 0.0131007 0.0473816 0.013077 0.00226822 0.00852245 0.0360022 0.0416284 0.0256309 -0.0281053 0.063327
internal_weight=102102 49602.9 52498.7 23294.2 26308.8 26987.7 12448.2 25511 8137.1 5966.16 10846 18171.7 9444.44 14976.3 6482.04 17614.3 3274.97 4861.1 4205.84 6169.47 8788.54 2708.18 4825.84 7896.75 4244.12 3311.26 2803.36 5123.48 15073.1 3411.03
internal_count=640000 296430 343570 135244 161186 180976 70471 162594 48424 33148 64773 112762 56129 92401 37323 113369 19085 26783 24010 37044 53654 15664 29284 49225 26511 19140 16103 30652 99750 18867
is_linear=0
shrinkage=0.05


Tree=4
num_leaves=31
num_cat=0
split_feature=2 41 41 1 1 41 40 41 5 43 5 11 3 2 43 1 23 41 5 5 11 2 11 1 27 13 11 6 5 6
split_gain=19260.9 3869.27 3363.82 1035.72 776.517 619.527 520.557 510.418 486.288 438.418 370.509 286.767 246.621 223.165 204.372 201.087 186.811 167.673 167.439 165.358 162.974 147.689 145.321 134.94 133.301 132.304 125.429 120.372 115.904 115.525
threshold=13.115 23032.500000000004 45909.500000000007 4.0000000000000009 4.0000000000000009 34486.500000000007 230404.00000000003 44511.500000000007 1.0000000180025095e-35 7739.5000000000009 1.0000000180025095e-35 17.045000000000005 180.19500000000002 21.465000000000003 11916.000000000002 4.0000000000000009 16.000000000000004 48782.500000000007 1.0000000180025095e-35 1.0000000180025095e-35 22.885000000000002 14.100000000000001 24.385000000000002 4.0000000000000009 5.5000000000000009 692.50000000000011 22.025000000000002 60909.000000000007 1.0000000180025095e-35 65002.000000000007
decision_type=2 2 2 2 2 2 2 2 2 2 2 2 2 2 2 2 2 2 2 2 2 2 2 2 2 2 2 2 2 2
left_child=2 4 5 7 12 -1 23 11 14 29 20 -3 -2 -14 27 19 25 21 -13 -8 -11 -9 -12 -4 -21 26 -10 -5 -7 -6
right_child=1 3 6 8 9 28 15 17 16 10 22 18 13 -15 -16 -17 -18 -19 -20 24 -22 -23 -24 -25 -26 -27 -28 -29 -30 -31
leaf_value=-0.042620371607181295 0.0081501199519056385 0.003234932437409457 -0.0011698672371620016 0.0217790498999311 0.042740023989656907 -0.031355523724255888 -0.021181568920012734 0.0039177404448829996 0.040162825357281273 0.036408991875003974 0.058680053987326487 0.0091622273905577305 0.025532631637815481 0.047283385163856544 0.027022717580390727 0.00014645230872695328 0.010149026884282342 -0.018265939400581039 0.023476426779124825 -0.015573852812698727 0.05631727678179077 -0.013355679690200701 0.078337899687805246 0.014886712008299866 -0.0024360828981207713 0.030279231720885397 0.064354428906022165 0.0023109549883838605 -0.022497797209326334 0.019654720151112838
leaf_weight=11582.269615501165 1267.4409137517214 5875.9968443661928 6234.8662416785955 1154.2793108522892 983.24045556783676 7846.4259591847658 6814.6077188104391 4998.8111346513033 1478.5710784494877 2429.104324862361 2499.40920779109 3458.696373090148 3587.7089740633965 1756.7162458747625 2443.3239856213331 2406.5817920267582 549.17732028663158 1627.3550214916468 4991.0962686985731 5156.6404592394829 1782.2350787222385 1644.5787765234709 1507.0081574469805 1656.0609583258629 3086.3959514498711 1611.951977327466 840.32647506892681 2543.8380649983883 6977.059632346034 1207.4381665736437
leaf_count=81226 7632 36149 39115 6975 5594 53145 44741 30894 8261 13589 13289 21450 20980 9782 14393 15214 3306 10422 29764 33544 9723 10462 7801 10002 19870 9061 4613 15405 46713 6885
internal_value=-6.03826e-05 0.0219939 -0.021466 0.0120613 0.0413792 -0.0339562 -0.00845823 0.00600824 0.0249389 0.0498911 0.0551894 0.0117181 0.0279795 0.0326821 0.0158013 -0.0132739 0.0374651 -0.00388183 0.0176173 -0.0154189 0.0448342 -0.000358314 0.0660743 0.00219991 -0.0106547 0.0412814 0.0489294 0.00838746 -0.0271864 0.0300161
internal_weight=101999 50238.3 51760.9 33218 17020.3 26405.8 25355.2 22596.5 10621.5 10408.4 8217.76 14325.8 6611.87 5344.43 6141.44 17464.2 4480.03 8270.74 8449.79 15057.6 4211.34 6643.39 4006.42 7890.93 8243.04 3930.85 2318.9 3698.12 14823.5 2190.68
internal_count=640000 296430 343570 201155 95275 181084 162486 139141 62014 56881 44402 87363 38394 30762 36773 113369 25241 51778 51214 98155 23312 41356 21090 49117 53414 21935 12874 22380 99858 12479
is_linear=0
shrinkage=0.05


Tree=5
num_leaves=31
num_cat=0
split_feature=2 41 41 1 1 41 43 23 5 41 5 23 5 5 6 2 1 11 5 13 2 11 3 43 11 11 4 11 11 34
split_gain=17408.7 4346.53 2275.39 1177.87 793.812 504.038 483.736 462.453 380.706 373.918 359.092 335.644 267.812 266.313 223.926 214.897 189.879 176.875 156.521 144.612 143.437 136.747 135.141 128.59 127.669 122.465 118.33 118.245 112.889 107.734
threshold=12.510000000000002 28533.000000000004 43304.500000000007 4.0000000000000009 4.0000000000000009 48782.500000000007 11403.500000000002 16.000000000000004 1.0000000180025095e-35 26218.500000000004 1.0000000180025095e-35 16.000000000000004 1.0000000180025095e-35 1.0000000180025095e-35 60004.000000000007 21.075000000000003 4.0000000000000009 16.775000000000002 1.0000000180025095e-35 702.50000000000011 22.370000000000005 19.305000000000003 180.19500000000002 11916.000000000002 21.805000000000003 23.115000000000006 54.500000000000007 24.265000000000004 22.765000000000004 5.5000000000000009
decision_type=2 2 2 2 2 2 2 2 2 2 2 2 2 2 2 2 2 2 2 2 2 2 2 2 2 2 2 2 2 2
left_child=2 3 9 11 7 28 14 10 19 -1 21 12 22 25 -5 24 18 -12 -7 27 -16 -3 -2 -10 -14 -8 -19 -6 -4 -20
right_child=1 4 5 6 8 16 13 -9 23 -11 17 -13 15 -15 20 -17 -18 26 29 -21 -22 -23 -24 -25 -26 -27 -28 -29 -30 -31
leaf_value=-0.04427161307830408 -0.0070775627792037405 -0.0099310407264224434 -0.023699386812982802 0.046070162015208686 0.011510737124259075 -0.015747581648977448 0.035609167698228555 -0.014107303754523856 0.022133470426743754 -0.030405126139180297 0.0030145353522023992 -0.00041407342247332411 0.019306874593069165 0.063552351129660498 0.018977593447142699 0.048540216959221331 0.0079813399459058316 0.032125920150482788 -0.0088676200889560852 0.00025772279869164136 0.038983359925894412 0.0030928114012726431 0.019153989462858435 0.04032306265301995 0.036236328210817674 0.054646787238428821 0.012905267418795139 0.033246027802035033 -0.01200124062584886 0.0047089335398272179
leaf_weight=7831.0247700214386 583.18213334679604 4073.1249606907368 8355.2794969379902 2471.1724627017975 2692.8991300314665 4682.6090692430735 1959.2442094832659 3986.066163957119 2119.63148188591 12821.397460848093 4807.8840888142586 1419.2413439303637 2555.1854257285595 3393.9638680666685 2317.2958102226257 1496.4164201915264 1979.9777439683676 933.0971697717905 3780.9221217930317 2221.408646389842 1460.7468257248402 3989.6410637944937 3106.1274793744087 1793.9955634921789 1973.9306674599648 1485.0320923924446 5645.8311498761177 815.15168526768684 2738.1773261278868 2381.6513181179762
leaf_count=56489 3526 25654 55995 13506 16073 30825 10801 25772 12039 89128 29641 8661 14888 17291 13093 8233 12330 5616 24589 13437 7878 24941 18115 9905 11367 7902 34033 4782 18234 15256
internal_value=-6.95346e-05 0.01816 -0.0235053 0.0342529 0.00637605 -0.0130077 0.0444229 0.00140757 0.018451 -0.035663 0.00458724 0.0222988 0.0256169 0.0536123 0.0343673 0.0321129 -0.0062572 0.0103041 -0.0088567 0.0102401 0.0267126 -0.00348654 0.0150075 0.0304715 0.0266853 0.0438174 0.0156314 0.0165613 -0.020812 -0.00362069
internal_weight=101871 57300.3 44571 24221.5 33078.7 23918.6 13087.5 23435.6 9643.09 20652.4 19449.6 11134.1 9714.84 6838.24 6249.22 6025.53 12825.2 11386.8 10845.2 5729.46 3778.04 8062.77 3689.31 3913.63 4529.12 3444.28 6578.93 3508.05 11093.5 6162.57
internal_count=640000 337154 302846 135261 201893 157229 70471 145657 56236 145617 119885 64790 56129 35994 34477 34488 83000 69290 70670 34292 20971 50595 21641 21944 26255 18703 39649 20855 74229 39845
is_linear=0
shrinkage=0.05


Tree=6
num_leaves=31
num_cat=0
split_feature=2 40 40 1 41 1 6 23 11 5 43 5 2 1 2 4 41 23 13 3 2 5 1 11 27 11 13 2 11 5
split_gain=15788.1 3849.25 2178.88 1253.75 677.601 567.973 497.273 377.313 338.879 298 275.008 268.075 190.502 172.168 168.495 166.817 172.244 163.407 158.523 157.741 148.074 143.861 143.822 137.594 118.764 118.005 115.407 111.385 108.731 106.795
threshold=12.510000000000002 183389.50000000003 183389.50000000003 4.0000000000000009 48782.500000000007 4.0000000000000009 75002.000000000015 16.000000000000004 21.695000000000004 1.0000000180025095e-35 11916.000000000002 1.0000000180025095e-35 6.9000000000000012 4.0000000000000009 18.930000000000003 178727.00000000003 10099.000000000002 16.000000000000004 682.50000000000011 163.68000000000004 22.760000000000002 1.0000000180025095e-35 4.0000000000000009 16.775000000000002 8.5000000000000018 18.535000000000004 682.50000000000011 19.525000000000002 19.305000000000003 1.0000000180025095e-35
decision_type=2 2 2 2 2 2 2 2 2 2 2 2 2 2 2 2 2 2 2 2 2 2 2 2 2 2 2 2 2 2
left_child=2 3 12 8 22 7 10 9 17 28 20 24 -1 21 -10 16 -8 19 -12 -2 -5 -6 25 -11 -7 -4 -25 -21 -3 -15
right_child=1 5 4 6 13 11 15 -9 14 23 18 -13 -14 29 -16 -17 -18 -19 -20 27 -22 -23 -24 26 -26 -27 -28 -29 -30 -31
leaf_value=-0.04532757630717231 -0.0013697869900541517 -0.010992863089006953 -0.027014153160287737 0.032055743075942743 -0.015112903295990871 0.0044180802590683506 0.047259067267260042 -0.014997028108291939 0.021224976642696753 0.0016317155875062838 0.063765970902298227 0.02613980217709394 -0.033715863979796992 -0.0011558263044798985 0.038205385886524341 0.011899687611422634 0.026373309090113945 -0.0035154327582521804 0.045294987657065806 0.014745284764613079 0.052036875075879722 -0.0034483135916025098 -0.0082630747347929284 0.01963433060197111 0.025068091011026861 -0.017673992234771015 0.0053384329523568294 0.030400155813774365 0.0013691900612875013 0.022968956489357067
leaf_weight=5526.5178743153811 1118.379565641284 3632.2641845345497 8238.7760892510414 2939.6981590688229 4636.4974084943533 4147.5912358909845 1448.6824215501547 3563.6451804935932 3499.289111495018 4263.9057947397232 2702.5455436557531 3371.3385025411844 9788.2440568357706 1271.8920924216509 2508.0218461453915 1175.894736751914 3098.5501137971878 1314.1835365146399 2037.2160934507847 3988.6314066797495 1354.4036190807819 6148.6656617969275 1827.0251048654318 3279.925647854805 836.75120887160301 5736.093594416976 2478.5141771286726 1588.8389430493116 3485.7256429344416 717.53092576563358
leaf_count=41070 6723 23044 56727 16132 30825 24798 7488 23303 20455 26313 13780 18687 70600 7903 14027 6546 16800 8119 10476 23454 7041 39845 12304 19655 4959 39145 14886 8667 21801 4427
internal_value=-7.72898e-05 0.0170827 -0.0226885 0.0300458 -0.014533 0.00424691 0.0402179 -0.0001938 0.0193371 0.00288394 0.0475233 0.0152503 -0.0379061 -0.00596987 0.0283142 0.0286863 0.0330272 0.0126045 0.0558269 0.0157684 0.038358 -0.00846287 -0.0214557 0.00843994 0.00788472 -0.0231804 0.0134812 0.0192048 -0.00493909 0.00754533
internal_weight=101725 57834 43891.2 28774.3 28576.5 29059.7 14757 20704 14017.3 17140.3 9033.86 8355.68 15314.8 12774.6 6007.31 5723.13 4547.23 8010.03 4739.76 6695.85 4294.1 10785.2 15801.9 10022.3 4984.34 13974.9 5758.44 5577.47 7117.99 1989.42
internal_count=640000 337154 302846 159708 191176 177446 78263 129002 81445 105699 47429 48444 111670 83000 34482 30834 24288 46963 24256 38844 23173 70670 108176 60854 29757 95872 34541 32121 44845 12330
is_linear=0
shrinkage=0.05


Tree=7
num_leaves=31
num_cat=0
split_feature=2 40 40 1 41 41 5 1 11 2 4 11 5 5 2 13 43 27 2 27 5 3 1 34 1 5 6 40 2 27
split_gain=14323.4 3383.41 2073.63 1085.86 628.954 510.423 442.26 410.009 297.059 246.229 243.002 217.229 207.76 204.542 187.201 182.575 174.201 169.47 167.007 144.409 142.559 139.322 134.498 127.386 116.245 115.488 109.29 108.39 107.516 91.5377
threshold=12.510000000000002 183389.50000000003 183389.50000000003 4.0000000000000009 48782.500000000007 48782.500000000007 1.0000000180025095e-35 4.0000000000000009 23.675000000000004 12.815000000000001 186904.50000000003 17.785000000000004 1.0000000180025095e-35 1.0000000180025095e-35 6.9000000000000012 687.50000000000011 7739.5000000000009 5.5000000000000009 19.98 5.5000000000000009 1.5000000000000002 279.72500000000008 4.0000000000000009 7.5000000000000009 4.0000000000000009 1.0000000180025095e-35 60909.000000000007 37357.000000000007 19.525000000000002 6.5000000000000009
decision_type=2 2 2 2 2 2 2 2 2 2 2 2 2 2 2 2 2 2 2 2 2 2 2 2 2 2 2 2 2 2
left_child=2 3 14 8 22 7 11 12 16 -7 20 -5 -3 26 -1 -13 -2 -6 -10 -14 23 -18 25 27 -19 -4 -9 -8 -23 -27
right_child=1 5 4 6 17 9 10 13 18 -11 -12 15 19 -15 -16 -17 21 24 -20 -21 -22 28 -24 -25 -26 29 -28 -29 -30 -31
leaf_value=-0.044456164348769873 0.00067304490574736494 -0.0041081593449274374 -0.027004364177146863 0.018867018718103468 -0.010587858802600356 0.0050341513589327157 0.067193418407782313 0.022242812162764448 0.021967716483156784 -0.016866344991216465 0.026462962831007332 0.044052328570404031 0.002407885297522663 0.026890025971999767 -0.032782959645953812 0.024075729283196397 0.0074124664914339555 -0.0020476800573913539 0.041805574794206525 0.014959955195406265 0.035835678819285059 0.017398762501393966 -0.0078924513893400931 0.068824455253839109 0.01840211123226888 -0.021120506190195773 0.0048839444439677249 0.045378975943505193 0.035224685521283126 -0.0078273496373884952
leaf_weight=5357.4242855459452 2247.2067931592464 6492.6510300040245 6792.9533882141113 3074.1167464852333 7402.5242600142956 1949.2583644837141 716.14860343933105 1288.9023396521807 3585.8985130041838 3757.3284851759672 1263.6556187421083 2813.7262549251318 5653.9408374279737 3069.5620080828667 9569.0917250365019 1927.1394237875938 2528.8450515270233 4501.9172266423702 1506.6966420710087 3852.9140015989542 1282.9976738393307 3137.2991124391556 1817.4308200180531 1183.9042080640793 821.77698467671871 5254.6295924931765 3058.0080745965242 2779.4431588053703 1158.1432132422924 1718.6034408211708
leaf_count=41070 13415 41051 47785 16746 48492 12100 3471 7590 20622 24269 6763 14810 34394 16676 70600 10302 14774 29443 8136 23217 6388 18280 12304 5852 5065 36310 18149 13931 6218 11777
internal_value=-8.37047e-05 0.0160826 -0.0218927 0.0281078 -0.0139418 0.00402319 0.0374636 0.00729097 0.0181727 -0.00938556 0.0463798 0.0292192 0.00278637 0.0170087 -0.0369727 0.0359319 0.0127474 -0.00569477 0.027837 0.00749496 0.0506009 0.0167234 -0.0206766 0.0546491 0.00110899 -0.0223644 0.010031 0.0498481 0.022205 -0.0178443
internal_weight=101564 58327.8 43236.4 29205.2 28309.8 29122.6 15041.1 23416 14164.1 5706.59 7226.15 7814.98 15999.5 7416.47 14926.5 4740.87 9071.49 12726.2 5092.6 9506.85 5962.49 6824.29 15583.6 4679.5 5323.69 13766.2 4346.91 3495.59 4295.44 6973.23
internal_count=640000 337154 302846 159708 191176 177446 78263 141077 81445 36369 36405 41858 98662 42415 111670 25112 52687 83000 28758 57611 29642 39272 108176 23254 34508 95872 25739 17402 24498 48087
is_linear=0
shrinkage=0.05


Tree=8
num_leaves=31
num_cat=0
split_feature=2 40 40 1 41 23 6 1 3 23 5 5 43 5 41 2 2 43 27 11 0 27 4 6 27 1 11 2 11 41
split_gain=12998.3 2981.1 1971.95 944.963 583.428 474.978 421.233 372.094 273.27 255.756 246.752 225.12 214.386 199.04 194.39 183.923 174.624 154.623 154.423 134.923 134.205 120.867 111.183 110.423 105.308 103.786 99.066 98.5924 97.4642 95.3432
threshold=12.510000000000002 183389.50000000003 183389.50000000003 4.0000000000000009 48782.500000000007 16.000000000000004 60909.000000000007 4.0000000000000009 170.87500000000003 16.000000000000004 1.0000000180025095e-35 1.0000000180025095e-35 9655.0000000000018 1.0000000180025095e-35 10099.000000000002 6.9000000000000012 17.98 2662.0000000000005 5.5000000000000009 20.275000000000002 3512.5000000000005 7.5000000000000009 54.500000000000007 82020.000000000015 8.5000000000000018 4.0000000000000009 19.305000000000003 22.720000000000002 21.805000000000003 8963.0000000000018
decision_type=2 2 2 2 2 2 2 2 2 2 2 2 2 2 2 2 2 2 2 2 2 2 2 2 2 2 2 2 2 2
left_child=2 3 15 8 19 7 17 10 -2 11 26 -10 27 24 -14 -1 -13 -5 -6 -4 -12 29 -22 -7 -9 -20 -3 -8 -18 -19
right_child=1 5 4 6 18 23 12 13 9 -11 20 16 14 -15 -16 -17 28 21 25 -21 22 -23 -24 -25 -26 -27 -28 -29 -30 -31
leaf_value=-0.043598080722459895 0.0015782382800731702 -0.010312249458628762 -0.02323511232784202 0.01161264086442783 -0.010126975415723057 -0.006199726142723158 0.011198727302716045 0.0054561207419998557 0.013833341198554601 0.00088642724325688768 -0.0092102058436520154 0.019344186881617351 0.047198412113913214 0.02606038541948677 0.027407591095532532 -0.031865052790631267 0.028591308069652835 0.054546752254399214 -0.0019478440620467647 -0.013303099367056051 0.023907052392608062 0.059106257551125599 0.0074926020499686379 -0.023776832756538233 0.026211459917968707 0.017288620559254897 0.0015207612791979057 0.030213845802042325 0.045132655488265727 0.03829019998295996
leaf_weight=5193.9026234000921 2368.4760359525681 3597.6583383977413 10240.32538241148 334.35864350199699 7353.7217360436916 3657.5694131702185 2108.9279446005821 3422.2495031952858 4106.1029627472162 1502.7461241185665 1053.4117051959038 2732.8716541528702 1809.2694818228483 2995.7882423251867 3948.6562126278877 9357.9422057121992 1957.5143798738718 1226.2116905599833 4496.1783204376698 5133.5862421989441 1187.4616606235504 1455.2635076344013 7861.4951726049185 1182.3716902136803 744.0048949867487 830.73084722459316 3479.4419576823711 1007.2788576483727 1633.7503781318665 3410.4867802262306
leaf_count=41070 14029 23044 72406 1799 48492 23592 11624 20235 23487 9179 6352 15448 8877 16004 20359 70600 10636 5973 29443 35770 7096 7203 47406 7597 4319 5065 21801 5175 8666 17253
internal_value=-8.88845e-05 0.0151525 -0.0211173 0.0263321 -0.0133702 0.00381191 0.034969 0.00665637 0.0170919 0.0201711 0.00266487 0.0229496 0.0279091 0.0162307 0.0336263 -0.0360529 0.0288685 0.044718 -0.00543085 -0.0199187 0.00768034 0.046535 0.00964661 -0.0104937 0.00916259 0.00105208 -0.00449457 0.0173452 0.0361164 0.0425894
internal_weight=101390 58783.4 42606.4 29601.9 28054.5 29181.5 15300.5 24341.5 14301.5 11933 17179.5 10430.2 8874.13 7162.04 5757.93 14551.8 6324.14 6426.32 12680.6 15373.9 10102.4 6091.96 9048.96 4839.94 4166.25 5326.91 7077.1 3116.21 3591.26 4636.7
internal_count=640000 337154 302846 159708 191176 177446 78263 146257 81445 67416 105699 58237 46035 40558 29236 111670 34750 32228 83000 108176 60854 30429 54502 31189 24554 34508 44845 16799 19302 23226
is_linear=0
shrinkage=0.05


Tree=9
num_leaves=31
num_cat=0
split_feature=2 40 40 41 41 41 0 11 6 1 40 2 2 43 23 5 1 6 11 1 6 1 0 5 5 5 5 43 11 13
split_gain=11798.2 2632.35 1873.74 830.533 540.672 445.476 372.84 300.255 281.768 238.474 222.947 180.637 173.452 169.126 167.935 156.76 150.964 140.751 134.149 127.667 125.166 123.061 112.959 130.297 111.584 110.897 106.81 95.2532 90.0343 86.6112
threshold=12.510000000000002 183389.50000000003 183389.50000000003 13405.000000000002 48782.500000000007 45909.500000000007 7812.5000000000009 24.385000000000002 66003.500000000015 4.0000000000000009 230404.00000000003 6.9000000000000012 13.600000000000001 3891.0000000000005 6.5000000000000009 1.0000000180025095e-35 4.0000000000000009 70002.000000000015 17.045000000000005 4.0000000000000009 36502.000000000007 4.0000000000000009 3987.5000000000005 1.0000000180025095e-35 1.0000000180025095e-35 1.0000000180025095e-35 1.0000000180025095e-35 11916.000000000002 21.165000000000003 682.50000000000011
decision_type=2 2 2 2 2 2 2 2 2 2 2 2 2 2 2 2 2 2 2 2 2 2 2 2 2 2 2 2 2 2
left_child=2 3 11 7 19 9 20 14 21 18 12 -1 22 -10 26 -6 28 -11 -3 25 -5 -8 -7 -24 -15 -4 -2 -23 -17 -20
right_child=1 5 4 6 15 10 8 -9 13 17 -12 -13 -14 24 -16 16 -18 -19 29 -21 -22 27 23 -25 -26 -27 -28 -29 -30 -31
leaf_value=-0.042751625355217981 0.02627419625501037 -0.001975590426437847 -0.025479764914444421 0.016535665752924891 -0.011197474774659225 -0.017401459053554995 0.022604620640140859 0.047402514031784665 -0.011718371700139748 0.024454980844097252 -0.0191267337180407 -0.03096168151168683 -0.012695976364455075 0.011738675910379356 0.01528414364415012 -0.007021176115784615 0.021502238126366396 0.00917710290661947 0.013914092632234105 -0.006618945281310594 -0.0013327433815114866 0.026596550812199134 -0.0025677011554270067 0.011245322443020386 0.024899637860546775 -0.01637740277729836 0.040633432297252574 0.042186872900980422 0.005772263640310013 0.0023576409770538851
leaf_weight=5035.9394689276814 2394.9675919562578 4752.8034376502037 6585.3459218740463 1567.045567959547 5828.2257888019085 626.48461775481701 4161.8938636928797 3739.1035111248493 547.30922004580498 2982.6918451488018 1994.1842700541019 9154.6691460609436 2331.8055668622255 3881.1507719904184 1547.9101008623838 3980.1920544356108 727.32711301743984 3048.1103795319796 3833.5352056473494 1784.898107111454 2616.4608863443136 1831.7597078979015 3210.1423093080521 3646.659597069025 2752.8603895753622 6802.9564572423697 2819.8621503859758 2106.3322760909796 2101.2347128093243 2809.5332198292017
leaf_count=41070 12315 29668 47785 9027 38728 3906 23501 18364 3184 16491 13278 70600 14959 21546 8266 26221 4427 17256 23041 12304 15253 9541 19998 21856 14524 48087 13904 10283 13624 16993
internal_value=-9.30169e-05 0.0142863 -0.0203615 0.0247001 -0.0128176 0.00361218 0.018586 0.0360325 0.0222067 0.00869293 -0.00388537 -0.0351457 -0.000788695 0.014996 0.0297461 -0.00517837 -2.60823e-05 0.0167332 0.00443796 -0.01918 0.00536035 0.0285996 0.00292163 0.00477849 0.0172 -0.0208546 0.0340388 0.0349352 -0.00260083 0.00902656
internal_weight=101203 59202.6 42000.8 29966.7 27810.2 29236 19464.8 10501.8 15281.3 17426.7 11809.3 14190.6 9815.09 7181.32 6762.74 12637 6808.75 6030.8 11395.9 15173.2 4183.51 8099.99 7483.29 6856.8 6634.01 13388.3 5214.83 3938.09 6081.43 6643.07
internal_count=640000 337154 302846 159708 191176 177446 106859 52849 82579 103449 73997 111670 60719 39254 34485 83000 44272 33747 69702 108176 24280 43325 45760 41854 36070 95872 26219 19824 39845 40034
is_linear=0
shrinkage=0.05


Tree=10
num_leaves=31
num_cat=0
split_feature=2 41 40 1 41 41 6 40 43 43 11 2 2 2 34 27 11 13 5 1 0 4 1 6 4 5 13 2 6 23
split_gain=10710.7 2334.23 1778.68 614.581 543.608 500.647 296.914 261.18 217.809 216.372 204.394 197.402 189.981 177.315 158.181 143.215 129.199 126.247 125.632 122.819 116.871 108.998 96.7744 91.0224 90.7433 89.0351 88.7397 84.4475 84.0673 83.0261
threshold=12.510000000000002 28533.000000000004 183389.50000000003 4.0000000000000009 44511.500000000007 48782.500000000007 90000.500000000015 230404.00000000003 7739.5000000000009 9655.0000000000018 19.305000000000003 19.525000000000002 14.100000000000001 6.9000000000000012 5.5000000000000009 8.5000000000000018 18.535000000000004 682.50000000000011 1.0000000180025095e-35 4.0000000000000009 9112.5000000000018 54.500000000000007 4.0000000000000009 60004.000000000007 178727.00000000003 1.0000000180025095e-35 692.50000000000011 21.195000000000004 61012.500000000007 16.000000000000004
decision_type=2 2 2 2 2 2 2 2 2 2 2 2 2 2 2 2 2 2 2 2 2 2 2 2 2 2 2 2 2 2
left_child=2 3 13 8 10 16 9 12 23 27 20 -10 14 -1 21 18 -4 -11 -7 -12 -3 -6 -20 -2 -8 -16 -21 -5 -14 -22
right_child=1 4 5 6 7 15 24 -9 11 17 19 -13 28 -15 25 -17 -18 -19 22 26 29 -23 -24 -25 -26 -27 -28 -29 -30 -31
leaf_value=-0.041915291214618157 0.011760321819762458 -0.0034152280643874435 -0.022331829032809357 0.017863936517611236 0.014911945042673652 -0.013224010014302044 0.023216435838111601 -0.018397829519680633 0.014390605928593141 0.046495731995257729 0.012633749448040283 0.029679930478355317 -0.0026669624979022959 -0.030072497877180755 0.0035422517833594031 0.0076797934141879954 -0.012890173095023187 0.033150397929695992 -0.0045522665842246211 0.034133970103245495 0.012193094308882406 -0.0034517133362831059 0.016005005934477137 -0.0074476277679029999 0.0035037046924833505 0.016387981090278912 0.016164061766095431 0.033323866093181151 -0.019667856218921691 -0.0058072688600205955
leaf_weight=4883.4975335076451 1373.7178040444851 2379.5269955545664 8841.0359492301941 1749.4331894665956 921.70044605433941 4773.7503757923841 2753.9650669395924 1970.1572398990393 5978.4573613405228 4127.0545549243689 5106.3223066478968 3263.5843240022659 1558.0402964800596 8959.1280647963285 2664.498327895999 1908.2933060526848 6139.3309882134199 3105.7922477275133 5270.7848179787397 1468.2943498045206 4850.9292412102222 6553.7265756428242 642.25053149461746 1119.3366964608431 740.84267337620258 2731.9937359541655 1291.1395574808121 1784.1386737972498 1363.510489821434 738.0768695473671
leaf_count=41070 7868 14623 64360 9270 5574 32021 13824 13278 33465 19587 29991 17009 9905 70600 16531 12393 43816 14952 34712 7797 27955 39890 3874 6448 3954 16025 7090 8884 8696 4538
internal_value=-9.62742e-05 0.013477 -0.0196262 0.0247267 0.0047726 -0.0122849 0.0317005 -0.00123208 0.0162517 0.0358109 0.0115089 0.0197896 0.000909261 -0.0342505 0.00352185 -0.00493745 -0.0184624 0.0407652 -0.00719046 0.0172267 0.00586494 -0.00118752 -0.00231942 0.0031363 0.0190377 0.0100454 0.0257258 0.0256698 -0.0106014 0.00981599
internal_weight=101012 59594.2 41418.1 25996.3 33597.9 27575.4 14261.2 17763.6 11735.1 10766.4 15834.3 9242.04 15793.5 13842.6 12871.9 12595.1 14980.4 7232.85 10686.8 7865.76 7968.53 7475.43 5913.04 2493.05 3494.81 5396.49 2759.43 3533.57 2921.55 5589.01
internal_count=640000 337154 302846 135261 201893 191176 70471 109899 64790 52693 91994 50474 96621 111670 78020 83000 108176 34539 70607 44878 47116 45464 38586 14316 17778 32556 14887 18154 18601 32493
is_linear=0
shrinkage=0.05


Tree=11
num_leaves=31
num_cat=0
split_feature=2 40 40 1 41 11 5 11 1 23 2 23 11 13 27 5 27 5 43 3 5 13 6 13 0 27 2 2 5 1
split_gain=9724.68 2071.75 1686.91 666.017 463.158 373.388 331.413 226.149 219.49 191.811 173.939 173.059 160.607 153.279 135.497 132.996 127.618 126.868 117.298 116.77 113.274 112.082 109.401 109.05 105.339 99.8489 99.3864 91.4048 89.8773 88.1481
threshold=12.510000000000002 183389.50000000003 183389.50000000003 4.0000000000000009 48782.500000000007 18.355000000000004 1.0000000180025095e-35 21.695000000000004 4.0000000000000009 8.5000000000000018 6.9000000000000012 26.500000000000004 25.235000000000003 682.50000000000011 5.5000000000000009 1.0000000180025095e-35 7.5000000000000009 1.0000000180025095e-35 2203.5000000000005 163.68000000000004 1.5000000000000002 692.50000000000011 90000.500000000015 687.50000000000011 13612.500000000002 7.5000000000000009 21.195000000000004 25.040000000000003 1.0000000180025095e-35 4.0000000000000009
decision_type=2 2 2 2 2 2 2 2 2 2 2 2 2 2 2 2 2 2 2 2 2 2 2 2 2 2 2 2 2 2
left_child=2 3 10 7 16 9 12 19 13 15 -1 18 22 -7 -6 -3 28 -9 -8 -2 25 -10 -5 -14 -17 -20 -21 -19 -4 -16
right_child=1 5 4 6 14 8 11 17 21 -11 -12 -13 23 -15 29 24 -18 27 20 26 -22 -23 -24 -25 -26 -27 -28 -29 -30 -31
leaf_value=-0.041087773181373459 -0.0046990002044651376 -0.0053012563824113429 -0.024387938446647835 0.022414129414676135 -0.0091503038907453753 0.010561802818447305 -0.031329112719203599 0.012377429601612613 0.027340873601956257 -0.013493879795296017 -0.029197257392756405 0.016525710958911952 0.041474896505610398 -0.0015610048945882814 -0.0014285905112953216 0.00028924754333017563 -0.0082749519820856706 0.02510980775733368 0.039130802125793542 0.0086807361614269427 0.027335304643968522 0.011025631062417818 0.0079690363467594966 0.020326435683470839 0.013625705921250281 0.054855041147979761 0.024839445028671189 0.060484779857544663 -0.015710845760522965 0.016233757006897134
leaf_weight=4736.5193251147866 1359.1677682995796 5286.1789073199034 5950.6920136362314 3738.4233893603086 7249.9967151284218 5642.7093639075756 58.41771337389946 2475.4115862995386 1928.020539984107 3092.5763950645924 8771.1576907634735 960.78874906897545 1441.4577480852604 4847.403084218502 4465.9564924240112 3802.2237084209919 2858.7447983771563 3699.9552954286337 3869.22868719697 5815.1068803220987 1425.4290343225002 2318.5580301731825 2018.4552310407162 1056.1783206313848 2424.9197794049978 1366.0187619775534 1137.7886611223221 192.08698078989983 5986.5917217135429 839.14091262221336
leaf_count=41070 8081 32898 44104 19028 48492 34185 294 13797 10467 20157 70600 4987 6960 29907 29443 22849 20767 19750 18115 33134 6706 13150 10604 5266 13833 6303 5748 935 43305 5065
internal_value=-9.86479e-05 0.0127208 -0.01891 0.0218201 -0.0117704 0.0032272 0.0288986 0.0141365 0.0088424 -0.00243828 -0.0333667 0.0363744 0.0219433 0.00495994 -0.00470704 0.000531353 -0.0177639 0.0212271 0.0392126 0.00870478 0.0398313 0.018433 0.0173494 0.0325318 0.00548261 0.0432337 0.011325 0.0268557 -0.0200363 0.00136518
internal_weight=100815 59956.5 40858.8 30613.9 27351.1 29342.6 15934.4 14679.5 14736.7 14605.9 13507.7 7679.88 8254.51 10490.1 12555.1 11513.3 14796 6367.45 6719.09 8312.06 6660.68 4246.58 5756.88 2497.64 6227.14 5235.25 6952.9 3892.04 11937.3 5305.1
internal_count=640000 337154 302846 159708 191176 177446 78263 81445 87709 89737 111670 36405 41858 64092 83000 69580 108176 34482 31418 46963 31124 23617 29632 12226 36682 24418 38882 20685 87409 34508
is_linear=0
shrinkage=0.05


Tree=12
num_leaves=31
num_cat=0
split_feature=2 41 40 41 41 11 40 43 11 0 41 3 6 5 2 5 1 1 41 1 5 6 11 6 13 23 1 3 11 5
split_gain=8830.33 1859.19 1598.3 757.96 428.18 344.043 297.096 243.637 216.18 187.845 170.857 153.723 152.619 141.782 139.951 135.167 123.5 119.622 119.612 116.16 103.869 102.361 102.327 96.7045 94.0465 93.6321 92.7756 87.7504 80.6665 78.5451
threshold=12.510000000000002 44249.500000000007 183389.50000000003 13405.000000000002 48782.500000000007 21.915000000000003 230404.00000000003 11029.000000000002 18.355000000000004 9112.5000000000018 26218.500000000004 208.91500000000002 66003.500000000015 1.0000000180025095e-35 27.325000000000003 1.0000000180025095e-35 4.0000000000000009 4.0000000000000009 5132.5000000000009 4.0000000000000009 1.0000000180025095e-35 85001.000000000015 18.535000000000004 61012.500000000007 682.50000000000011 16.000000000000004 4.0000000000000009 199.27500000000001 14.835000000000003 1.0000000180025095e-35
decision_type=2 2 2 2 2 2 2 2 2 2 2 2 2 2 2 2 2 2 2 2 2 2 2 2 2 2 2 2 2 2
left_child=2 3 10 7 16 9 8 14 20 23 -1 -7 -11 -13 21 -6 22 28 -9 24 -3 27 -4 -5 -10 29 -22 -2 -17 -14
right_child=1 6 4 5 15 11 -8 18 19 12 -12 13 25 -15 -16 17 -18 -19 -20 -21 26 -23 -24 -25 -26 -27 -28 -29 -30 -31
leaf_value=-0.038343321943624852 0.0024052819553529964 -0.0074674019375845432 -0.022526087266576574 0.00558388027555368 -0.010134483007438253 0.0062435384004927066 -0.017580044341365703 0.048832771225418639 0.0096207665855591352 0.019834210262834714 -0.026955784693075857 0.017087529673822013 0.0048759401048937487 0.029537558954482887 0.043213160281563946 -0.0093443906598871859 -0.0045569418551768253 0.019225700778620219 0.032739930317897611 0.015981626254350022 -0.0010684726481448204 0.0065325865240963123 -0.013484041400241526 -0.010889211480513285 -0.0013626332586810586 -0.0080695252157095901 0.013831055669241719 0.026877248326308889 0.002534711843047906 0.017181836620316509
leaf_weight=6412.5845094844699 423.29062555730343 4992.3128606975079 7534.6749604195356 2887.6144178658724 5737.2838868498802 1467.8216954618692 1943.3341614156961 1581.1611761152744 4221.5392338782549 4637.7492616027594 6772.9275136590004 4324.884288161993 2986.60590942204 4852.5018236041069 678.8758212774992 2323.0440422743559 1733.7271567583084 742.91405546665192 4280.4958175122738 3100.8621205985546 4608.3969543278217 1222.4076354652643 5351.0840239673853 1288.4374572336674 3620.4773614704609 806.8620510995388 1351.103003308177 2721.3169807344675 3713.8040162026882 2291.6218651235104
leaf_count=56489 2292 31433 56727 16906 38728 8299 13278 7303 25443 24780 55181 23318 16667 24739 3226 15523 12304 4427 20452 17172 28479 6236 39145 7648 22255 4781 7179 13340 24322 11928
internal_value=-0.000100272 0.0120136 -0.018213 0.0191141 -0.011274 0.0144027 0.00115604 0.0301477 0.00281902 0.00949775 -0.0324939 0.0212675 0.0130014 0.0236704 0.0220935 -0.00448631 -0.0170855 0.000293378 0.0370809 0.00778935 -0.00214726 0.0188104 -0.0187712 0.000501437 0.00454999 0.00779377 0.00230946 0.0235831 -0.00203649 0.0102187
internal_weight=100612 60289.7 40322 36451.6 27136.5 25544.1 23838 10907.5 21894.7 14898.9 13185.5 10645.2 10722.8 9177.39 5045.89 12517 14619.5 6779.76 5861.66 10942.9 10951.8 4367.02 12885.8 4176.05 7842.02 6085.09 5959.5 3144.61 6036.85 5278.23
internal_count=640000 337154 302846 191915 191176 139066 145239 52849 131961 82710 111670 56356 58156 48057 25094 83000 108176 44272 27755 64870 67091 21868 95872 24554 47698 33376 35658 15632 39845 28595
is_linear=0
shrinkage=0.05


Tree=13
num_leaves=31
num_cat=0
split_feature=2 41 40 41 41 41 11 40 3 2 2 0 23 43 27 5 11 23 43 4 5 11 1 13 0 4 6 11 13 6
split_gain=8018.61 1657.17 1512.7 448.95 418.778 395.513 279.945 209.806 176.658 169.061 166.259 164.781 162.842 158.417 136.48 131.833 127.063 126.838 124.499 121.636 116.515 111.994 111.573 112.197 105.796 100.772 90.8693 90.654 88.9139 86.1047
threshold=12.510000000000002 28533.000000000004 183389.50000000003 10099.000000000002 44511.500000000007 48782.500000000007 18.065000000000001 230404.00000000003 180.19500000000002 6.9000000000000012 14.100000000000001 7012.5000000000009 6.5000000000000009 4088.0000000000005 6.5000000000000009 1.0000000180025095e-35 14.655000000000003 16.000000000000004 2203.5000000000005 201.00000000000003 1.0000000180025095e-35 28.725000000000005 4.0000000000000009 687.50000000000011 9612.5000000000018 54.500000000000007 100000.08000000002 21.805000000000003 702.50000000000011 65002.000000000007
decision_type=2 2 2 2 2 2 2 2 2 2 2 2 2 2 2 2 2 2 2 2 2 2 2 2 2 2 2 2 2 2
left_child=2 3 9 12 11 19 24 10 -8 -1 14 29 21 -10 25 -15 -7 18 -13 -4 -20 -2 23 -18 -5 -6 -26 -21 -24 -3
right_child=1 4 5 6 7 16 8 -9 13 -11 -12 17 -14 15 -16 -17 22 -19 20 27 -22 -23 28 -25 26 -27 -28 -29 -30 -31
leaf_value=-0.039494927549053094 0.031092895602406825 0.0042583728430379449 -0.007475775982193936 0.00045642821547255819 0.013603172761407437 -0.010910997629612477 0.0021634090297368365 -0.016896612134481796 0.00095256327492985104 -0.027457264027373071 -0.01021185123410942 -0.043495236631797773 0.015763345617712678 0.019158191012210845 0.010644912857934955 0.030851934823826744 0.0028349493083631382 -0.0013293669930765639 0.0094936465167442391 -0.021509533279715918 0.019716407923577255 0.047322621764362277 0.027987635782750077 -0.010226515239680717 0.016946119818001312 -0.0024529459695643045 0.0029569377451423243 -0.011527994569775046 0.0012884505948032947 -0.015033719029940232
leaf_weight=4465.2656791359186 4398.1628591120243 2609.7795659303665 3005.6645873486996 2257.9875607937574 1117.6590245962143 4572.1012548953295 1042.8516205251217 1921.4115864783525 710.0226673334837 8410.6023282408714 2904.3735030740499 92.568186640739441 1355.0088998377323 4500.941376209259 4041.5793938338757 5188.7438876777887 3662.8198484033346 1477.7670806348324 5440.7820147424936 8312.7052993029356 5715.1845255792141 1401.7082519233227 562.55073969066143 2983.2387594878674 4314.4344259351492 7777.9768000990152 1588.146194472909 3131.725122064352 699.64834436774254 743.04545369744301
leaf_count=41070 20618 15523 22522 12820 6686 30785 5887 13278 3822 70600 18601 524 6813 23081 24117 25311 24424 8948 31605 62753 30850 6389 3406 20060 22125 47217 8395 22901 4325 4544
internal_value=-0.000101467 0.0113504 -0.0175356 0.0206491 0.00399828 -0.0107959 0.0167363 -0.00129355 0.0217823 -0.0316318 0.000598929 0.0098443 0.0313693 0.0237496 0.00302592 0.0254201 -0.00427588 0.0124423 0.0142516 -0.0164272 0.0147308 0.0350153 -0.000439831 -0.00302799 0.00966104 -0.000435635 0.0131822 -0.0187781 0.013188 -1.70967e-05
internal_weight=100406 60600.1 39806.3 26758 33842.1 26930.5 19603.1 17763 11442.6 12875.9 15841.6 16079.1 7154.88 10399.7 12937.2 9689.69 12480.4 12726.3 11248.5 14450.1 11156 5799.87 7908.26 6646.06 8160.57 8895.64 5902.58 11444.4 1262.2 3352.83
internal_count=640000 337154 302846 135261 201893 191176 101441 109899 58101 111670 96621 91994 33820 52214 78020 48392 83000 71927 62979 108176 62455 27007 52215 44484 43340 53903 30520 85654 7731 20067
is_linear=0
shrinkage=0.05


Tree=14
num_leaves=31
num_cat=0
split_feature=2 41 40 1 41 6 23 43 3 2 39 5 2 1 5 5 1 5 27 1 43 1 13 34 27 4 6 11 41 34
split_gain=7281.61 1480.4 1430.22 603.357 365.004 311.019 246.246 210.451 198.118 191.956 188.184 186.667 165.363 161.918 124.394 121.835 120.046 116.023 114.63 101.117 98.4087 103.87 96.2765 89.1604 85.5084 82.7614 79.0027 77.911 76.024 75.9201
threshold=12.510000000000002 44249.500000000007 183389.50000000003 4.0000000000000009 48782.500000000007 60909.000000000007 11.500000000000002 3891.0000000000005 173.45500000000001 19.525000000000002 2.5000000000000004 1.0000000180025095e-35 6.9000000000000012 4.0000000000000009 1.0000000180025095e-35 1.0000000180025095e-35 4.0000000000000009 1.0000000180025095e-35 7.5000000000000009 4.0000000000000009 2203.5000000000005 4.0000000000000009 692.50000000000011 4.5000000000000009 6.5000000000000009 194749.00000000003 84006.000000000015 26.605000000000004 8963.0000000000018 5.5000000000000009
decision_type=2 2 2 2 2 2 2 2 2 2 2 2 2 2 2 2 2 2 2 2 2 2 2 2 2 2 2 2 2 2
left_child=2 3 12 7 15 18 11 -2 -9 17 25 20 -1 23 -6 -4 24 -10 28 29 -3 -22 27 -13 -17 -7 -8 -12 -5 -16
right_child=1 6 4 5 14 10 26 8 9 -11 22 13 -14 -15 19 16 -18 -19 -20 -21 21 -23 -24 -25 -26 -27 -28 -29 -30 -31
leaf_value=-0.038687352599399101 -0.008970713973370098 -0.047519174467052255 -0.020297778445214951 0.037912143305608964 -0.0095256623893276993 0.015023592227177227 -0.0063364804894647285 0.00020016277602083311 0.0049040768690863717 0.024763498793673532 0.02569630999068272 -0.0013256376443482245 -0.026623683479428412 0.019342549379704508 -0.0061849785900281798 -0.016305238125636133 0.011363899665183193 0.015427839208668016 0.042311176139189714 0.017781655091103601 -0.0053724886865768188 0.0058654543167637359 0.014277960532256309 0.0091051148776877516 -0.0029788539068841889 0.00079805773957258212 -0.022824807993899115 0.044056812061370111 0.024607126121348324 0.0053204816247727884
leaf_weight=4333.9141198769212 1275.9613223522902 116.92227548360825 7311.5438219606876 1406.2159930020571 5685.6567116975784 4433.5245130062103 3167.9801470190287 2921.359736636281 4352.6254129707813 3450.6915486752987 2790.0571238994598 3652.1985089629889 8244.5293913260102 2368.8632963001728 3642.2549402266741 4823.1489213705063 549.7633384168148 6575.7831827998161 1750.3872830718756 752.96747741103172 5743.6152480840683 3202.6883602887392 1474.2424598932266 4666.2652877271175 1604.0361094623804 1328.8776950985193 942.66179963946342 728.69411259889603 4539.6747687906027 2364.6685162037611
leaf_count=41070 7568 751 56175 6328 38728 21817 21040 16972 25206 17090 13607 22071 70600 12190 24589 36310 3914 35785 8048 4427 36574 18603 7341 27644 11777 7013 6366 3367 21773 15256
internal_value=-0.000102153 0.0107282 -0.0168767 0.0169866 -0.0103351 0.0233907 0.00101617 0.0106256 0.0120709 0.0144826 0.0178994 0.00333342 -0.0307802 0.00780974 -0.00407509 -0.0157876 -0.0110612 0.0112364 0.0310646 0.000509315 -0.00194504 -0.00134942 0.0250045 0.00452552 -0.0129794 0.011743 -0.0101176 0.0294986 0.0277538 -0.00165577
internal_weight=100202 60889.3 39312.5 37028.1 26734 18451.7 23861.2 18576.4 17300.5 14379.1 10755.4 19750.6 12578.4 10687.3 12445.5 14288.5 6976.95 10928.4 7696.28 6759.89 9063.23 8946.3 4992.99 8318.46 6427.19 5762.4 4110.64 3518.75 5945.89 6006.92
internal_count=640000 337154 302846 191915 191176 89294 145239 102621 95053 78081 53145 117833 111670 61905 83000 108176 52001 60991 36149 44272 55928 55177 24315 49715 48087 28830 27406 16974 28101 39845
is_linear=0
shrinkage=0.05


Tree=15
num_leaves=31
num_cat=0
split_feature=2 40 2 1 43 41 6 23 11 5 41 43 43 5 11 3 27 27 6 23 5 13 2 4 39 4 13 39 11 18
split_gain=6612.66 1350.71 1335.15 473.464 410.103 336.638 253.189 251.154 219.997 202.802 162.79 145.458 135.082 130.949 128.322 121.073 119.045 117.546 103.561 100.121 99.4721 97.756 97.564 95.1299 97.3219 92.4534 83.3624 82.0949 81.2321 80.1706
threshold=12.510000000000002 183389.50000000003 17.785000000000004 4.0000000000000009 7739.5000000000009 48782.500000000007 60909.000000000007 16.000000000000004 17.785000000000004 1.0000000180025095e-35 26218.500000000004 9912.5000000000018 1255.0000000000002 1.0000000180025095e-35 26.745000000000001 161.69500000000002 8.5000000000000018 8.5000000000000018 75002.000000000015 16.000000000000004 1.0000000180025095e-35 687.50000000000011 26.305000000000003 54.500000000000007 1.5000000000000002 201.00000000000003 702.50000000000011 2.5000000000000004 17.045000000000005 25731.500000000004
decision_type=2 2 2 2 2 2 2 2 2 2 2 2 2 2 2 2 2 2 2 2 2 2 2 2 2 2 2 2 2 2
left_child=1 10 3 7 12 17 11 9 22 28 -1 -5 19 29 21 -11 20 25 -9 -4 -7 -8 -6 -17 -25 -3 -13 -15 -2 -10
right_child=2 5 4 6 8 16 14 18 13 15 -12 26 -14 27 -16 23 -18 -19 -20 -21 -22 -23 -24 24 -26 -27 -28 -29 -30 -31
leaf_value=-0.035922776533341298 -0.0085986609446327411 -0.0084798122622394955 -0.062297800186729452 0.011150455741277723 0.014895652966877735 -0.011435529599013276 0.010878099592836707 -0.0058241355459597959 0.026158346362461889 -0.0039693282811948333 -0.024406310491219465 0.033800002023634916 0.0095092031556567227 0.027324362362907709 0.022137733445102437 0.020635622750919149 0.0076024665838589321 -0.003632060338058166 -0.024043627722326742 -0.0017641049181546164 -0.0016379812051133841 -0.0012632346855298343 0.041795485430029117 0.00044923779563087917 0.010804987112725305 -0.019197474140977028 0.014719869546461154 0.03934928782463467 0.0010284595135063373 0.011585646433135493
leaf_weight=5905.707027181983 3642.1465232372284 2539.9282866716385 113.84790696203709 2005.8632687032223 5869.968711450696 4644.6245050430298 3077.6509693264961 2999.8129373043776 3484.8865974247456 2179.5034402161837 6387.2140276134014 2122.8339313715696 4638.181952252984 2789.4142430722713 1193.6919637620449 1498.0283236503601 1909.0511681139469 1909.7960924059153 1053.9765312373638 170.76496613025665 5858.1366892904043 3593.7594394087791 357.61360540986061 3524.5400363206863 6367.5779811739922 9683.7229103147984 783.84102317690849 2889.7863844484091 5500.0909663289785 1294.3227717429399
leaf_count=56489 23244 19391 608 10914 29185 32021 16440 20087 16937 12982 55181 10417 24336 13002 6186 8462 12393 14363 7276 906 38586 20166 1639 20504 36556 74422 4039 13425 33566 6277
internal_value=-0.000102385 -0.0162369 0.0101448 0.00468332 0.020139 -0.00989154 0.0126018 0.000903128 0.0238804 0.00294936 -0.029939 0.0215074 0.00745749 0.0283107 0.00703931 0.00682748 -0.00388306 -0.0151681 -0.0105612 -0.0259782 -0.00597074 0.0043378 0.0164404 0.00889345 0.00711526 -0.0169705 0.0286547 0.0334431 -0.00280686 0.0222117
internal_weight=99990.3 38838.2 61152.1 39543.3 21608.8 26545.3 12777.6 26765.7 16686 22711.9 12292.9 4912.54 4922.79 10458.4 7865.1 13569.6 12411.8 14133.4 4053.79 284.613 10502.8 6671.41 6227.58 11390.1 9892.12 12223.7 2906.67 5679.2 9142.24 4779.21
internal_count=640000 302846 337154 230839 106315 191176 68162 162677 80465 135314 111670 25370 25850 49641 42792 78504 83000 108176 27363 1514 70607 36606 30824 65522 57060 93813 14456 26427 56810 23214
is_linear=0
shrinkage=0.05


Tree=16
num_leaves=31
num_cat=0
split_feature=2 41 40 23 43 1 11 41 5 43 0 4 5 27 13 39 1 6 4 2 41 5 6 43 5 13 34 11 1 18
split_gain=6007.26 1723.86 921.756 431.165 433.574 325.005 291.84 279.301 228.411 209.323 181.47 180.093 174.529 169.873 161.973 156.767 144.01 139.196 128.409 116.338 114.067 111.831 111.008 102.128 95.794 93.054 79.6099 75.6238 75.5419 74.588
threshold=13.455000000000002 43304.500000000007 87557.000000000015 16.000000000000004 2203.5000000000005 4.0000000000000009 22.665000000000003 26218.500000000004 1.0000000180025095e-35 11029.000000000002 9112.5000000000018 54.500000000000007 1.0000000180025095e-35 7.5000000000000009 692.50000000000011 2.5000000000000004 4.0000000000000009 61012.500000000007 49.500000000000007 22.175000000000001 5132.5000000000009 1.0000000180025095e-35 51705.000000000007 1496.5000000000002 1.0000000180025095e-35 682.50000000000011 5.5000000000000009 20.875000000000004 4.0000000000000009 17723.500000000004
decision_type=2 2 2 2 2 2 2 2 2 2 2 2 2 2 2 2 2 2 2 2 2 2 2 2 2 2 2 2 2 2
left_child=1 7 9 4 -4 8 10 -1 25 19 17 18 -12 21 16 -13 -8 -6 -10 -2 -11 -7 -5 -21 -9 -3 -22 -17 -26 -14
right_child=2 5 3 22 6 13 14 24 11 20 12 15 29 -15 -16 27 -18 -19 -20 23 26 -23 -24 -25 28 -27 -28 -29 -30 -31
leaf_value=-0.03506559771986828 0.0067123551919524016 -0.0086476564567177713 -0.04227395222801459 0.0037035773455293131 0.004577185887633217 -0.0060281566414744176 0.01617783582573128 -0.025793055160024392 -0.0043646676716551456 0.039908280879540604 0.0042587050938806019 -0.01006863562827892 0.01805934471360535 0.02250952342208537 0.008499819453483385 -0.0035693730672973242 0.030512298008500277 -0.012110470659912938 0.022313939237358575 -0.040735865669843101 0.019449662074428123 0.010872403610766995 -0.01020484172165873 0.022101217573142252 -0.017603760057388139 -0.017809730662357054 0.031126441136640259 0.010838906052951089 0.012132435007793025 0.005984529124167806
leaf_weight=5750.1187249794602 2218.649070173502 4960.142915584147 394.14354778826237 2369.9994363337755 3933.9373681545258 2515.6537511348724 5682.3697194755077 5670.1885376572609 813.99580416083336 1653.4190209060907 7180.8327495157719 8774.0542004257441 5542.6634003520012 1119.9680928587914 4171.3591892421246 2330.6748464256525 2533.2835564613342 1831.3317130804062 1011.5051734894514 65.768218025565147 3051.7496141195297 1602.2136789411306 3634.9627795219421 3846.9502393454313 4666.3418489024043 6280.1855331882834 2798.0171564817429 1494.7704794853926 223.82265873998404 1662.55822019279
leaf_count=56519 11284 35318 2314 14736 23176 16364 31333 48383 5429 7303 40897 60303 29029 6718 22396 15713 12048 11089 6790 335 14289 9463 22808 18119 39019 45841 12889 9666 1759 8670
internal_value=-0.000102277 -0.0130477 0.0115237 0.00760598 0.00985271 -0.00610679 0.0104841 -0.0261987 -0.0084232 0.022712 0.00677155 -0.00425943 0.00977527 0.0052436 0.0165238 -0.00638598 0.0205978 -0.000723631 0.0104179 0.0158587 0.0283124 0.000547652 -0.00471556 0.021045 -0.0213706 -0.0137667 0.0250348 0.00206058 -0.0162427 0.0152732
internal_weight=99785.6 47213.6 52572 38937.4 32932.5 30903.2 32538.3 16310.5 25665.3 13634.6 20151.3 14425 14386.1 5237.84 12387 12599.5 8215.65 5765.27 1825.5 6131.37 7503.19 4117.87 6004.96 3912.72 10560.4 11240.3 5849.77 3825.45 4890.16 7205.22
internal_count=640000 357285 282715 218496 180952 211605 178638 145680 179060 64219 112861 97901 78596 32545 65777 85682 43381 34265 12219 29738 34481 25827 37544 18454 89161 81159 27178 25379 40778 37699
is_linear=0
shrinkage=0.05


Tree=17
num_leaves=31
num_cat=0
split_feature=2 40 41 1 41 5 40 5 11 2 23 4 11 5 11 11 2 13 13 11 0 6 43 1 13 27 0 18 6 6
split_gain=5474.06 1203.05 1105.08 462.489 297.345 257.961 216.553 173.819 170.596 156.611 138.001 124.708 124.202 115.779 112.84 112.808 111.204 95.1679 91.6721 91.0517 90.2265 87.8414 83.9851 83.5762 80.6524 78.2584 73.9196 79.0656 73.6778 73.4321
threshold=12.510000000000002 183389.50000000003 44249.500000000007 4.0000000000000009 48782.500000000007 1.0000000180025095e-35 230404.00000000003 1.0000000180025095e-35 16.865000000000006 6.9000000000000012 16.000000000000004 174679.00000000003 25.235000000000003 1.5000000000000002 15.195000000000002 17.145000000000003 17.98 682.50000000000011 687.50000000000011 28.895000000000003 5987.5000000000009 82801.500000000015 2203.5000000000005 4.0000000000000009 682.50000000000011 6.5000000000000009 9012.5000000000018 12890.500000000002 85001.000000000015 40002.000000000007
decision_type=2 2 2 2 2 2 2 2 2 2 2 2 2 2 2 2 2 2 2 2 2 2 2 2 2 2 2 2 2 2
left_child=1 9 3 7 15 12 8 20 26 -1 16 13 21 19 -6 -3 -9 -10 23 -7 -2 -5 -18 -16 -14 29 -4 -28 -22 -11
right_child=2 4 6 5 14 11 -8 10 17 25 -12 -13 24 -15 18 -17 22 -19 -20 -21 28 -23 -24 -25 -26 -27 27 -29 -30 -31
leaf_value=-0.036382260933823483 -0.0085901439618191987 -0.018395961740485991 -0.0092158185637803407 0.015698109196450934 -0.0094298659412700818 0.028928727752072336 -0.015597364925027106 0.0098472632940693229 0.010498059200815358 -0.013539576237484348 -0.001743378906369465 0.013724918211822604 0.031608541673093883 0.016954669709269756 0.0036178255175405637 -0.009367167679259901 -0.034749779576515753 0.0017677027246190927 -0.0051776747682747842 0.044285601594819604 0.009387487492580544 0.0043469240295330889 0.021059237234295224 0.030484611627051673 0.01503642454137334 -0.015188551153896314 0.0049248928850267014 -0.0063475686171501032 -0.0029196741101768118 -0.02928242396380841
leaf_weight=3982.6940574645996 1416.291646450758 7261.7844116613269 3156.3577853292227 3901.4549333304167 4785.1161181330681 4504.3264444023371 1879.5053011029959 5558.108727991581 5953.8426187932491 867.37820143252611 1465.7379735559225 1657.9575027823448 1413.8292360007763 1585.7961901426315 3493.5095164477825 6607.3789891451597 68.393386289477348 6561.7807483375072 3738.0833301097155 1228.4501892030239 3873.9792430102825 3026.432774990797 4695.0716290920973 315.61248396337032 1527.2587766200304 1842.3871485516429 3666.1435246914625 2702.0848610550165 1772.4690990447998 5072.9886211082339
leaf_count=41070 8294 57566 20064 19153 32768 20247 13278 30259 34783 7827 8735 8089 6460 7163 23426 50610 376 38751 24941 5310 21528 15551 23381 1865 7321 16686 22016 16347 10048 46087
internal_value=-0.000102085 -0.0150361 0.00910014 0.0144342 -0.0090719 0.0199731 0.000694114 0.00889656 0.00208339 -0.0283182 0.0126131 0.0261069 0.0143941 0.0289119 -0.00342331 -0.0140946 0.0146518 0.00592085 0.000384997 0.0322195 0.00269382 0.0107394 0.0202579 0.00584393 0.0230029 -0.0241915 -0.00295915 0.000141907 0.00552416 -0.0269837
internal_weight=99582.2 37966.9 61615.3 37695.6 26201.5 18845.5 23919.7 18850.1 22040.2 11765.4 11787.3 8976.53 9868.98 7318.57 12332.3 13869.2 10321.6 12515.6 7547.21 5732.78 7062.74 6927.89 4763.47 3809.12 2941.09 7782.75 9524.59 6368.23 5646.45 5940.37
internal_count=640000 302846 337154 191915 191176 89294 145239 102621 131961 111670 62751 40809 48485 32720 83000 108176 54016 73534 50232 25557 39870 34704 23757 25291 13781 70600 58427 38363 31576 53914
is_linear=0
shrinkage=0.05


Tree=18
num_leaves=31
num_cat=0
split_feature=2 40 41 41 41 3 6 11 40 2 43 2 34 34 27 27 6 4 43 11 4 6 27 5 6 6 18 0 4 18
split_gain=4970.44 1132.62 994.746 508.617 273.586 261.839 225.6 164.555 153.643 153.151 150.548 133.264 124.885 111.097 109.501 105.372 94.3454 90.2169 86.0062 83.4807 82.4934 79.8387 81.323 79.0628 72.7423 68.4415 68.1521 71.8385 68.124 67.9059
threshold=12.510000000000002 183389.50000000003 44511.500000000007 13405.000000000002 48782.500000000007 208.91500000000002 62000.360000000008 24.385000000000002 230404.00000000003 6.6950000000000012 7739.5000000000009 14.100000000000001 7.5000000000000009 5.5000000000000009 7.5000000000000009 5.5000000000000009 60909.000000000007 146.50000000000003 11403.500000000002 20.775000000000002 98.000000000000014 40002.000000000007 6.5000000000000009 1.0000000180025095e-35 81985.000000000015 61012.500000000007 26396.500000000004 18012.500000000004 61.500000000000007 23542.500000000004
decision_type=2 2 2 2 2 2 2 2 2 2 2 2 2 2 2 2 2 2 2 2 2 2 2 2 2 2 2 2 2 2
left_child=1 9 3 7 14 16 12 18 11 -1 -8 13 17 20 23 -6 28 -7 -2 26 -4 -11 -23 -3 -17 -13 27 -12 -5 -15
right_child=2 4 8 5 15 6 10 -9 -10 21 19 25 -14 29 -16 24 -18 -19 -20 -21 -22 22 -24 -25 -26 -27 -28 -29 -30 -31
leaf_value=-0.036384153102743594 0.011999651668243906 -0.020019900882691025 0.010500493894733547 0.017491112294883628 -0.0072539245133371351 0.023351742900712652 -0.0037766250137413852 0.029689122259900808 -0.014974628432070432 -0.010909990748514288 0.002437498702027455 -0.0024064721934982432 0.025014683939420759 0.011280802004093579 -0.0045039499475523726 0.0064746067332008134 -0.013124963916986363 0.011266691449839921 0.02282494428084883 0.01465300476560563 -0.0038705361069148489 -0.02882074069038687 -0.016490907199013222 -0.011553522172504008 -0.0058145500615948108 -0.017886657159446227 -0.0045417062298812715 0.013720315571915066 -0.00036489259247345969 -0.0009601233709687593
leaf_weight=3417.4188971742988 3813.1286770254374 5449.59840272367 1186.1431781351566 650.78292615711689 7051.8564213365316 1875.8864257633686 2671.4598727971315 4122.549694955349 1860.284082993865 1051.5203971862793 2720.0963270068169 1551.19146245718 2961.7722287029028 3926.0176326334476 2701.3050492629409 3383.1723322719336 1242.8870991170406 8736.4779680967331 3536.51468347013 4561.2658462971449 6315.0214931368828 5249.9581226631999 1794.4284728690982 5582.0257696956396 1869.5911487936974 1322.9873813986778 1266.8947765827179 2930.929978504777 2980.7512542307377 1592.5498085618019
leaf_count=36262 18384 44104 7025 3709 48492 9709 15171 18364 13278 9664 14778 9905 15080 23157 20767 22177 7480 45528 16101 23310 38439 49136 16608 43305 12331 8696 6878 15558 17205 9399
internal_value=-0.000101196 -0.0144495 0.00861348 0.0126389 -0.00867512 0.00945248 0.0113314 0.0216935 -0.00137892 -0.0275082 0.00691395 0.000212373 0.0159365 0.0023635 -0.0135265 -0.00326054 -0.00123452 0.0134029 0.0172086 0.00940188 -0.00159808 -0.0237616 -0.0256799 -0.0157359 0.00210059 -0.00953202 0.0059396 0.00828938 0.00283496 0.00774831
internal_weight=99376.5 37550.9 61825.6 44071.4 26037.5 32599.2 27724.8 11472.2 17754.2 11513.3 14150.6 15893.9 13574.1 13019.7 13732.9 12304.6 4874.42 10612.4 7349.64 11479.2 7501.16 8095.91 7044.39 11031.6 5252.76 2874.18 6917.92 5651.03 3631.53 5518.57
internal_count=640000 302846 337154 227255 191176 174406 146012 52849 109899 111670 75695 96621 70317 78020 108176 83000 28394 55237 34485 60524 45464 75408 65744 87409 34508 18601 37214 30336 20914 32556
is_linear=0
shrinkage=0.05


Tree=19
num_leaves=31
num_cat=0
split_feature=2 40 2 43 1 41 4 0 6 41 13 6 34 23 5 1 6 18 11 43 27 42 5 2 0 1 13 11 39 27
split_gain=4512.52 1065.14 903.24 330.075 308.715 251.586 178.336 172.108 162.652 159.027 153.001 152.543 135.316 131.248 124.98 110.136 110.125 104.997 100.946 94.8722 93.5126 92.847 91.7309 88.5944 87.2257 86.9194 90.8011 76.5337 74.3908 73.9207
threshold=12.510000000000002 183389.50000000003 16.975000000000005 11029.000000000002 4.0000000000000009 48782.500000000007 146.50000000000003 9612.5000000000018 60909.000000000007 5132.5000000000009 732.50000000000011 60004.000000000007 5.5000000000000009 16.000000000000004 1.0000000180025095e-35 4.0000000000000009 36002.000000000007 22251.500000000004 14.655000000000003 9912.5000000000018 5.5000000000000009 47392.000000000007 1.0000000180025095e-35 21.195000000000004 3512.5000000000005 4.0000000000000009 687.50000000000011 19.695000000000004 1.5000000000000002 6.5000000000000009
decision_type=2 2 2 2 2 2 2 2 2 2 2 2 2 2 2 2 2 2 2 2 2 2 2 2 2 2 2 2 2 2
left_child=1 10 4 7 6 15 21 16 19 -5 27 -9 -11 14 -8 22 -4 -14 -7 -6 -10 -2 -3 -13 -16 26 -20 -1 -26 -24
right_child=2 5 3 9 8 18 13 11 20 12 -12 23 17 -15 24 -17 -18 -19 25 -21 -22 -23 29 -25 28 -27 -28 -29 -30 -31
leaf_value=-0.025579010987390578 0.016256106962963823 -0.019160178459556768 0.012048540742751959 0.034700088598783034 0.0085149033838512397 -0.0091170493660809229 -0.006064819085738346 0.019759424058360842 -0.00074166048671457901 0.013308207547900476 -0.034051085895987154 0.0027953238574931032 0.028696052233218656 -0.011875390524219128 -0.011234913134885003 -0.00085130186128410269 -0.0066575084055861215 0.014298452850050406 0.0032531546850845215 0.024160556373082086 0.01118678435261451 0.0012523050633746042 -0.013587540903639728 0.014967978208494015 -0.0016539998130770256 0.012270420640194743 -0.0085905096652144838 -0.014165941650851031 0.0079046988766033055 -0.0009916630030733255
leaf_weight=4800.9055541753769 2118.8802116364241 5797.9426725655794 1202.4651612192392 1692.3429082334042 1643.2502152770758 4450.895921126008 6503.3503195047379 4393.5621570497751 3436.5307895839214 6346.7028515189886 4354.470563210547 3784.3134907782078 3814.8099609017372 3125.3101540952921 985.32506911456585 1645.9956385493279 2276.0718267261982 1895.4986110180616 3643.0491229146719 2361.1715488731861 3148.1722606122494 2008.5148806869984 4598.7634742259979 2470.6723149269819 3187.148384526372 1272.8216025084257 2911.7423940747976 2116.4267043843865 5632.8467904925346 1559.8909018039703
leaf_count=46873 12562 47785 6414 7303 8945 30785 40923 21209 19031 30471 44313 20015 17975 21748 5943 12304 12516 8884 24424 11671 16894 12049 36310 11610 18666 7731 20060 20484 32325 11777
internal_value=-0.000100208 -0.0138806 0.00815397 0.0148322 0.00270265 -0.00829356 -0.000484332 0.0094647 0.00979387 0.0203472 -0.026709 0.012619 0.0183326 -0.00248902 -0.000690263 -0.0129772 -0.000191177 0.0239169 -0.00310485 0.0177402 0.00496138 0.0089548 -0.0146465 0.00760343 0.0028744 0.000313775 -0.00200799 -0.0220871 0.00445062 -0.0103972
internal_weight=99179.8 37152.9 62026.9 27876.4 34150.5 25881.1 23561.4 14127.1 10589.1 13749.4 11271.8 10648.5 12057 19434 16308.7 13602.6 3478.54 5710.31 12278.5 4004.42 6584.7 4127.4 11956.6 6254.99 9805.32 7827.61 6554.79 6917.33 8820 6158.65
internal_count=640000 302846 337154 136397 200757 191176 144216 71764 56541 64633 111670 52834 57330 119605 97857 108176 18930 26859 83000 20616 35925 24611 95872 31625 56934 52215 44484 67357 50991 48087
is_linear=0
shrinkage=0.05


Tree=20
num_leaves=31
num_cat=0
split_feature=2 41 41 1 5 11 1 5 5 13 13 4 27 39 3 1 6 4 13 23 39 13 2 40 4 5 4 27 43 39
split_gain=4113.16 1303.79 666.54 440.017 246.313 235.386 193.443 169.166 151.428 141.852 131.486 124.593 123.096 119.995 116.239 111.846 105.797 104.946 96.2893 93.2538 86.8073 85.1889 81.7915 76.1764 73.1735 72.8788 68.1298 64.4962 64.3819 63.5319
threshold=11.325000000000001 44511.500000000007 34486.500000000007 4.0000000000000009 1.0000000180025095e-35 18.255000000000006 4.0000000000000009 1.0000000180025095e-35 1.0000000180025095e-35 702.50000000000011 672.50000000000011 54.500000000000007 6.5000000000000009 2.5000000000000004 161.69500000000002 4.0000000000000009 40755.500000000007 54.500000000000007 732.50000000000011 16.000000000000004 2.5000000000000004 737.50000000000011 17.98 230404.00000000003 186904.50000000003 1.5000000000000002 49.500000000000007 10.500000000000002 9655.0000000000018 2.5000000000000004
decision_type=2 2 2 2 2 2 2 2 2 2 2 2 2 2 2 2 2 2 2 2 2 2 2 2 2 2 2 2 2 2
left_child=2 3 18 7 10 17 8 20 -4 15 -5 26 -10 24 -13 29 -12 -3 -1 22 -2 27 -16 -19 -6 -15 -9 -8 -18 -7
right_child=1 5 6 4 13 9 21 11 12 -11 16 14 -14 25 19 -17 28 23 -20 -21 -22 -23 -24 -25 -26 -27 -28 -29 -30 -31
leaf_value=-0.024380216773259474 -0.004058584768414317 0.0050371205222264938 -0.01886118016017364 0.019416964582169609 0.020548875700186233 -0.00012781518836629729 0.0057044544582825658 0.0088974121365804557 -0.012707667870040055 -0.0058703515338930272 0.028829405173871555 -0.0032743997951564133 0.0012022603117921935 0.032611002072778388 0.008166932877868174 0.018324141161851614 0.00010772756568955597 -0.0054259490197660961 -0.035603553109183138 -0.0022725681911605639 0.0059398038804826568 -0.011572383289797115 0.01791268515787766 -0.013417135487573693 0.0070349279078225808 0.016625044068550976 0.028396728368596441 0.043613051114800766 0.0098449904370708982 0.0087738413399580904
leaf_weight=4253.7625507339835 4254.7921840697527 1656.1827696114779 7796.7276776656508 3550.677631020546 4871.0369031131268 5244.1836545988917 1354.2263540998101 689.32710999250412 6290.4185322746634 3823.4505473002791 556.01867470145226 1921.8479609414935 2128.7558687329292 3072.2176906466484 5598.9400371015072 1444.6628547757864 2714.2039301693439 8195.6871508732438 3470.0071350112557 1327.3492804169655 4432.3652699142694 781.13053300976753 3497.8336547911167 4688.0909832194448 1260.9922545105219 928.40993545949459 1279.3326731547713 122.3376105055213 4532.2243794202805 3244.5617415085435
leaf_count=44009 24598 10674 65552 16980 21808 34019 9799 3585 50309 24279 2643 11034 16134 13533 30238 7909 14147 51423 37170 7983 25076 6023 16786 33932 6218 4164 6672 851 21963 20489
internal_value=-9.90137e-05 0.0060159 -0.0170881 0.011353 0.016498 -0.00237495 -0.0119312 0.00654703 -0.0138403 0.00231333 0.0114405 0.0098874 -0.0091906 0.0221648 0.00802467 0.0054633 0.0078106 -0.00681073 -0.0294225 0.0101078 0.0010428 0.00178106 0.0119143 -0.00833375 0.0177699 0.0289012 0.021569 0.00884529 0.00619783 0.00327457
internal_weight=98981.8 72784.4 26197.4 44487.6 21485.8 28296.8 18473.6 23001.8 16215.9 13756.9 11353.1 14314.6 8419.17 10132.7 12346 9933.41 7802.45 14540 7723.77 10424.1 8687.16 2257.69 9096.77 12883.8 6132.03 4000.63 1968.66 1476.56 7246.43 8488.75
internal_count=640000 410153 229847 227428 101456 182725 148668 125972 131995 86696 55733 76298 66443 45723 66041 62417 38753 96029 81179 55007 49674 16673 47024 85355 28026 17697 10257 10650 36110 54508
is_linear=0
shrinkage=0.05


Tree=21
num_leaves=31
num_cat=0
split_feature=2 41 41 1 13 11 1 11 11 5 13 39 6 27 5 6 0 18 13 5 0 5 1 1 23 6 43 43 13 0
split_gain=3748.27 1169.84 631.688 393.05 221.479 213.392 177.617 163.531 143.925 141.045 130.868 113.351 113.001 112.773 100.962 96.3039 96.8303 106.192 93.79 77.9384 73.9074 72.4163 71.5194 70.1933 68.8018 64.4087 62.9057 60.2342 59.8783 58.4973
threshold=11.325000000000001 44511.500000000007 34486.500000000007 4.0000000000000009 682.50000000000011 18.255000000000006 4.0000000000000009 23.675000000000004 22.665000000000003 1.0000000180025095e-35 682.50000000000011 1.5000000000000002 82801.500000000015 6.5000000000000009 1.0000000180025095e-35 36002.000000000007 13512.500000000002 11638.500000000002 727.50000000000011 1.0000000180025095e-35 2012.5000000000002 1.0000000180025095e-35 4.0000000000000009 4.0000000000000009 16.000000000000004 42503.820000000007 7739.5000000000009 2424.5000000000005 682.50000000000011 7137.5000000000009
decision_type=2 2 2 2 2 2 2 2 2 2 2 2 2 2 2 2 2 2 2 2 2 2 2 2 2 2 2 2 2 2
left_child=2 3 18 7 8 15 9 14 21 -4 23 -9 -6 -11 29 -3 26 -18 -1 -8 -16 -5 -12 -7 27 -20 -17 -22 -13 -2
right_child=1 5 6 4 12 10 19 11 -10 13 22 28 -14 -15 20 16 17 -19 25 -21 24 -23 -24 -25 -26 -27 -28 -29 -30 -31
leaf_value=-0.023047408129049905 -0.010769853991836616 0.0045010069790213719 -0.018170836253992548 0.011092609079761999 0.014040168919161281 0.0057213483390596434 -0.0049608990299444301 0.0025497124354597854 0.027737786737817446 -0.0121837784948497 -0.0051449026591224387 0.019439640455336235 0.0030070774824082838 0.0011411866648381008 -0.014486344591989117 -0.020647424670650866 0.0053454133664673159 -0.0084911195459124351 -0.017694882946392983 0.014655082430229938 -0.034785828998903666 0.021285651141854087 0.0055701573709582841 0.022407537438625301 -0.0034692166925433033 -0.036779805625619326 -0.0093832713203195837 0.0094373185062827433 0.0090125764544964123 0.00083428943413187085
leaf_weight=3770.2124878838658 1491.0648667886853 1749.1149888262153 7691.0389663279057 3583.6528942883015 6900.1055359095335 5354.9036688432097 1494.050293982029 2342.7256054878235 4230.6637064367533 6234.3188717365265 5537.7202477455139 3693.6865656226873 3496.8476698845625 2130.5014436691999 411.75602775067091 1631.4480961933732 2207.128208860755 3730.4256310537457 511.3164142742753 765.98757081478834 77.790910094976425 3391.5747108012438 2166.5930706262589 714.3391183167696 1296.7479275539517 3264.9414744675159 5158.6184008419514 7561.8520808964968 2195.0735293924809 3998.3024363219738
leaf_count=39723 9038 11627 65552 17614 32469 33747 11320 12313 18641 50309 36675 19065 17440 16134 2414 11558 14197 24388 5499 5353 444 15292 12469 3805 7933 35957 34259 40120 11583 23062
internal_value=-9.76368e-05 0.00570259 -0.0164521 0.0107387 0.0155853 -0.00226099 -0.0114362 0.00620017 0.0204618 -0.0132836 0.00219414 0.0118521 0.0103294 -0.00878994 0.00306461 -0.00649971 -0.00801151 -0.00334776 -0.028626 0.00168748 0.0062252 0.0160488 -0.00213163 0.00768528 0.00717951 -0.0341957 -0.0120897 0.00898701 0.0155529 -0.00231772
internal_weight=98784.5 72922.1 25862.4 44671.8 21602.8 28250.3 18315.9 23069 11205.9 16055.9 13773.6 8231.49 10397 8364.82 14837.5 14476.7 12727.6 5937.55 7546.47 2260.04 9348.15 6975.23 7704.31 6069.24 8936.39 3776.26 6790.07 7639.64 5888.76 5489.37
internal_count=640000 410153 229847 227428 101456 182725 148668 125972 51547 131995 86696 42961 49909 66443 83011 96029 84402 38585 81179 16673 50911 32906 49144 37552 48497 41456 45817 40564 30648 32100
is_linear=0
shrinkage=0.05


Tree=22
num_leaves=31
num_cat=0
split_feature=2 41 41 41 11 11 27 43 11 13 18 27 4 0 6 1 13 0 5 1 6 1 6 3 18 0 6 23 5 4
split_gain=3414.92 1049.99 597.93 372.036 210.828 193.584 168.77 165.435 134.01 120.408 117.956 154.947 94.5641 92.4746 92.3965 91.827 91.352 89.3739 89.014 86.1403 90.5993 80.5843 78.501 79.1175 75.4033 69.0892 68.7742 69.1202 64.1055 60.2196
threshold=11.325000000000001 44511.500000000007 34486.500000000007 13405.000000000002 17.045000000000005 18.155000000000005 6.5000000000000009 2662.0000000000005 26.035000000000004 702.50000000000011 23542.500000000004 7.5000000000000009 54.500000000000007 9612.5000000000018 36502.000000000007 4.0000000000000009 732.50000000000011 4962.5000000000009 1.0000000180025095e-35 4.0000000000000009 81003.000000000015 4.0000000000000009 101002.00000000001 263.94000000000005 25385.500000000004 4512.5000000000009 60004.000000000007 10.500000000000002 1.0000000180025095e-35 98.000000000000014
decision_type=2 2 2 2 2 2 2 2 2 2 2 2 2 2 2 2 2 2 2 2 2 2 2 2 2 2 2 2 2 2
left_child=2 3 16 8 13 12 18 -6 22 15 11 17 -3 14 -5 28 -1 -9 -4 20 -8 -20 23 -2 -15 -14 -27 -28 -7 -30
right_child=1 5 6 4 7 9 19 10 -10 -11 -12 -13 25 24 -16 -17 -18 -19 21 -21 -22 -23 -24 -25 -26 26 27 -29 29 -31
leaf_value=-0.022856334293511343 0.0031493861749916745 0.0050512263896779937 -0.018273010091833113 0.0076528451687184681 -0.015463627136582517 -0.0021937920471877537 0.00019081304081562615 -0.0016481357810245265 0.025974274051307891 -0.0054851928753673895 0.0042901025576261888 0.022410347364863734 -0.019040561875231708 0.0069916442221215893 -0.0090823448848377942 0.016401168324953429 -0.034052678263629309 0.012237881701258705 -0.011677512312791467 0.014134272727603703 -0.014235851775376843 0.0077884047048665007 0.0041951841098556292 0.018883239126672162 -0.0066944768635517991 -0.0016931253287681119 -0.007337340133622596 -0.020517915158078062 0.019111105226777367 0.004182515027470966
leaf_weight=4094.4504995644093 929.05766440927982 1641.6182609796524 6271.2792048975825 1186.4546072930098 589.32050700485706 3564.7351806163788 2670.8011323586106 1308.2413021922112 3522.7505851387978 3841.5631870925426 4475.3496664613485 3708.8630341291428 1214.9114085957408 7865.5549549981952 2705.5723475143313 1484.5985738039017 3282.2560651153326 10141.693922430277 6180.7686960697174 623.97307640314102 1836.62306753546 581.70670830458403 1553.7250134348869 5707.1692391633987 1154.0593872815371 4508.3731721416116 5725.0816146954894 1203.811353482306 804.39028060436249 4216.6414068341255
leaf_count=44009 4663 10580 53685 6839 3368 23776 21094 7409 15317 24507 22951 18765 8352 41422 16139 8002 37170 51366 50309 4425 15085 4070 7279 25590 6320 30050 37353 8894 4839 26372
internal_value=-9.61102e-05 0.00540611 -0.0158333 0.0101599 0.00745235 -0.00215255 -0.0109582 0.0106391 0.0178195 0.00204617 0.0114226 0.0135284 -0.00623909 0.00246089 -0.00398075 0.00491917 -0.0278381 0.0106513 -0.0139822 -0.00327725 -0.00568757 -0.0100031 0.0143119 0.0166805 0.00524051 -0.007704 -0.00649979 -0.00962731 0.00293377 0.00657414
internal_weight=98595.4 73053.5 25541.9 44847.8 33135.1 28205.7 18165.2 20223.5 11712.7 13911.9 19634.1 15158.8 14293.8 12911.6 3892.03 10070.4 7376.71 11449.9 13033.8 5131.4 4507.42 6762.48 8189.95 6636.23 9019.61 12652.2 11437.3 6928.89 8585.77 5021.03
internal_count=640000 410153 229847 227428 174579 182725 148668 103859 52849 87496 100491 77540 95229 70720 22978 62989 81179 58775 108064 40604 36179 54379 37532 30253 47742 84649 76297 46247 54987 31211
is_linear=0
shrinkage=0.05


Tree=23
num_leaves=31
num_cat=0
split_feature=2 41 41 1 5 6 27 4 3 23 39 4 0 13 4 39 11 0 5 13 1 6 5 5 6 11 4 39 4 5
split_gain=3110.41 942.729 565.234 333.001 205.457 177.942 155.51 148.258 144.694 139.215 131.071 128.74 109.293 108.002 104.307 102.759 98.6644 97.4371 96.0868 89.0604 84.9664 84.4248 80.7667 74.0347 73.5005 72.7736 69.6559 66.6267 63.1326 62.8355
threshold=11.325000000000001 44511.500000000007 34486.500000000007 4.0000000000000009 1.0000000180025095e-35 60004.000000000007 6.5000000000000009 54.500000000000007 167.25500000000002 16.000000000000004 2.5000000000000004 74.500000000000014 7937.5000000000009 692.50000000000011 49.500000000000007 2.5000000000000004 13.625000000000002 4012.5000000000005 1.0000000180025095e-35 722.50000000000011 4.0000000000000009 40002.000000000007 1.0000000180025095e-35 1.0000000180025095e-35 40002.000000000007 24.735000000000003 49.500000000000007 3.5000000000000004 186904.50000000003 1.5000000000000002
decision_type=2 2 2 2 2 2 2 2 2 2 2 2 2 2 2 2 2 2 2 2 2 2 2 2 2 2 2 2 2 2
left_child=2 3 19 7 13 11 20 14 -9 17 23 26 -13 16 -2 28 -5 -7 -19 -1 21 -4 -8 -10 -21 -12 -3 -18 -6 -17
right_child=1 5 6 4 15 9 22 8 10 -11 25 12 -14 -15 -16 29 27 18 -20 24 -22 -23 -24 -25 -26 -27 -28 -29 -30 -31
leaf_value=-0.020895041335732084 0.0038432476636074161 -6.9267047868918355e-05 -0.0062913025596031888 0.0026557056399169484 0.017709611935499751 -0.023110093261412879 -0.008838562998862572 -0.0063500112490720538 -0.0046713048355762881 -0.018152679378171402 0.006907722835289916 -0.006233041017762858 0.0036654483741966845 0.0027702649887095579 0.022387021306479071 0.028780854543833379 0.012807544921941905 -0.0069346675870450214 0.0022748451789556625 -0.01368180864440152 -0.0027442221877868899 -0.0171224477210082 0.0037782858534044042 0.0048247279226550288 -0.034577011878828598 0.017012582647990274 0.019356792440348127 0.024796199555393347 0.0052434297344336189 0.014043089551417923
leaf_weight=3233.9648793488741 1217.7600900679827 673.48988801985979 2246.9031420871615 1774.5103276371956 4942.3158996701241 630.90313423424959 2799.8619728535414 2965.6014222577214 3177.3018740564585 2019.8454530015588 5385.7846848219633 4490.8511647582054 7357.1611994951963 3955.349236369133 2009.9919636175036 3124.671372294426 4176.2134715914726 6513.2001113891602 5011.4586643204093 478.34704223275185 1627.9384187534451 9027.8334816247225 2319.0667978078127 5798.1334432661533 3501.9115870371461 2662.6627663522959 1465.7182909101248 1604.0208526104689 1278.2893269956112 941.05652470886707
leaf_count=35312 6509 4183 18526 8832 21808 4223 23187 17312 18232 14851 29116 29781 47047 19822 10601 13533 19705 42879 30589 5318 12248 77290 17417 30704 40549 13498 9172 7374 6218 4164
internal_value=-9.44597e-05 0.00512563 -0.0152312 0.00961456 0.014053 -0.00204923 -0.0104967 0.00544771 0.00384217 -0.00599718 0.00561767 0.00195182 -8.64588e-05 0.00946392 0.0153909 0.0191881 0.0129684 -0.00397734 -0.00292994 -0.0270582 -0.0134222 -0.0149639 -0.00312266 0.00146313 -0.0320658 0.0102507 0.0132409 0.0161344 0.0151479 0.0253696
internal_weight=98412.1 73176.3 25235.8 45013.7 21796.4 28162.6 18021.6 23217.2 19989.5 14175.4 17023.9 13987.2 11848 11510.1 3227.75 10286.3 7554.74 12155.6 11524.7 7214.22 12902.7 11274.7 5118.93 8975.44 3980.26 8048.45 2139.21 5780.23 6220.61 4065.73
internal_count=640000 410153 229847 227428 101456 182725 148668 125972 108862 92542 91550 90183 76828 55733 17110 45723 35911 77691 73468 81179 108064 95816 40604 48936 45867 42614 13355 27079 28026 17697
is_linear=0
shrinkage=0.05


Tree=24
num_leaves=31
num_cat=0
split_feature=2 41 41 41 11 11 1 43 11 11 13 18 27 13 5 6 0 18 0 0 6 18 13 23 18 1 11 6 33 43
split_gain=2832.39 846.867 533.702 317.404 180.851 172.75 147.323 145.837 124.764 116.195 111.181 105.555 144.114 86.7077 82.488 82.4114 89.264 94.4067 79.2086 78.6891 102.429 99.1526 75.1899 72.5106 78.2382 68.3618 59.7262 59.7251 58.8142 55.9353
threshold=11.325000000000001 44511.500000000007 34486.500000000007 13405.000000000002 17.045000000000005 18.255000000000006 4.0000000000000009 2662.0000000000005 22.765000000000004 26.035000000000004 677.50000000000011 20371.500000000004 7.5000000000000009 732.50000000000011 1.0000000180025095e-35 36002.000000000007 13512.500000000002 11638.500000000002 7812.5000000000009 13012.500000000002 45658.000000000007 12890.500000000002 737.50000000000011 6.5000000000000009 24760.500000000004 4.0000000000000009 21.485000000000003 40002.000000000007 10.500000000000002 7739.5000000000009
decision_type=2 2 2 2 2 2 2 2 2 2 2 2 2 2 2 2 2 2 2 2 2 2 2 2 2 2 2 2 2 2
left_child=2 3 13 9 19 15 8 -6 14 23 -7 12 18 26 -4 -3 29 -18 -9 20 -5 -21 -8 24 -2 -12 -1 -15 -20 -17
right_child=1 5 6 4 7 10 22 11 -10 -11 25 -13 -14 27 -16 16 17 -19 28 21 -22 -23 -24 -25 -26 -27 -28 -29 -30 -31
leaf_value=-0.024729732827418274 0.017678487104479515 0.0043669909423011645 -0.018818317706398142 0.0057969767166952298 -0.015041074874868297 0.0081041034261207061 0.008490589773416787 0.002641133588494003 -0.0041100378233904144 0.02370037467359697 -0.0039013831949538634 0.0045332253992745935 0.021932678899328692 -0.014032907428498885 -0.010397678974299182 -0.019337413839270803 0.0054687592577855777 -0.0076144355913759093 0.017017035225416709 0.01165227167950033 -0.0072047179369250682 -0.00056959401810232214 -0.010765280262295215 0.0040041377756301413 0.0022878939015957183 0.0060470526600684771 -0.01011667808169165 -0.035124076291372062 0.0084565094864934662 -0.0086045070349244582
leaf_weight=3039.2758046463132 5485.5511046499014 1751.5424361005425 5514.4113710522652 2523.3877964690328 585.91829091310501 4887.1404135376215 1482.0026406794786 2819.8657023906708 3964.062929622829 3556.9346430003643 6558.1999611631036 5707.0721973031759 3194.3257479220629 382.73978526890278 6153.8796204477549 1593.0168871507049 2203.4128201752901 3684.5455343127251 3698.925659224391 3457.333435960114 3790.0772688537836 3191.1962594613433 770.54511317610741 1796.1878845244646 972.07712529599667 2343.9947393685579 908.17570485174656 2728.5701921880245 4384.9631148576736 5101.1254986897111
leaf_count=33999 24432 11627 49239 14099 3368 29986 10650 15430 32185 15317 43338 29018 15938 4348 50571 11558 14197 24388 18349 17921 21659 17041 6023 8739 4361 13372 10010 32822 21756 34259
internal_value=-9.26902e-05 0.00486056 -0.0146458 0.00910187 0.00660756 -0.00195073 -0.0100511 0.00954303 -0.0117737 0.0161457 0.00204463 0.0102703 0.0125928 -0.0262876 -0.0143773 -0.00579436 -0.00720892 -0.0027184 0.00985659 0.00198964 -0.00200816 0.00578596 0.0019036 0.0128901 0.0153617 -0.00128191 -0.0213678 -0.0325295 0.0123735 -0.0111586
internal_weight=98230.5 73286.8 24943.7 45163.8 33353.1 28123 17884.9 20391.1 15632.4 11810.8 13789.3 19805.2 14098.1 7058.76 11668.3 14333.6 12582.1 5887.96 10903.8 12962 6313.47 6648.53 2252.55 8253.82 6457.63 8902.19 3947.45 3111.31 8083.89 6694.14
internal_count=640000 410153 229847 227428 174579 182725 148668 103859 131995 52849 86696 100491 71473 81179 99810 96029 84402 38585 55535 70720 35758 34962 16673 37532 28793 56710 44009 37170 40105 45817
is_linear=0
shrinkage=0.05


Tree=25
num_leaves=31
num_cat=0
split_feature=2 41 41 41 11 11 13 40 27 1 13 1 4 6 6 0 6 5 1 5 0 11 27 18 2 0 3 18 39 4
split_gain=2594.94 938.908 332.383 247.724 228.666 191.736 134.197 128.859 122.699 120.129 119.125 88.3259 83.5992 82.4501 75.7889 75.549 75.4168 72.9908 72.762 69.0172 67.1003 66.9359 66.5734 65.9342 63.102 60.4328 58.6375 73.4771 57.1435 56.6871
threshold=10.415000000000001 41323.000000000007 30733.000000000004 8963.0000000000018 18.535000000000004 18.155000000000005 702.50000000000011 230404.00000000003 6.5000000000000009 4.0000000000000009 687.50000000000011 4.0000000000000009 170624.50000000003 37001.600000000006 76003.000000000015 4687.5000000000009 40002.000000000007 1.0000000180025095e-35 4.0000000000000009 1.0000000180025095e-35 7762.5000000000009 28.265000000000004 6.5000000000000009 11437.500000000002 11.535000000000002 15812.500000000002 173.45500000000001 12890.500000000002 2.5000000000000004 351669.00000000006
decision_type=2 2 2 2 2 2 2 2 2 2 2 2 2 2 2 2 2 2 2 2 2 2 2 2 2 2 2 2 2 2
left_child=2 3 22 21 7 12 9 15 16 17 11 -7 20 -9 -10 -3 -4 -6 -8 -17 -5 -2 -1 25 -15 -22 -12 -28 -19 -14
right_child=1 4 8 5 6 10 18 13 14 -11 26 -13 29 24 -16 19 -18 28 -20 -21 23 -23 -24 -25 -26 -27 27 -29 -30 -31
leaf_value=-0.031654630785923038 0.015843617546570914 -0.013632017185204296 -0.0063987005921927395 -0.0023518634091192693 -0.0017996895735430927 0.010405637536889141 -0.0086522378629585936 0.0033564553858759791 0.0015453496672137243 0.015291865325545766 -0.011044492125441729 0.019078303039872957 -0.0063752359809249107 -0.0082374910559016596 -0.012366879095958416 -0.0047841356861083751 -0.017832450849184375 0.002825275591635713 0.003280725285279975 0.0030972706445156119 0.0063302205282328621 0.028381862427399408 -0.017252719616557301 0.0021507576395305341 -0.01779584671873392 0.017514078685124845 0.013275486842001957 0.0024067040359332416 0.012411049397437533 0.016155657217076177
leaf_weight=3595.9637639224529 4665.7623835802078 1223.3611588403583 1737.7765206247568 2272.7977369278669 4761.0955431982875 7254.9496112838387 3423.2413804084063 1045.4100344479084 1938.9579699188471 2374.6684490293264 486.76823765039444 4931.2451603710651 2745.0307633653283 4869.8983398675919 1977.1399154141545 5163.4733667969704 8479.719232827425 4304.0546334534883 2037.983046554029 6011.8443972766399 2859.1138697266579 1379.0734816193581 1032.9038622379303 3584.0774737372994 2675.254138417542 2091.4905473440886 2675.4289420470595 3713.118869163096 2433.9019351154566 310.77473087608814
leaf_count=44071 20620 8071 15518 13004 32041 37405 23456 7780 16536 12394 2726 21878 15276 36977 17482 33190 78769 27014 11871 35736 14362 5806 12434 18029 20189 10252 12887 18125 14505 1596
internal_value=-9.08308e-05 0.00386576 -0.0168122 0.0094003 -0.00148286 0.00769217 0.00244011 -0.00509664 -0.0130037 0.00505359 0.0109461 0.0139151 0.00321807 -0.00980323 -0.00547859 -0.00183563 -0.0158878 0.00293928 -0.00419917 -0.000544275 0.00528269 0.0187041 -0.0284409 0.00731578 -0.0116266 0.0110551 0.0056838 0.00695839 0.00628787 -0.00408385
internal_weight=98056.3 79293.8 18762.5 38969.6 40324.2 32924.8 19334.9 20989.2 14133.6 13873.7 19061.5 12186.2 13863.3 8590.56 3916.1 12398.7 10217.5 11499.1 5461.22 11175.3 10807.5 6044.84 4628.87 8534.68 7545.15 4950.6 6875.32 6388.55 6737.96 3055.81
internal_count=640000 455190 184810 191966 263224 165540 121281 141943 128305 85954 93021 59283 72519 64946 34018 76997 94287 73560 35327 68926 55647 26426 56505 42643 57166 24614 33738 31012 41519 16872
is_linear=0
shrinkage=0.05


Tree=26
num_leaves=31
num_cat=0
split_feature=2 41 41 11 4 27 42 0 18 39 18 43 42 27 6 1 2 27 2 6 1 43 0 18 1 43 11 20 3 6
split_gain=2368.25 843.903 319.554 225.833 217.16 182.292 142.827 139.589 154.002 121.105 120.611 103.12 95.0315 94.9535 91.5052 95.4979 91.3872 86.1936 85.2118 80.755 78.5784 72.3184 69.9855 79.8512 68.8193 67.0419 63.6974 60.9595 58.3719 53.3015
threshold=10.415000000000001 41323.000000000007 34486.500000000007 24.385000000000002 302.50000000000006 5.5000000000000009 47392.000000000007 9612.5000000000018 25385.500000000004 2.5000000000000004 20371.500000000004 9711.0000000000018 42026.500000000007 6.5000000000000009 60004.000000000007 4.0000000000000009 22.370000000000005 5.5000000000000009 6.4250000000000007 43996.000000000007 4.0000000000000009 14599.000000000002 14512.500000000002 7111.5000000000009 4.0000000000000009 2826.0000000000005 21.485000000000003 29.500000000000004 269.97500000000008 37001.600000000006
decision_type=2 2 2 2 2 2 2 2 2 2 2 2 2 2 2 2 2 2 2 2 2 2 2 2 2 2 2 2 2 2
left_child=2 3 18 7 6 14 12 19 16 24 11 -7 -3 29 15 -6 17 -9 -1 -2 21 -13 -16 -24 -5 -11 -20 -27 -8 -4
right_child=1 4 13 9 5 10 28 8 -10 25 -12 20 -14 -15 22 -17 -18 -19 26 -21 -22 -23 23 -25 -26 27 -28 -29 -30 -31
leaf_value=-0.033198681506933558 0.0058297324191382768 0.0015104271830543802 -0.0036337164308433041 0.0044254658818470875 -0.0055758704554493103 -0.0025734276398989343 -0.008136196657556596 0.0051655252225582928 -0.0018891744907859641 -0.034531968142871315 -0.0052791882502749438 0.013175953075978856 0.018711465664022171 -0.0041071722260491916 -0.015476033524633982 0.0076359150057842239 0.017853018144126445 0.013466235963205434 -0.024299614888162006 -0.0054584332797471919 0.021292964664632305 0.00020731949864842707 0.0058769399297456983 -0.0098808333627963506 0.014412020973819918 0.024501205838957069 -0.010514341884046936 0.014658158630411819 0.0035349806947299906 -0.015577651995037864
leaf_weight=2100.723114721477 2944.8780523911119 1193.5102460831404 1071.0871557220817 3313.7229356393218 8040.7010515332222 3131.9005586579442 1499.2525829747319 8043.3788455873728 3123.8066414445639 57.551867976784706 4783.5484699010849 1918.3622262701392 2453.9015018716455 3366.7705885842443 3803.2811904400587 1648.1155117452145 3167.3675649017096 5116.9770610332489 3583.8803640529513 3429.5401733890176 1025.0126849859953 2445.1567086577415 1040.5305894985795 3536.0379456505179 3598.4791519939899 3210.9812901169062 1093.7015911489725 3083.5092932134867 3753.1999509185553 7302.4594322219491
leaf_count=27163 15915 7660 9296 16774 55174 20953 9926 39972 15672 296 30511 12413 15414 28336 26817 9258 13840 25073 41601 19405 5477 15503 6772 23529 15812 14902 12415 14305 23817 65999
internal_value=-8.88122e-05 0.00366809 -0.0161893 0.00890143 -0.0014116 -0.00336716 0.00548189 0.00617783 0.00828214 0.0142044 0.00107455 0.00464167 0.0130829 -0.0111986 -0.0066376 -0.00332848 0.0102281 0.00839299 -0.0248333 -0.000243483 0.0088352 0.0059088 -0.0104636 -0.00629814 0.00962445 0.0191882 -0.0210764 0.0196793 0.000203576 -0.0140499
internal_weight=97881.3 79362.7 18518.6 39090.2 40272.5 31372.6 8899.86 25825.9 19451.5 13264.2 13304 8520.43 3647.41 11740.3 18068.7 9688.82 16327.7 13160.4 6778.31 6374.42 5388.53 4363.52 8379.85 4576.57 6912.2 6352.04 4677.58 6294.49 5252.45 8373.55
internal_count=640000 455190 184810 191966 263224 206407 56817 129877 94557 62089 84857 54346 23074 103631 121550 64432 78885 65045 81179 35320 33393 27916 57118 30301 32586 29503 54016 29207 33743 75295
is_linear=0
shrinkage=0.05


Tree=27
num_leaves=31
num_cat=0
split_feature=2 41 41 40 11 5 34 40 13 43 4 6 13 27 5 4 0 1 6 11 6 4 0 18 3 23 2 18 0 18
split_gain=2160.65 758.702 301.946 213.434 207.847 180.564 150.829 142.524 110.785 103.237 90.9578 86.7282 84.649 79.7524 78.0818 81.4682 77.84 75.3267 73.7448 71.2726 70.7511 69.9646 77.665 67.4403 70.0396 64.3934 63.6968 61.1592 57.3107 77.6509
threshold=10.415000000000001 41323.000000000007 34486.500000000007 37357.000000000007 21.165000000000003 1.0000000180025095e-35 5.5000000000000009 230404.00000000003 682.50000000000011 7739.5000000000009 201.00000000000003 37001.600000000006 722.50000000000011 10.500000000000002 1.5000000000000002 178727.00000000003 4687.5000000000009 4.0000000000000009 52998.500000000007 17.145000000000003 40002.000000000007 54.500000000000007 7812.5000000000009 25731.500000000004 220.08500000000004 4.5000000000000009 11.535000000000002 6575.5000000000009 13512.500000000002 12567.500000000002
decision_type=2 2 2 2 2 2 2 2 2 2 2 2 2 2 2 2 2 2 2 2 2 2 2 2 2 2 2 2 2 2
left_child=2 3 12 25 7 9 21 16 -6 -5 -4 -9 -1 23 15 -8 -3 -10 -18 -12 -14 -7 -23 24 -11 -2 -13 -24 -20 -30
right_child=1 4 10 5 8 6 14 11 17 13 19 26 20 -15 -16 -17 18 -19 28 -21 -22 22 27 -25 -26 -27 -28 -29 29 -31
leaf_value=-0.017899241960801875 0.022852737489243255 -0.011922495447834063 -0.0024387419588796744 -0.0052496777872024034 0.0083319651005722261 0.017199787116446829 0.020670416929198045 0.0035184692949068301 -0.0034236161180193868 -0.0069931519849357211 -0.017248954767898336 -0.0072620618327361545 -0.010690771845111999 0.01591961128531744 0.0062807047097245125 0.0053530510761600836 0.0056832667657868412 0.0069905940185181151 -0.0072523466055410867 -0.0083656327442401777 -0.031866333455262304 -0.002121086243091889 0.013721236550134753 -0.0047323415157301072 0.0069984735259754766 0.010134924341088767 -0.016072249485512013 0.0041369228856074575 0.0080445409336076402 -0.0037652693504544332
leaf_weight=3015.000799998641 3023.4048868119717 1474.235213547945 2575.8039976209402 2992.496581107378 6384.8932642713189 1355.4659558311105 5270.1179587841034 1283.7673333659768 5980.1246310472488 1006.075722694397 4817.9443560838699 5805.302209623158 450.39024440199137 1496.0919126868248 1776.5364899337292 1039.2658202201128 4202.1424055621028 2446.7728711664677 3591.2501446530223 4249.4436215832829 3176.4811487644911 2706.3231632709503 2717.2804703935981 1983.5702299773693 8060.1587471365929 1483.761039480567 3172.8468786776066 4296.060780018568 2257.1500087976456 3630.8392356559634
